svm_type c_svc
kernel_type linear
nr_class 2
total_sv 49947
rho 1.97721 
label 0 1 
nr_sv 24970 24977 
SV 
1 1:0 2:0 
1 1:0 2:0 
1 1:0 2:0 
1 1:0 2:0 
1 1:0 2:0 
1 1:0 2:0 
1 1:0 2:0 
1 1:0 2:0 
1 1:0 2:0 
1 1:0 2:0 
1 1:0 2:0 
1 1:0 2:0 
1 1:0 2:0 
1 1:0 2:0 
1 1:0 2:0 
1 1:0 2:0 
1 1:0 2:0 
1 1:0 2:0 
1 1:0 2:0 
1 1:0 2:0 
1 1:0 2:0 
1 1:0 2:0 
1 1:0 2:0 
1 1:0 2:0 
1 1:0 2:0 
1 1:0 2:0 
1 1:0 2:0 
1 1:0 2:0 
1 1:0 2:0 
1 1:0 2:0 
1 1:0 2:0 
1 1:0 2:0 
1 1:0 2:0 
1 1:0 2:0 
1 1:0 2:0 
1 1:0 2:0 
1 1:0 2:0 
1 1:0 2:0 
1 1:0 2:0 
1 1:0 2:0 
1 1:0 2:0 
1 1:0 2:0 
1 1:0 2:0 
1 1:0 2:0 
1 1:0 2:0 
1 1:0 2:0 
1 1:0 2:0 
1 1:0 2:0 
1 1:0 2:0 
1 1:0 2:0 
1 1:0 2:0 
1 1:0 2:0 
1 1:0 2:0 
1 1:0 2:0 
1 1:0 2:0 
1 1:0 2:0 
1 1:0 2:0 
1 1:0 2:0 
1 1:0 2:0 
1 1:0 2:0 
1 1:0 2:0 
1 1:0 2:0 
1 1:0 2:0 
1 1:0 2:0 
1 1:0 2:0 
1 1:0 2:0 
1 1:0 2:0 
1 1:0 2:0 
1 1:0 2:0 
1 1:0 2:0 
1 1:0 2:0 
1 1:0 2:0 
1 1:0 2:0 
1 1:0 2:0 
1 1:0 2:0 
1 1:0 2:0 
1 1:0 2:0 
1 1:0 2:0 
1 1:0 2:0 
1 1:0 2:0 
1 1:0 2:0 
1 1:0 2:0 
1 1:0 2:0 
1 1:0 2:0 
1 1:0 2:0 
1 1:0 2:0 
1 1:0 2:0 
1 1:0 2:0 
1 1:0 2:0 
1 1:0 2:0 
1 1:0 2:0 
1 1:0 2:0 
1 1:0 2:0 
1 1:0 2:0 
1 1:0 2:0 
1 1:0 2:0 
1 1:0 2:0 
1 1:0 2:0 
1 1:0 2:0 
1 1:0 2:0 
1 1:0 2:0 
1 1:0 2:0 
1 1:0 2:0 
1 1:0 2:0 
1 1:0 2:0 
1 1:0 2:0 
1 1:0 2:0 
1 1:0 2:0 
1 1:0 2:0 
1 1:0 2:0 
1 1:0 2:0 
1 1:0 2:0 
1 1:0 2:0 
1 1:0 2:0 
1 1:0 2:0 
1 1:0 2:0 
1 1:0 2:0 
1 1:0 2:0 
1 1:0 2:0 
1 1:0 2:0 
1 1:0 2:0 
1 1:0 2:0 
1 1:0 2:0 
1 1:0 2:0 
1 1:0 2:0 
1 1:0 2:0 
1 1:0 2:0 
1 1:0 2:0 
1 1:0 2:0 
1 1:0 2:0 
1 1:0 2:0 
1 1:0 2:0 
1 1:0 2:0 
1 1:0 2:0 
1 1:0 2:0 
1 1:0 2:0 
1 1:0 2:0 
1 1:0 2:0 
1 1:0 2:0 
1 1:0 2:0 
1 1:0 2:0 
1 1:0 2:0 
1 1:0 2:0 
1 1:0 2:0 
1 1:0 2:0 
1 1:0 2:0 
1 1:0 2:0 
1 1:0 2:0 
1 1:0 2:0 
1 1:0 2:0 
1 1:0 2:0 
1 1:0 2:0 
1 1:0 2:0 
1 1:0 2:0 
1 1:0 2:0 
1 1:0 2:0 
1 1:0 2:0 
1 1:0 2:0 
1 1:0 2:0 
1 1:0 2:0 
1 1:0 2:0 
1 1:0 2:0 
1 1:0 2:0 
1 1:0 2:0 
1 1:0 2:0 
1 1:0 2:0 
1 1:0 2:0 
1 1:0 2:0 
1 1:0 2:0 
1 1:0 2:0 
1 1:0 2:0 
1 1:0 2:0 
1 1:0 2:0 
1 1:0 2:0 
1 1:0 2:0 
1 1:0 2:0 
1 1:0 2:0 
1 1:0 2:0 
1 1:0 2:0 
1 1:0 2:0 
1 1:0 2:0 
1 1:0 2:0 
1 1:0 2:0 
1 1:0 2:0 
1 1:0 2:0 
1 1:0 2:0 
1 1:0 2:0 
1 1:0 2:0 
1 1:0 2:0 
1 1:0 2:0 
1 1:0 2:0 
1 1:0 2:0 
1 1:0 2:0 
1 1:0 2:0 
1 1:0 2:0 
1 1:0 2:0 
1 1:0 2:0 
1 1:0 2:0 
1 1:0 2:0 
1 1:0 2:0 
1 1:0 2:0 
1 1:0 2:0 
1 1:0 2:0 
1 1:0 2:0 
1 1:0 2:0 
1 1:0 2:0 
1 1:0 2:0 
1 1:0 2:0 
1 1:0 2:0 
1 1:0 2:0 
1 1:0 2:0 
1 1:0 2:0 
1 1:0 2:0 
1 1:0 2:0 
1 1:0 2:0 
1 1:0 2:0 
1 1:0 2:0 
1 1:0 2:0 
1 1:0 2:0 
1 1:0 2:0 
1 1:0 2:0 
1 1:0 2:0 
1 1:0 2:0 
1 1:0 2:0 
1 1:0 2:0 
1 1:0 2:0 
1 1:0 2:0 
1 1:0 2:0 
1 1:0 2:0 
1 1:0 2:0 
1 1:0 2:0 
1 1:0 2:0 
1 1:0 2:0 
1 1:0 2:0 
1 1:0 2:0 
1 1:0 2:0 
1 1:0 2:0 
1 1:0 2:0 
1 1:0 2:0 
1 1:0 2:0 
1 1:0 2:0 
1 1:0 2:0 
1 1:0 2:0 
1 1:0 2:0 
1 1:0 2:0 
1 1:0 2:0 
1 1:0 2:0 
1 1:0 2:0 
1 1:0 2:0 
1 1:0 2:0 
1 1:0 2:0 
1 1:0 2:0 
1 1:0 2:0 
1 1:0 2:0 
1 1:0 2:0 
1 1:0 2:0 
1 1:0 2:0 
1 1:0 2:0 
1 1:0 2:0 
1 1:0 2:0 
1 1:0 2:0 
1 1:0 2:0 
1 1:0 2:0 
1 1:0 2:0 
1 1:0 2:0 
1 1:0 2:0 
1 1:0 2:0 
1 1:0 2:0 
1 1:0 2:0 
1 1:0 2:0 
1 1:0 2:0 
1 1:0 2:0 
1 1:0 2:0 
1 1:0 2:0 
1 1:0 2:0 
1 1:0 2:0 
1 1:0 2:0 
1 1:0 2:0 
1 1:0 2:0 
1 1:0 2:0 
1 1:0 2:0 
1 1:0 2:0 
1 1:0 2:0 
1 1:0 2:0 
1 1:0 2:0 
1 1:0 2:0 
1 1:0 2:0 
1 1:0 2:0 
1 1:0 2:0 
1 1:0 2:0 
1 1:0 2:0 
1 1:0 2:0 
1 1:0 2:0 
1 1:0 2:0 
1 1:0 2:0 
1 1:0 2:0 
1 1:0 2:0 
1 1:0 2:0 
1 1:0 2:0 
1 1:0 2:0 
1 1:0 2:0 
1 1:0 2:0 
1 1:0 2:0 
1 1:0 2:0 
1 1:0 2:0 
1 1:0 2:0 
1 1:0 2:0 
1 1:0 2:0 
1 1:0 2:0 
1 1:0 2:0 
1 1:0 2:0 
1 1:0 2:0 
1 1:0 2:0 
1 1:0 2:0 
1 1:0 2:0 
1 1:0 2:0 
1 1:0 2:0 
1 1:0 2:0 
1 1:0 2:0 
1 1:0 2:0 
1 1:0 2:0 
1 1:0 2:0 
1 1:0 2:0 
1 1:0 2:0 
1 1:0 2:0 
1 1:0 2:0 
1 1:0 2:0 
1 1:0 2:0 
1 1:0 2:0 
1 1:0 2:0 
1 1:0 2:0 
1 1:0 2:0 
1 1:0 2:0 
1 1:0 2:0 
1 1:0 2:0 
1 1:0 2:0 
1 1:0 2:0 
1 1:0 2:0 
1 1:0 2:0 
1 1:0 2:0 
1 1:0 2:0 
1 1:0 2:0 
1 1:0 2:0 
1 1:0 2:0 
1 1:0 2:0 
1 1:0 2:0 
1 1:0 2:0 
1 1:0 2:0 
1 1:0 2:0 
1 1:0 2:0 
1 1:0 2:0 
1 1:0 2:0 
1 1:0 2:0 
1 1:0 2:0 
1 1:0 2:0 
1 1:0 2:0 
1 1:0 2:0 
1 1:0 2:0 
1 1:0 2:0 
1 1:0 2:0 
1 1:0 2:0 
1 1:0 2:0 
1 1:0 2:0 
1 1:0 2:0 
1 1:0 2:0 
1 1:0 2:0 
1 1:0 2:0 
1 1:0 2:0 
1 1:0 2:0 
1 1:0 2:0 
1 1:0 2:0 
1 1:0 2:0 
1 1:0 2:0 
1 1:0 2:0 
1 1:0 2:0 
1 1:0 2:0 
1 1:0 2:0 
1 1:0 2:0 
1 1:0 2:0 
1 1:0 2:0 
1 1:0 2:0 
1 1:0 2:0 
1 1:0 2:0 
1 1:0 2:0 
1 1:0 2:0 
1 1:0 2:0 
1 1:0 2:0 
1 1:0 2:0 
1 1:0 2:0 
1 1:0 2:0 
1 1:0 2:0 
1 1:0 2:0 
1 1:0 2:0 
1 1:0 2:0 
1 1:0 2:0 
1 1:0 2:0 
1 1:0 2:0 
1 1:0 2:0 
1 1:0 2:0 
1 1:0 2:0 
1 1:0 2:0 
1 1:0 2:0 
1 1:0 2:0 
1 1:0 2:0 
1 1:0 2:0 
1 1:0 2:0 
1 1:0 2:0 
1 1:0 2:0 
1 1:0 2:0 
1 1:0 2:0 
1 1:0 2:0 
1 1:0 2:0 
1 1:0 2:0 
1 1:0 2:0 
1 1:0 2:0 
1 1:0 2:0 
1 1:0 2:0 
1 1:0 2:0 
1 1:0 2:0 
1 1:0 2:0 
1 1:0 2:0 
1 1:0 2:0 
1 1:0 2:0 
1 1:0 2:0 
1 1:0 2:0 
1 1:0 2:0 
1 1:0 2:0 
1 1:0 2:0 
1 1:0 2:0 
1 1:0 2:0 
1 1:0 2:0 
1 1:0 2:0 
1 1:0 2:0 
1 1:0 2:0 
1 1:0 2:0 
1 1:0 2:0 
1 1:0 2:0 
1 1:0 2:0 
1 1:0 2:0 
1 1:0 2:0 
1 1:0 2:0 
1 1:0 2:0 
1 1:0 2:0 
1 1:0 2:0 
1 1:0 2:0 
1 1:0 2:0 
1 1:0 2:0 
1 1:0 2:0 
1 1:0 2:0 
1 1:0 2:0 
1 1:0 2:0 
1 1:0 2:0 
1 1:0 2:0 
1 1:0 2:0 
1 1:0 2:0 
1 1:0 2:0 
1 1:0 2:0 
1 1:0 2:0 
1 1:0 2:0 
1 1:0 2:0 
1 1:0 2:0 
1 1:0 2:0 
1 1:0 2:0 
1 1:0 2:0 
1 1:0 2:0 
1 1:0 2:0 
1 1:0 2:0 
1 1:0 2:0 
1 1:0 2:0 
1 1:0 2:0 
1 1:0 2:0 
1 1:0 2:0 
1 1:0 2:0 
1 1:0 2:0 
1 1:0 2:0 
1 1:0 2:0 
1 1:0 2:0 
1 1:0 2:0 
1 1:0 2:0 
1 1:0 2:0 
1 1:0 2:0 
1 1:0 2:0 
1 1:0 2:0 
1 1:0 2:0 
1 1:0 2:0 
1 1:0 2:0 
1 1:0 2:0 
1 1:0 2:0 
1 1:0 2:0 
1 1:0 2:0 
1 1:0 2:0 
1 1:0 2:0 
1 1:0 2:0 
1 1:0 2:0 
1 1:0 2:0 
1 1:0 2:0 
1 1:0 2:0 
1 1:0 2:0 
1 1:0 2:0 
1 1:0 2:0 
1 1:0 2:0 
1 1:0 2:0 
1 1:0 2:0 
1 1:0 2:0 
1 1:0 2:0 
1 1:0 2:0 
1 1:0 2:0 
1 1:0 2:0 
1 1:0 2:0 
1 1:0 2:0 
1 1:0 2:0 
1 1:0 2:0 
1 1:0 2:0 
1 1:0 2:0 
1 1:0 2:0 
1 1:0 2:0 
1 1:0 2:0 
1 1:0 2:0 
1 1:0 2:0 
1 1:0 2:0 
1 1:0 2:0 
1 1:0 2:0 
1 1:0 2:0 
1 1:0 2:0 
1 1:0 2:0 
1 1:0 2:0 
1 1:0 2:0 
1 1:0 2:0 
1 1:0 2:0 
1 1:0 2:0 
1 1:0 2:0 
1 1:0 2:0 
1 1:0 2:0 
1 1:0 2:0 
1 1:0 2:0 
1 1:0 2:0 
1 1:0 2:0 
1 1:0 2:0 
1 1:0 2:0 
1 1:0 2:0 
1 1:0 2:0 
1 1:0 2:0 
1 1:0 2:0 
1 1:0 2:0 
1 1:0 2:0 
1 1:0 2:0 
1 1:0 2:0 
1 1:0 2:0 
1 1:0 2:0 
1 1:0 2:0 
1 1:0 2:0 
1 1:0 2:0 
1 1:0 2:0 
1 1:0 2:0 
1 1:0 2:0 
1 1:0 2:0 
1 1:0 2:0 
1 1:0 2:0 
1 1:0 2:0 
1 1:0 2:0 
1 1:0 2:0 
1 1:0 2:0 
1 1:0 2:0 
1 1:0 2:0 
1 1:0 2:0 
1 1:0 2:0 
1 1:0 2:0 
1 1:0 2:0 
1 1:0 2:0 
1 1:0 2:0 
1 1:0 2:0 
1 1:0 2:0 
1 1:0 2:0 
1 1:0 2:0 
1 1:0 2:0 
1 1:0 2:0 
1 1:0 2:0 
1 1:0 2:0 
1 1:0 2:0 
1 1:0 2:0 
1 1:0 2:0 
1 1:0 2:0 
1 1:0 2:0 
1 1:0 2:0 
1 1:0 2:0 
1 1:0 2:0 
1 1:0 2:0 
1 1:0 2:0 
1 1:0 2:0 
1 1:0 2:0 
1 1:0 2:0 
1 1:0 2:0 
1 1:0 2:0 
1 1:0 2:0 
1 1:0 2:0 
1 1:0 2:0 
1 1:0 2:0 
1 1:0 2:0 
1 1:0 2:0 
1 1:0 2:0 
1 1:0 2:0 
1 1:0 2:0 
1 1:0 2:0 
1 1:0 2:0 
1 1:0 2:0 
1 1:0 2:0 
1 1:0 2:0 
1 1:0 2:0 
1 1:0 2:0 
1 1:0 2:0 
1 1:0 2:0 
1 1:0 2:0 
1 1:0 2:0 
1 1:0 2:0 
1 1:0 2:0 
1 1:0 2:0 
1 1:0 2:0 
1 1:0 2:0 
1 1:0 2:0 
1 1:0 2:0 
1 1:0 2:0 
1 1:0 2:0 
1 1:0 2:0 
1 1:0 2:0 
1 1:0 2:0 
1 1:0 2:0 
1 1:0 2:0 
1 1:0 2:0 
1 1:0 2:0 
1 1:0 2:0 
1 1:0 2:0 
1 1:0 2:0 
1 1:0 2:0 
1 1:0 2:0 
1 1:0 2:0 
1 1:0 2:0 
1 1:0 2:0 
1 1:0 2:0 
1 1:0 2:0 
1 1:0 2:0 
1 1:0 2:0 
1 1:0 2:0 
1 1:0 2:0 
1 1:0 2:0 
1 1:0 2:0 
1 1:0 2:0 
1 1:0 2:0 
1 1:0 2:0 
1 1:0 2:0 
1 1:0 2:0 
1 1:0 2:0 
1 1:0 2:0 
1 1:0 2:0 
1 1:0 2:0 
1 1:0 2:0 
1 1:0 2:0 
1 1:0 2:0 
1 1:0 2:0 
1 1:0 2:0 
1 1:0 2:0 
1 1:0 2:0 
1 1:0 2:0 
1 1:0 2:0 
1 1:0 2:0 
1 1:0 2:0 
1 1:0 2:0 
1 1:0 2:0 
1 1:0 2:0 
1 1:0 2:0 
1 1:0 2:0 
1 1:0 2:0 
1 1:0 2:0 
1 1:0 2:0 
1 1:0 2:0 
1 1:0 2:0 
1 1:0 2:0 
1 1:0 2:0 
1 1:0 2:0 
1 1:0 2:0 
1 1:0 2:0 
1 1:0 2:0 
1 1:0 2:0 
1 1:0 2:0 
1 1:0 2:0 
1 1:0 2:0 
1 1:0 2:0 
1 1:0 2:0 
1 1:0 2:0 
1 1:0 2:0 
1 1:0 2:0 
1 1:0 2:0 
1 1:0 2:0 
1 1:0 2:0 
1 1:0 2:0 
1 1:0 2:0 
1 1:0 2:0 
1 1:0 2:0 
1 1:0 2:0 
1 1:0 2:0 
1 1:0 2:0 
1 1:0 2:0 
1 1:0 2:0 
1 1:0 2:0 
1 1:0 2:0 
1 1:0 2:0 
1 1:0 2:0 
1 1:0 2:0 
1 1:0 2:0 
1 1:0 2:0 
1 1:0 2:0 
1 1:0 2:0 
1 1:0 2:0 
1 1:0 2:0 
1 1:0 2:0 
1 1:0 2:0 
1 1:0 2:0 
1 1:0 2:0 
1 1:0 2:0 
1 1:0 2:0 
1 1:0 2:0 
1 1:0 2:0 
1 1:0 2:0 
1 1:0 2:0 
1 1:0 2:0 
1 1:0 2:0 
1 1:0 2:0 
1 1:0 2:0 
1 1:0 2:0 
1 1:0 2:0 
1 1:0 2:0 
1 1:0 2:0 
1 1:0 2:0 
1 1:0 2:0 
1 1:0 2:0 
1 1:0 2:0 
1 1:0 2:0 
1 1:0 2:0 
1 1:0 2:0 
1 1:0 2:0 
1 1:0 2:0 
1 1:0 2:0 
1 1:0 2:0 
1 1:0 2:0 
1 1:0 2:0 
1 1:0 2:0 
1 1:0 2:0 
1 1:0 2:0 
1 1:0 2:0 
1 1:0 2:0 
1 1:0 2:0 
1 1:0 2:0 
1 1:0 2:0 
1 1:0 2:0 
1 1:0 2:0 
1 1:0 2:0 
1 1:0 2:0 
1 1:0 2:0 
1 1:0 2:0 
1 1:0 2:0 
1 1:0 2:0 
1 1:0 2:0 
1 1:0 2:0 
1 1:0 2:0 
1 1:0 2:0 
1 1:0 2:0 
1 1:0 2:0 
1 1:0 2:0 
1 1:0 2:0 
1 1:0 2:0 
1 1:0 2:0 
1 1:0 2:0 
1 1:0 2:0 
1 1:0 2:0 
1 1:0 2:0 
1 1:0 2:0 
1 1:0 2:0 
1 1:0 2:0 
1 1:0 2:0 
1 1:0 2:0 
1 1:0 2:0 
1 1:0 2:0 
1 1:0 2:0 
1 1:0 2:0 
1 1:0 2:0 
1 1:0 2:0 
1 1:0 2:0 
1 1:0 2:0 
1 1:0 2:0 
1 1:0 2:0 
1 1:0 2:0 
1 1:0 2:0 
1 1:0 2:0 
1 1:0 2:0 
1 1:0 2:0 
1 1:0 2:0 
1 1:0 2:0 
1 1:0 2:0 
1 1:0 2:0 
1 1:0 2:0 
1 1:0 2:0 
1 1:0 2:0 
1 1:0 2:0 
1 1:0 2:0 
1 1:0 2:0 
1 1:0 2:0 
1 1:0 2:0 
1 1:0 2:0 
1 1:0 2:0 
1 1:0 2:0 
1 1:0 2:0 
1 1:0 2:0 
1 1:0 2:0 
1 1:0 2:0 
1 1:0 2:0 
1 1:0 2:0 
1 1:0 2:0 
1 1:0 2:0 
1 1:0 2:0 
1 1:0 2:0 
1 1:0 2:0 
1 1:0 2:0 
1 1:0 2:0 
1 1:0 2:0 
1 1:0 2:0 
1 1:0 2:0 
1 1:0 2:0 
1 1:0 2:0 
1 1:0 2:0 
1 1:0 2:0 
1 1:0 2:0 
1 1:0 2:0 
1 1:0 2:0 
1 1:0 2:0 
1 1:0 2:0 
1 1:0 2:0 
1 1:0 2:0 
1 1:0 2:0 
1 1:0 2:0 
1 1:0 2:0 
1 1:0 2:0 
1 1:0 2:0 
1 1:0 2:0 
1 1:0 2:0 
1 1:0 2:0 
1 1:0 2:0 
1 1:0 2:0 
1 1:0 2:0 
1 1:0 2:0 
1 1:0 2:0 
1 1:0 2:0 
1 1:0 2:0 
1 1:0 2:0 
1 1:0 2:0 
1 1:0 2:0 
1 1:0 2:0 
1 1:0 2:0 
1 1:0 2:0 
1 1:0 2:0 
1 1:0 2:0 
1 1:0 2:0 
1 1:0 2:0 
1 1:0 2:0 
1 1:0 2:0 
1 1:0 2:0 
1 1:0 2:0 
1 1:0 2:0 
1 1:0 2:0 
1 1:0 2:0 
1 1:0 2:0 
1 1:0 2:0 
1 1:0 2:0 
1 1:0 2:0 
1 1:0 2:0 
1 1:0 2:0 
1 1:0 2:0 
1 1:0 2:0 
1 1:0 2:0 
1 1:0 2:0 
1 1:0 2:0 
1 1:0 2:0 
1 1:0 2:0 
1 1:0 2:0 
1 1:0 2:0 
1 1:0 2:0 
1 1:0 2:0 
1 1:0 2:0 
1 1:0 2:0 
1 1:0 2:0 
1 1:0 2:0 
1 1:0 2:0 
1 1:0 2:0 
1 1:0 2:0 
1 1:0 2:0 
1 1:0 2:0 
1 1:0 2:0 
1 1:0 2:0 
1 1:0 2:0 
1 1:0 2:0 
1 1:0 2:0 
1 1:0 2:0 
1 1:0 2:0 
1 1:0 2:0 
1 1:0 2:0 
1 1:0 2:0 
1 1:0 2:0 
1 1:0 2:0 
1 1:0 2:0 
1 1:0 2:0 
1 1:0 2:0 
1 1:0 2:0 
1 1:0 2:0 
1 1:0 2:0 
1 1:0 2:0 
1 1:0 2:0 
1 1:0 2:0 
1 1:0 2:0 
1 1:0 2:0 
1 1:0 2:0 
1 1:0 2:0 
1 1:0 2:0 
1 1:0 2:0 
1 1:0 2:0 
1 1:0 2:0 
1 1:0 2:0 
1 1:0 2:0 
1 1:0 2:0 
1 1:0 2:0 
1 1:0 2:0 
1 1:0 2:0 
1 1:0 2:0 
1 1:0 2:0 
1 1:0 2:0 
1 1:0 2:0 
1 1:0 2:0 
1 1:0 2:0 
1 1:0 2:0 
1 1:0 2:0 
1 1:0 2:0 
1 1:0 2:0 
1 1:0 2:0 
1 1:0 2:0 
1 1:0 2:0 
1 1:0 2:0 
1 1:0 2:0 
1 1:0 2:0 
1 1:0 2:0 
1 1:0 2:0 
1 1:0 2:0 
1 1:0 2:0 
1 1:0 2:0 
1 1:0 2:0 
1 1:0 2:0 
1 1:0 2:0 
1 1:0 2:0 
1 1:0 2:0 
1 1:0 2:0 
1 1:0 2:0 
1 1:0 2:0 
1 1:0 2:0 
1 1:0 2:0 
1 1:0 2:0 
1 1:0 2:0 
1 1:0 2:0 
1 1:0 2:0 
1 1:0 2:0 
1 1:0 2:0 
1 1:0 2:0 
1 1:0 2:0 
1 1:0 2:0 
1 1:0 2:0 
1 1:0 2:0 
1 1:0 2:0 
1 1:0 2:0 
1 1:0 2:0 
1 1:0 2:0 
1 1:0 2:0 
1 1:0 2:0 
1 1:0 2:0 
1 1:0 2:0 
1 1:0 2:0 
1 1:0 2:0 
1 1:0 2:0 
1 1:0 2:0 
1 1:0 2:0 
1 1:0 2:0 
1 1:0 2:0 
1 1:0 2:0 
1 1:0 2:0 
1 1:0 2:0 
1 1:0 2:0 
1 1:0 2:0 
1 1:0 2:0 
1 1:0 2:0 
1 1:0 2:0 
1 1:0 2:0 
1 1:0 2:0 
1 1:0 2:0 
1 1:0 2:0 
1 1:0 2:0 
1 1:0 2:0 
1 1:0 2:0 
1 1:0 2:0 
1 1:0 2:0 
1 1:0 2:0 
1 1:0 2:0 
1 1:0 2:0 
1 1:0 2:0 
1 1:0 2:0 
1 1:0 2:0 
1 1:0 2:0 
1 1:0 2:0 
1 1:0 2:0 
1 1:0 2:0 
1 1:0 2:0 
1 1:0 2:0 
1 1:0 2:0 
1 1:0 2:0 
1 1:0 2:0 
1 1:0 2:0 
1 1:0 2:0 
1 1:0 2:0 
1 1:0 2:0 
1 1:0 2:0 
1 1:0 2:0 
1 1:0 2:0 
1 1:0 2:0 
1 1:0 2:0 
1 1:0 2:0 
1 1:0 2:0 
1 1:0 2:0 
1 1:0 2:0 
1 1:0 2:0 
1 1:0 2:0 
1 1:0 2:0 
1 1:0 2:0 
1 1:0 2:0 
1 1:0 2:0 
1 1:0 2:0 
1 1:0 2:0 
1 1:0 2:0 
1 1:0 2:0 
1 1:0 2:0 
1 1:0 2:0 
1 1:0 2:0 
1 1:0 2:0 
1 1:0 2:0 
1 1:0 2:0 
1 1:0 2:0 
1 1:0 2:0 
1 1:0 2:0 
1 1:0 2:0 
1 1:0 2:0 
1 1:0 2:0 
1 1:0 2:0 
1 1:0 2:0 
1 1:0 2:0 
1 1:0 2:0 
1 1:0 2:0 
1 1:0 2:0 
1 1:0 2:0 
1 1:0 2:0 
1 1:0 2:0 
1 1:0 2:0 
1 1:0 2:0 
1 1:0 2:0 
1 1:0 2:0 
1 1:0 2:0 
1 1:0 2:0 
1 1:0 2:0 
1 1:0 2:0 
1 1:0 2:0 
1 1:0 2:0 
1 1:0 2:0 
1 1:0 2:0 
1 1:0 2:0 
1 1:0 2:0 
1 1:0 2:0 
1 1:0 2:0 
1 1:0 2:0 
1 1:0 2:0 
1 1:0 2:0 
1 1:0 2:0 
1 1:0 2:0 
1 1:0 2:0 
1 1:0 2:0 
1 1:0 2:0 
1 1:0 2:0 
1 1:0 2:0 
1 1:0 2:0 
1 1:0 2:0 
1 1:0 2:0 
1 1:0 2:0 
1 1:0 2:0 
1 1:0 2:0 
1 1:0 2:0 
1 1:0 2:0 
1 1:0 2:0 
1 1:0 2:0 
1 1:0 2:0 
1 1:0 2:0 
1 1:0 2:0 
1 1:0 2:0 
1 1:0 2:0 
1 1:0 2:0 
1 1:0 2:0 
1 1:0 2:0 
1 1:0 2:0 
1 1:0 2:0 
1 1:0 2:0 
1 1:0 2:0 
1 1:0 2:0 
1 1:0 2:0 
1 1:0 2:0 
1 1:0 2:0 
1 1:0 2:0 
1 1:0 2:0 
1 1:0 2:0 
1 1:0 2:0 
1 1:0 2:0 
1 1:0 2:0 
1 1:0 2:0 
1 1:0 2:0 
1 1:0 2:0 
1 1:0 2:0 
1 1:0 2:0 
1 1:0 2:0 
1 1:0 2:0 
1 1:0 2:0 
1 1:0 2:0 
1 1:0 2:0 
1 1:0 2:0 
1 1:0 2:0 
1 1:0 2:0 
1 1:0 2:0 
1 1:0 2:0 
1 1:0 2:0 
1 1:0 2:0 
1 1:0 2:0 
1 1:0 2:0 
1 1:0 2:0 
1 1:0 2:0 
1 1:0 2:0 
1 1:0 2:0 
1 1:0 2:0 
1 1:0 2:0 
1 1:0 2:0 
1 1:0 2:0 
1 1:0 2:0 
1 1:0 2:0 
1 1:0 2:0 
1 1:0 2:0 
1 1:0 2:0 
1 1:0 2:0 
1 1:0 2:0 
1 1:0 2:0 
1 1:0 2:0 
1 1:0 2:0 
1 1:0 2:0 
1 1:0 2:0 
1 1:0 2:0 
1 1:0 2:0 
1 1:0 2:0 
1 1:0 2:0 
1 1:0 2:0 
1 1:0 2:0 
1 1:0 2:0 
1 1:0 2:0 
1 1:0 2:0 
1 1:0 2:0 
1 1:0 2:0 
1 1:0 2:0 
1 1:0 2:0 
1 1:0 2:0 
1 1:0 2:0 
1 1:0 2:0 
1 1:0 2:0 
1 1:0 2:0 
1 1:0 2:0 
1 1:0 2:0 
1 1:0 2:0 
1 1:0 2:0 
1 1:0 2:0 
1 1:0 2:0 
1 1:0 2:0 
1 1:0 2:0 
1 1:0 2:0 
1 1:0 2:0 
1 1:0 2:0 
1 1:0 2:0 
1 1:0 2:0 
1 1:0 2:0 
1 1:0 2:0 
1 1:0 2:0 
1 1:0 2:0 
1 1:0 2:0 
1 1:0 2:0 
1 1:0 2:0 
1 1:0 2:0 
1 1:0 2:0 
1 1:0 2:0 
1 1:0 2:0 
1 1:0 2:0 
1 1:0 2:0 
1 1:0 2:0 
1 1:0 2:0 
1 1:0 2:0 
1 1:0 2:0 
1 1:0 2:0 
1 1:0 2:0 
1 1:0 2:0 
1 1:0 2:0 
1 1:0 2:0 
1 1:0 2:0 
1 1:0 2:0 
1 1:0 2:0 
1 1:0 2:0 
1 1:0 2:0 
1 1:0 2:0 
1 1:0 2:0 
1 1:0 2:0 
1 1:0 2:0 
1 1:0 2:0 
1 1:0 2:0 
1 1:0 2:0 
1 1:0 2:0 
1 1:0 2:0 
1 1:0 2:0 
1 1:0 2:0 
1 1:0 2:0 
1 1:0 2:0 
1 1:0 2:0 
1 1:0 2:0 
1 1:0 2:0 
1 1:0 2:0 
1 1:0 2:0 
1 1:0 2:0 
1 1:0 2:0 
1 1:0 2:0 
1 1:0 2:0 
1 1:0 2:0 
1 1:0 2:0 
1 1:0 2:0 
1 1:0 2:0 
1 1:0 2:0 
1 1:0 2:0 
1 1:0 2:0 
1 1:0 2:0 
1 1:0 2:0 
1 1:0 2:0 
1 1:0 2:0 
1 1:0 2:0 
1 1:0 2:0 
1 1:0 2:0 
1 1:0 2:0 
1 1:0 2:0 
1 1:0 2:0 
1 1:0 2:0 
1 1:0 2:0 
1 1:0 2:0 
1 1:0 2:0 
1 1:0 2:0 
1 1:0 2:0 
1 1:0 2:0 
1 1:0 2:0 
1 1:0 2:0 
1 1:0 2:0 
1 1:0 2:0 
1 1:0 2:0 
1 1:0 2:0 
1 1:0 2:0 
1 1:0 2:0 
1 1:0 2:0 
1 1:0 2:0 
1 1:0 2:0 
1 1:0 2:0 
1 1:0 2:0 
1 1:0 2:0 
1 1:0 2:0 
1 1:0 2:0 
1 1:0 2:0 
1 1:0 2:0 
1 1:0 2:0 
1 1:0 2:0 
1 1:0 2:0 
1 1:0 2:0 
1 1:0 2:0 
1 1:0 2:0 
1 1:0 2:0 
1 1:0 2:0 
1 1:0 2:0 
1 1:0 2:0 
1 1:0 2:0 
1 1:0 2:0 
1 1:0 2:0 
1 1:0 2:0 
1 1:0 2:0 
1 1:0 2:0 
1 1:0 2:0 
1 1:0 2:0 
1 1:0 2:0 
1 1:0 2:0 
1 1:0 2:0 
1 1:0 2:0 
1 1:0 2:0 
1 1:0 2:0 
1 1:0 2:0 
1 1:0 2:0 
1 1:0 2:0 
1 1:0 2:0 
1 1:0 2:0 
1 1:0 2:0 
1 1:0 2:0 
1 1:0 2:0 
1 1:0 2:0 
1 1:0 2:0 
1 1:0 2:0 
1 1:0 2:0 
1 1:0 2:0 
1 1:0 2:0 
1 1:0 2:0 
1 1:0 2:0 
1 1:0 2:0 
1 1:0 2:0 
1 1:0 2:0 
1 1:0 2:0 
1 1:0 2:0 
1 1:0 2:0 
1 1:0 2:0 
1 1:0 2:0 
1 1:0 2:0 
1 1:0 2:0 
1 1:0 2:0 
1 1:0 2:0 
1 1:0 2:0 
1 1:0 2:0 
1 1:0 2:0 
1 1:0 2:0 
1 1:0 2:0 
1 1:0 2:0 
1 1:0 2:0 
1 1:0 2:0 
1 1:0 2:0 
1 1:0 2:0 
1 1:0 2:0 
1 1:0 2:0 
1 1:0 2:0 
1 1:0 2:0 
1 1:0 2:0 
1 1:0 2:0 
1 1:0 2:0 
1 1:0 2:0 
1 1:0 2:0 
1 1:0 2:0 
1 1:0 2:0 
1 1:0 2:0 
1 1:0 2:0 
1 1:0 2:0 
1 1:0 2:0 
1 1:0 2:0 
1 1:0 2:0 
1 1:0 2:0 
1 1:0 2:0 
1 1:0 2:0 
1 1:0 2:0 
1 1:0 2:0 
1 1:0 2:0 
1 1:0 2:0 
1 1:0 2:0 
1 1:0 2:0 
1 1:0 2:0 
1 1:0 2:0 
1 1:0 2:0 
1 1:0 2:0 
1 1:0 2:0 
1 1:0 2:0 
1 1:0 2:0 
1 1:0 2:0 
1 1:0 2:0 
1 1:0 2:0 
1 1:0 2:0 
1 1:0 2:0 
1 1:0 2:0 
1 1:0 2:0 
1 1:0 2:0 
1 1:0 2:0 
1 1:0 2:0 
1 1:0 2:0 
1 1:0 2:0 
1 1:0 2:0 
1 1:0 2:0 
1 1:0 2:0 
1 1:0 2:0 
1 1:0 2:0 
1 1:0 2:0 
1 1:0 2:0 
1 1:0 2:0 
1 1:0 2:0 
1 1:0 2:0 
1 1:0 2:0 
1 1:0 2:0 
1 1:0 2:0 
1 1:0 2:0 
1 1:0 2:0 
1 1:0 2:0 
1 1:0 2:0 
1 1:0 2:0 
1 1:0 2:0 
1 1:0 2:0 
1 1:0 2:0 
1 1:0 2:0 
1 1:0 2:0 
1 1:0 2:0 
1 1:0 2:0 
1 1:0 2:0 
1 1:0 2:0 
1 1:0 2:0 
1 1:0 2:0 
1 1:0 2:0 
1 1:0 2:0 
1 1:0 2:0 
1 1:0 2:0 
1 1:0 2:0 
1 1:0 2:0 
1 1:0 2:0 
1 1:0 2:0 
1 1:0 2:0 
1 1:0 2:0 
1 1:0 2:0 
1 1:0 2:0 
1 1:0 2:0 
1 1:0 2:0 
1 1:0 2:0 
1 1:0 2:0 
1 1:0 2:0 
1 1:0 2:0 
1 1:0 2:0 
1 1:0 2:0 
1 1:0 2:0 
1 1:0 2:0 
1 1:0 2:0 
1 1:0 2:0 
1 1:0 2:0 
1 1:0 2:0 
1 1:0 2:0 
1 1:0 2:0 
1 1:0 2:0 
1 1:0 2:0 
1 1:0 2:0 
1 1:0 2:0 
1 1:0 2:0 
1 1:0 2:0 
1 1:0 2:0 
1 1:0 2:0 
1 1:0 2:0 
1 1:0 2:0 
1 1:0 2:0 
1 1:0 2:0 
1 1:0 2:0 
1 1:0 2:0 
1 1:0 2:0 
1 1:0 2:0 
1 1:0 2:0 
1 1:0 2:0 
1 1:0 2:0 
1 1:0 2:0 
1 1:0 2:0 
1 1:0 2:0 
1 1:0 2:0 
1 1:0 2:0 
1 1:0 2:0 
1 1:0 2:0 
1 1:0 2:0 
1 1:0 2:0 
1 1:0 2:0 
1 1:0 2:0 
1 1:0 2:0 
1 1:0 2:0 
1 1:0 2:0 
1 1:0 2:0 
1 1:0 2:0 
1 1:0 2:0 
1 1:0 2:0 
1 1:0 2:0 
1 1:0 2:0 
1 1:0 2:0 
1 1:0 2:0 
1 1:0 2:0 
1 1:0 2:0 
1 1:0 2:0 
1 1:0 2:0 
1 1:0 2:0 
1 1:0 2:0 
1 1:0 2:0 
1 1:0 2:0 
1 1:0 2:0 
1 1:0 2:0 
1 1:0 2:0 
1 1:0 2:0 
1 1:0 2:0 
1 1:0 2:0 
1 1:0 2:0 
1 1:0 2:0 
1 1:0 2:0 
1 1:0 2:0 
1 1:0 2:0 
1 1:0 2:0 
1 1:0 2:0 
1 1:0 2:0 
1 1:0 2:0 
1 1:0 2:0 
1 1:0 2:0 
1 1:0 2:0 
1 1:0 2:0 
1 1:0 2:0 
1 1:0 2:0 
1 1:0 2:0 
1 1:0 2:0 
1 1:0 2:0 
1 1:0 2:0 
1 1:0 2:0 
1 1:0 2:0 
1 1:0 2:0 
1 1:0 2:0 
1 1:0 2:0 
1 1:0 2:0 
1 1:0 2:0 
1 1:0 2:0 
1 1:0 2:0 
1 1:0 2:0 
1 1:0 2:0 
1 1:0 2:0 
1 1:0 2:0 
1 1:0 2:0 
1 1:0 2:0 
1 1:0 2:0 
1 1:0 2:0 
1 1:0 2:0 
1 1:0 2:0 
1 1:0 2:0 
1 1:0 2:0 
1 1:0 2:0 
1 1:0 2:0 
1 1:0 2:0 
1 1:0 2:0 
1 1:0 2:0 
1 1:0 2:0 
1 1:0 2:0 
1 1:0 2:0 
1 1:0 2:0 
1 1:0 2:0 
1 1:0 2:0 
1 1:0 2:0 
1 1:0 2:0 
1 1:0 2:0 
1 1:0 2:0 
1 1:0 2:0 
1 1:0 2:0 
1 1:0 2:0 
1 1:0 2:0 
1 1:0 2:0 
1 1:0 2:0 
1 1:0 2:0 
1 1:0 2:0 
1 1:0 2:0 
1 1:0 2:0 
1 1:0 2:0 
1 1:0 2:0 
1 1:0 2:0 
1 1:0 2:0 
1 1:0 2:0 
1 1:0 2:0 
1 1:0 2:0 
1 1:0 2:0 
1 1:0 2:0 
1 1:0 2:0 
1 1:0 2:0 
1 1:0 2:0 
1 1:0 2:0 
1 1:0 2:0 
1 1:0 2:0 
1 1:0 2:0 
1 1:0 2:0 
1 1:0 2:0 
1 1:0 2:0 
1 1:0 2:0 
1 1:0 2:0 
1 1:0 2:0 
1 1:0 2:0 
1 1:0 2:0 
1 1:0 2:0 
1 1:0 2:0 
1 1:0 2:0 
1 1:0 2:0 
1 1:0 2:0 
1 1:0 2:0 
1 1:0 2:0 
1 1:0 2:0 
1 1:0 2:0 
1 1:0 2:0 
1 1:0 2:0 
1 1:0 2:0 
1 1:0 2:0 
1 1:0 2:0 
1 1:0 2:0 
1 1:0 2:0 
1 1:0 2:0 
1 1:0 2:0 
1 1:0 2:0 
1 1:0 2:0 
1 1:0 2:0 
1 1:0 2:0 
1 1:0 2:0 
1 1:0 2:0 
1 1:0 2:0 
1 1:0 2:0 
1 1:0 2:0 
1 1:0 2:0 
1 1:0 2:0 
1 1:0 2:0 
1 1:0 2:0 
1 1:0 2:0 
1 1:0 2:0 
1 1:0 2:0 
1 1:0 2:0 
1 1:0 2:0 
1 1:0 2:0 
1 1:0 2:0 
1 1:0 2:0 
1 1:0 2:0 
1 1:0 2:0 
1 1:0 2:0 
1 1:0 2:0 
1 1:0 2:0 
1 1:0 2:0 
1 1:0 2:0 
1 1:0 2:0 
1 1:0 2:0 
1 1:0 2:0 
1 1:0 2:0 
1 1:0 2:0 
1 1:0 2:0 
1 1:0 2:0 
1 1:0 2:0 
1 1:0 2:0 
1 1:0 2:0 
1 1:0 2:0 
1 1:0 2:0 
1 1:0 2:0 
1 1:0 2:0 
1 1:0 2:0 
1 1:0 2:0 
1 1:0 2:0 
1 1:0 2:0 
1 1:0 2:0 
1 1:0 2:0 
1 1:0 2:0 
1 1:0 2:0 
1 1:0 2:0 
1 1:0 2:0 
1 1:0 2:0 
1 1:0 2:0 
1 1:0 2:0 
1 1:0 2:0 
1 1:0 2:0 
1 1:0 2:0 
1 1:0 2:0 
1 1:0 2:0 
1 1:0 2:0 
1 1:0 2:0 
1 1:0 2:0 
1 1:0 2:0 
1 1:0 2:0 
1 1:0 2:0 
1 1:0 2:0 
1 1:0 2:0 
1 1:0 2:0 
1 1:0 2:0 
1 1:0 2:0 
1 1:0 2:0 
1 1:0 2:0 
1 1:0 2:0 
1 1:0 2:0 
1 1:0 2:0 
1 1:0 2:0 
1 1:0 2:0 
1 1:0 2:0 
1 1:0 2:0 
1 1:0 2:0 
1 1:0 2:0 
1 1:0 2:0 
1 1:0 2:0 
1 1:0 2:0 
1 1:0 2:0 
1 1:0 2:0 
1 1:0 2:0 
1 1:0 2:0 
1 1:0 2:0 
1 1:0 2:0 
1 1:0 2:0 
1 1:0 2:0 
1 1:0 2:0 
1 1:0 2:0 
1 1:0 2:0 
1 1:0 2:0 
1 1:0 2:0 
1 1:0 2:0 
1 1:0 2:0 
1 1:0 2:0 
1 1:0 2:0 
1 1:0 2:0 
1 1:0 2:0 
1 1:0 2:0 
1 1:0 2:0 
1 1:0 2:0 
1 1:0 2:0 
1 1:0 2:0 
1 1:0 2:0 
1 1:0 2:0 
1 1:0 2:0 
1 1:0 2:0 
1 1:0 2:0 
1 1:0 2:0 
1 1:0 2:0 
1 1:0 2:0 
1 1:0 2:0 
1 1:0 2:0 
1 1:0 2:0 
1 1:0 2:0 
1 1:0 2:0 
1 1:0 2:0 
1 1:0 2:0 
1 1:0 2:0 
1 1:0 2:0 
1 1:0 2:0 
1 1:0 2:0 
1 1:0 2:0 
1 1:0 2:0 
1 1:0 2:0 
1 1:0 2:0 
1 1:0 2:0 
1 1:0 2:0 
1 1:0 2:0 
1 1:0 2:0 
1 1:0 2:0 
1 1:0 2:0 
1 1:0 2:0 
1 1:0 2:0 
1 1:0 2:0 
1 1:0 2:0 
1 1:0 2:0 
1 1:0 2:0 
1 1:0 2:0 
1 1:0 2:0 
1 1:0 2:0 
1 1:0 2:0 
1 1:0 2:0 
1 1:0 2:0 
1 1:0 2:0 
1 1:0 2:0 
1 1:0 2:0 
1 1:0 2:0 
1 1:0 2:0 
1 1:0 2:0 
1 1:0 2:0 
1 1:0 2:0 
1 1:0 2:0 
1 1:0 2:0 
1 1:0 2:0 
1 1:0 2:0 
1 1:0 2:0 
1 1:0 2:0 
1 1:0 2:0 
1 1:0 2:0 
1 1:0 2:0 
1 1:0 2:0 
1 1:0 2:0 
1 1:0 2:0 
1 1:0 2:0 
1 1:0 2:0 
1 1:0 2:0 
1 1:0 2:0 
1 1:0 2:0 
1 1:0 2:0 
1 1:0 2:0 
1 1:0 2:0 
1 1:0 2:0 
1 1:0 2:0 
1 1:0 2:0 
1 1:0 2:0 
1 1:0 2:0 
1 1:0 2:0 
1 1:0 2:0 
1 1:0 2:0 
1 1:0 2:0 
1 1:0 2:0 
1 1:0 2:0 
1 1:0 2:0 
1 1:0 2:0 
1 1:0 2:0 
1 1:0 2:0 
1 1:0 2:0 
1 1:0 2:0 
1 1:0 2:0 
1 1:0 2:0 
1 1:0 2:0 
1 1:0 2:0 
1 1:0 2:0 
1 1:0 2:0 
1 1:0 2:0 
1 1:0 2:0 
1 1:0 2:0 
1 1:0 2:0 
1 1:0 2:0 
1 1:0 2:0 
1 1:0 2:0 
1 1:0 2:0 
1 1:0 2:0 
1 1:0 2:0 
1 1:0 2:0 
1 1:0 2:0 
1 1:0 2:0 
1 1:0 2:0 
1 1:0 2:0 
1 1:0 2:0 
1 1:0 2:0 
1 1:0 2:0 
1 1:0 2:0 
1 1:0 2:0 
1 1:0 2:0 
1 1:0 2:0 
1 1:0 2:0 
1 1:0 2:0 
1 1:0 2:0 
1 1:0 2:0 
1 1:0 2:0 
1 1:0 2:0 
1 1:0 2:0 
1 1:0 2:0 
1 1:0 2:0 
1 1:0 2:0 
1 1:0 2:0 
1 1:0 2:0 
1 1:0 2:0 
1 1:0 2:0 
1 1:0 2:0 
1 1:0 2:0 
1 1:0 2:0 
1 1:0 2:0 
1 1:0 2:0 
1 1:0 2:0 
1 1:0 2:0 
1 1:0 2:0 
1 1:0 2:0 
1 1:0 2:0 
1 1:0 2:0 
1 1:0 2:0 
1 1:0 2:0 
1 1:0 2:0 
1 1:0 2:0 
1 1:0 2:0 
1 1:0 2:0 
1 1:0 2:0 
1 1:0 2:0 
1 1:0 2:0 
1 1:0 2:0 
1 1:0 2:0 
1 1:0 2:0 
1 1:0 2:0 
1 1:0 2:0 
1 1:0 2:0 
1 1:0 2:0 
1 1:0 2:0 
1 1:0 2:0 
1 1:0 2:0 
1 1:0 2:0 
1 1:0 2:0 
1 1:0 2:0 
1 1:0 2:0 
1 1:0 2:0 
1 1:0 2:0 
1 1:0 2:0 
1 1:0 2:0 
1 1:0 2:0 
1 1:0 2:0 
1 1:0 2:0 
1 1:0 2:0 
1 1:0 2:0 
1 1:0 2:0 
1 1:0 2:0 
1 1:0 2:0 
1 1:0 2:0 
1 1:0 2:0 
1 1:0 2:0 
1 1:0 2:0 
1 1:0 2:0 
1 1:0 2:0 
1 1:0 2:0 
1 1:0 2:0 
1 1:0 2:0 
1 1:0 2:0 
1 1:0 2:0 
1 1:0 2:0 
1 1:0 2:0 
1 1:0 2:0 
1 1:0 2:0 
1 1:0 2:0 
1 1:0 2:0 
1 1:0 2:0 
1 1:0 2:0 
1 1:0 2:0 
1 1:0 2:0 
1 1:0 2:0 
1 1:0 2:0 
1 1:0 2:0 
1 1:0 2:0 
1 1:0 2:0 
1 1:0 2:0 
1 1:0 2:0 
1 1:0 2:0 
1 1:0 2:0 
1 1:0 2:0 
1 1:0 2:0 
1 1:0 2:0 
1 1:0 2:0 
1 1:0 2:0 
1 1:0 2:0 
1 1:0 2:0 
1 1:0 2:0 
1 1:0 2:0 
1 1:0 2:0 
1 1:0 2:0 
1 1:0 2:0 
1 1:0 2:0 
1 1:0 2:0 
1 1:0 2:0 
1 1:0 2:0 
1 1:0 2:0 
1 1:0 2:0 
1 1:0 2:0 
1 1:0 2:0 
1 1:0 2:0 
1 1:0 2:0 
1 1:0 2:0 
1 1:0 2:0 
1 1:0 2:0 
1 1:0 2:0 
1 1:0 2:0 
1 1:0 2:0 
1 1:0 2:0 
1 1:0 2:0 
1 1:0 2:0 
1 1:0 2:0 
1 1:0 2:0 
1 1:0 2:0 
1 1:0 2:0 
1 1:0 2:0 
1 1:0 2:0 
1 1:0 2:0 
1 1:0 2:0 
1 1:0 2:0 
1 1:0 2:0 
1 1:0 2:0 
1 1:0 2:0 
1 1:0 2:0 
1 1:0 2:0 
1 1:0 2:0 
1 1:0 2:0 
1 1:0 2:0 
1 1:0 2:0 
1 1:0 2:0 
1 1:0 2:0 
1 1:0 2:0 
1 1:0 2:0 
1 1:0 2:0 
1 1:0 2:0 
1 1:0 2:0 
1 1:0 2:0 
1 1:0 2:0 
1 1:0 2:0 
1 1:0 2:0 
1 1:0 2:0 
1 1:0 2:0 
1 1:0 2:0 
1 1:0 2:0 
1 1:0 2:0 
1 1:0 2:0 
1 1:0 2:0 
1 1:0 2:0 
1 1:0 2:0 
1 1:0 2:0 
1 1:0 2:0 
1 1:0 2:0 
1 1:0 2:0 
1 1:0 2:0 
1 1:0 2:0 
1 1:0 2:0 
1 1:0 2:0 
1 1:0 2:0 
1 1:0 2:0 
1 1:0 2:0 
1 1:0 2:0 
1 1:0 2:0 
1 1:0 2:0 
1 1:0 2:0 
1 1:0 2:0 
1 1:0 2:0 
1 1:0 2:0 
1 1:0 2:0 
1 1:0 2:0 
1 1:0 2:0 
1 1:0 2:0 
1 1:0 2:0 
1 1:0 2:0 
1 1:0 2:0 
1 1:0 2:0 
1 1:0 2:0 
1 1:0 2:0 
1 1:0 2:0 
1 1:0 2:0 
1 1:0 2:0 
1 1:0 2:0 
1 1:0 2:0 
1 1:0 2:0 
1 1:0 2:0 
1 1:0 2:0 
1 1:0 2:0 
1 1:0 2:0 
1 1:0 2:0 
1 1:0 2:0 
1 1:0 2:0 
1 1:0 2:0 
1 1:0 2:0 
1 1:0 2:0 
1 1:0 2:0 
1 1:0 2:0 
1 1:0 2:0 
1 1:0 2:0 
1 1:0 2:0 
1 1:0 2:0 
1 1:0 2:0 
1 1:0 2:0 
1 1:0 2:0 
1 1:0 2:0 
1 1:0 2:0 
1 1:0 2:0 
1 1:0 2:0 
1 1:0 2:0 
1 1:0 2:0 
1 1:0 2:0 
1 1:0 2:0 
1 1:0 2:0 
1 1:0 2:0 
1 1:0 2:0 
1 1:0 2:0 
1 1:0 2:0 
1 1:0 2:0 
1 1:0 2:0 
1 1:0 2:0 
1 1:0 2:0 
1 1:0 2:0 
1 1:0 2:0 
1 1:0 2:0 
1 1:0 2:0 
1 1:0 2:0 
1 1:0 2:0 
1 1:0 2:0 
1 1:0 2:0 
1 1:0 2:0 
1 1:0 2:0 
1 1:0 2:0 
1 1:0 2:0 
1 1:0 2:0 
1 1:0 2:0 
1 1:0 2:0 
1 1:0 2:0 
1 1:0 2:0 
1 1:0 2:0 
1 1:0 2:0 
1 1:0 2:0 
1 1:0 2:0 
1 1:0 2:0 
1 1:0 2:0 
1 1:0 2:0 
1 1:0 2:0 
1 1:0 2:0 
1 1:0 2:0 
1 1:0 2:0 
1 1:0 2:0 
1 1:0 2:0 
1 1:0 2:0 
1 1:0 2:0 
1 1:0 2:0 
1 1:0 2:0 
1 1:0 2:0 
1 1:0 2:0 
1 1:0 2:0 
1 1:0 2:0 
1 1:0 2:0 
1 1:0 2:0 
1 1:0 2:0 
1 1:0 2:0 
1 1:0 2:0 
1 1:0 2:0 
1 1:0 2:0 
1 1:0 2:0 
1 1:0 2:0 
1 1:0 2:0 
1 1:0 2:0 
1 1:0 2:0 
1 1:0 2:0 
1 1:0 2:0 
1 1:0 2:0 
1 1:0 2:0 
1 1:0 2:0 
1 1:0 2:0 
1 1:0 2:0 
1 1:0 2:0 
1 1:0 2:0 
1 1:0 2:0 
1 1:0 2:0 
1 1:0 2:0 
1 1:0 2:0 
1 1:0 2:0 
1 1:0 2:0 
1 1:0 2:0 
1 1:0 2:0 
1 1:0 2:0 
1 1:0 2:0 
1 1:0 2:0 
1 1:0 2:0 
1 1:0 2:0 
1 1:0 2:0 
1 1:0 2:0 
1 1:0 2:0 
1 1:0 2:0 
1 1:0 2:0 
1 1:0 2:0 
1 1:0 2:0 
1 1:0 2:0 
1 1:0 2:0 
1 1:0 2:0 
1 1:0 2:0 
1 1:0 2:0 
1 1:0 2:0 
1 1:0 2:0 
1 1:0 2:0 
1 1:0 2:0 
1 1:0 2:0 
1 1:0 2:0 
1 1:0 2:0 
1 1:0 2:0 
1 1:0 2:0 
1 1:0 2:0 
1 1:0 2:0 
1 1:0 2:0 
1 1:0 2:0 
1 1:0 2:0 
1 1:0 2:0 
1 1:0 2:0 
1 1:0 2:0 
1 1:0 2:0 
1 1:0 2:0 
1 1:0 2:0 
1 1:0 2:0 
1 1:0 2:0 
1 1:0 2:0 
1 1:0 2:0 
1 1:0 2:0 
1 1:0 2:0 
1 1:0 2:0 
1 1:0 2:0 
1 1:0 2:0 
1 1:0 2:0 
1 1:0 2:0 
1 1:0 2:0 
1 1:0 2:0 
1 1:0 2:0 
1 1:0 2:0 
1 1:0 2:0 
1 1:0 2:0 
1 1:0 2:0 
1 1:0 2:0 
1 1:0 2:0 
1 1:0 2:0 
1 1:0 2:0 
1 1:0 2:0 
1 1:0 2:0 
1 1:0 2:0 
1 1:0 2:0 
1 1:0 2:0 
1 1:0 2:0 
1 1:0 2:0 
1 1:0 2:0 
1 1:0 2:0 
1 1:0 2:0 
1 1:0 2:0 
1 1:0 2:0 
1 1:0 2:0 
1 1:0 2:0 
1 1:0 2:0 
1 1:0 2:0 
1 1:0 2:0 
1 1:0 2:0 
1 1:0 2:0 
1 1:0 2:0 
1 1:0 2:0 
1 1:0 2:0 
1 1:0 2:0 
1 1:0 2:0 
1 1:0 2:0 
1 1:0 2:0 
1 1:0 2:0 
1 1:0 2:0 
1 1:0 2:0 
1 1:0 2:0 
1 1:0 2:0 
1 1:0 2:0 
1 1:0 2:0 
1 1:0 2:0 
1 1:0 2:0 
1 1:0 2:0 
1 1:0 2:0 
1 1:0 2:0 
1 1:0 2:0 
1 1:0 2:0 
1 1:0 2:0 
1 1:0 2:0 
1 1:0 2:0 
1 1:0 2:0 
1 1:0 2:0 
1 1:0 2:0 
1 1:0 2:0 
1 1:0 2:0 
1 1:0 2:0 
1 1:0 2:0 
1 1:0 2:0 
1 1:0 2:0 
1 1:0 2:0 
1 1:0 2:0 
1 1:0 2:0 
1 1:0 2:0 
1 1:0 2:0 
1 1:0 2:0 
1 1:0 2:0 
1 1:0 2:0 
1 1:0 2:0 
1 1:0 2:0 
1 1:0 2:0 
1 1:0 2:0 
1 1:0 2:0 
1 1:0 2:0 
1 1:0 2:0 
1 1:0 2:0 
1 1:0 2:0 
1 1:0 2:0 
1 1:0 2:0 
1 1:0 2:0 
1 1:0 2:0 
1 1:0 2:0 
1 1:0 2:0 
1 1:0 2:0 
1 1:0 2:0 
1 1:0 2:0 
1 1:0 2:0 
1 1:0 2:0 
1 1:0 2:0 
1 1:0 2:0 
1 1:0 2:0 
1 1:0 2:0 
1 1:0 2:0 
1 1:0 2:0 
1 1:0 2:0 
1 1:0 2:0 
1 1:0 2:0 
1 1:0 2:0 
1 1:0 2:0 
1 1:0 2:0 
1 1:0 2:0 
1 1:0 2:0 
1 1:0 2:0 
1 1:0 2:0 
1 1:0 2:0 
1 1:0 2:0 
1 1:0 2:0 
1 1:0 2:0 
1 1:0 2:0 
1 1:0 2:0 
1 1:0 2:0 
1 1:0 2:0 
1 1:0 2:0 
1 1:0 2:0 
1 1:0 2:0 
1 1:0 2:0 
1 1:0 2:0 
1 1:0 2:0 
1 1:0 2:0 
1 1:0 2:0 
1 1:0 2:0 
1 1:0 2:0 
1 1:0 2:0 
1 1:0 2:0 
1 1:0 2:0 
1 1:0 2:0 
1 1:0 2:0 
1 1:0 2:0 
1 1:0 2:0 
1 1:0 2:0 
1 1:0 2:0 
1 1:0 2:0 
1 1:0 2:0 
1 1:0 2:0 
1 1:0 2:0 
1 1:0 2:0 
1 1:0 2:0 
1 1:0 2:0 
1 1:0 2:0 
1 1:0 2:0 
1 1:0 2:0 
1 1:0 2:0 
1 1:0 2:0 
1 1:0 2:0 
1 1:0 2:0 
1 1:0 2:0 
1 1:0 2:0 
1 1:0 2:0 
1 1:0 2:0 
1 1:0 2:0 
1 1:0 2:0 
1 1:0 2:0 
1 1:0 2:0 
1 1:0 2:0 
1 1:0 2:0 
1 1:0 2:0 
1 1:0 2:0 
1 1:0 2:0 
1 1:0 2:0 
1 1:0 2:0 
1 1:0 2:0 
1 1:0 2:0 
1 1:0 2:0 
1 1:0 2:0 
1 1:0 2:0 
1 1:0 2:0 
1 1:0 2:0 
1 1:0 2:0 
1 1:0 2:0 
1 1:0 2:0 
1 1:0 2:0 
1 1:0 2:0 
1 1:0 2:0 
1 1:0 2:0 
1 1:0 2:0 
1 1:0 2:0 
1 1:0 2:0 
1 1:0 2:0 
1 1:0 2:0 
1 1:0 2:0 
1 1:0 2:0 
1 1:0 2:0 
1 1:0 2:0 
1 1:0 2:0 
1 1:0 2:0 
1 1:0 2:0 
1 1:0 2:0 
1 1:0 2:0 
1 1:0 2:0 
1 1:0 2:0 
1 1:0 2:0 
1 1:0 2:0 
1 1:0 2:0 
1 1:0 2:0 
1 1:0 2:0 
1 1:0 2:0 
1 1:0 2:0 
1 1:0 2:0 
1 1:0 2:0 
1 1:0 2:0 
1 1:0 2:0 
1 1:0 2:0 
1 1:0 2:0 
1 1:0 2:0 
1 1:0 2:0 
1 1:0 2:0 
1 1:0 2:0 
1 1:0 2:0 
1 1:0 2:0 
1 1:0 2:0 
1 1:0 2:0 
1 1:0 2:0 
1 1:0 2:0 
1 1:0 2:0 
1 1:0 2:0 
1 1:0 2:0 
1 1:0 2:0 
1 1:0 2:0 
1 1:0 2:0 
1 1:0 2:0 
1 1:0 2:0 
1 1:0 2:0 
1 1:0 2:0 
1 1:0 2:0 
1 1:0 2:0 
1 1:0 2:0 
1 1:0 2:0 
1 1:0 2:0 
1 1:0 2:0 
1 1:0 2:0 
1 1:0 2:0 
1 1:0 2:0 
1 1:0 2:0 
1 1:0 2:0 
1 1:0 2:0 
1 1:0 2:0 
1 1:0 2:0 
1 1:0 2:0 
1 1:0 2:0 
1 1:0 2:0 
1 1:0 2:0 
1 1:0 2:0 
1 1:0 2:0 
1 1:0 2:0 
1 1:0 2:0 
1 1:0 2:0 
1 1:0 2:0 
1 1:0 2:0 
1 1:0 2:0 
1 1:0 2:0 
1 1:0 2:0 
1 1:0 2:0 
1 1:0 2:0 
1 1:0 2:0 
1 1:0 2:0 
1 1:0 2:0 
1 1:0 2:0 
1 1:0 2:0 
1 1:0 2:0 
1 1:0 2:0 
1 1:0 2:0 
1 1:0 2:0 
1 1:0 2:0 
1 1:0 2:0 
1 1:0 2:0 
1 1:0 2:0 
1 1:0 2:0 
1 1:0 2:0 
1 1:0 2:0 
1 1:0 2:0 
1 1:0 2:0 
1 1:0 2:0 
1 1:0 2:0 
1 1:0 2:0 
1 1:0 2:0 
1 1:0 2:0 
1 1:0 2:0 
1 1:0 2:0 
1 1:0 2:0 
1 1:0 2:0 
1 1:0 2:0 
1 1:0 2:0 
1 1:0 2:0 
1 1:0 2:0 
1 1:0 2:0 
1 1:0 2:0 
1 1:0 2:0 
1 1:0 2:0 
1 1:0 2:0 
1 1:0 2:0 
1 1:0 2:0 
1 1:0 2:0 
1 1:0 2:0 
1 1:0 2:0 
1 1:0 2:0 
1 1:0 2:0 
1 1:0 2:0 
1 1:0 2:0 
1 1:0 2:0 
1 1:0 2:0 
1 1:0 2:0 
1 1:0 2:0 
1 1:0 2:0 
1 1:0 2:0 
1 1:0 2:0 
1 1:0 2:0 
1 1:0 2:0 
1 1:0 2:0 
1 1:0 2:0 
1 1:0 2:0 
1 1:0 2:0 
1 1:0 2:0 
1 1:0 2:0 
1 1:0 2:0 
1 1:0 2:0 
1 1:0 2:0 
1 1:0 2:0 
1 1:0 2:0 
1 1:0 2:0 
1 1:0 2:0 
1 1:0 2:0 
1 1:0 2:0 
1 1:0 2:0 
1 1:0 2:0 
1 1:0 2:0 
1 1:0 2:0 
1 1:0 2:0 
1 1:0 2:0 
1 1:0 2:0 
1 1:0 2:0 
1 1:0 2:0 
1 1:0 2:0 
1 1:0 2:0 
1 1:0 2:0 
1 1:0 2:0 
1 1:0 2:0 
1 1:0 2:0 
1 1:0 2:0 
1 1:0 2:0 
1 1:0 2:0 
1 1:0 2:0 
1 1:0 2:0 
1 1:0 2:0 
1 1:0 2:0 
1 1:0 2:0 
1 1:0 2:0 
1 1:0 2:0 
1 1:0 2:0 
1 1:0 2:0 
1 1:0 2:0 
1 1:0 2:0 
1 1:0 2:0 
1 1:0 2:0 
1 1:0 2:0 
1 1:0 2:0 
1 1:0 2:0 
1 1:0 2:0 
1 1:0 2:0 
1 1:0 2:0 
1 1:0 2:0 
1 1:0 2:0 
1 1:0 2:0 
1 1:0 2:0 
1 1:0 2:0 
1 1:0 2:0 
1 1:0 2:0 
1 1:0 2:0 
1 1:0 2:0 
1 1:0 2:0 
1 1:0 2:0 
1 1:0 2:0 
1 1:0 2:0 
1 1:0 2:0 
1 1:0 2:0 
1 1:0 2:0 
1 1:0 2:0 
1 1:0 2:0 
1 1:0 2:0 
1 1:0 2:0 
1 1:0 2:0 
1 1:0 2:0 
1 1:0 2:0 
1 1:0 2:0 
1 1:0 2:0 
1 1:0 2:0 
1 1:0 2:0 
1 1:0 2:0 
1 1:0 2:0 
1 1:0 2:0 
1 1:0 2:0 
1 1:0 2:0 
1 1:0 2:0 
1 1:0 2:0 
1 1:0 2:0 
1 1:0 2:0 
1 1:0 2:0 
1 1:0 2:0 
1 1:0 2:0 
1 1:0 2:0 
1 1:0 2:0 
1 1:0 2:0 
1 1:0 2:0 
1 1:0 2:0 
1 1:0 2:0 
1 1:0 2:0 
1 1:0 2:0 
1 1:0 2:0 
1 1:0 2:0 
1 1:0 2:0 
1 1:0 2:0 
1 1:0 2:0 
1 1:0 2:0 
1 1:0 2:0 
1 1:0 2:0 
1 1:0 2:0 
1 1:0 2:0 
1 1:0 2:0 
1 1:0 2:0 
1 1:0 2:0 
1 1:0 2:0 
1 1:0 2:0 
1 1:0 2:0 
1 1:0 2:0 
1 1:0 2:0 
1 1:0 2:0 
1 1:0 2:0 
1 1:0 2:0 
1 1:0 2:0 
1 1:0 2:0 
1 1:0 2:0 
1 1:0 2:0 
1 1:0 2:0 
1 1:0 2:0 
1 1:0 2:0 
1 1:0 2:0 
1 1:0 2:0 
1 1:0 2:0 
1 1:0 2:0 
1 1:0 2:0 
1 1:0 2:0 
1 1:0 2:0 
1 1:0 2:0 
1 1:0 2:0 
1 1:0 2:0 
1 1:0 2:0 
1 1:0 2:0 
1 1:0 2:0 
1 1:0 2:0 
1 1:0 2:0 
1 1:0 2:0 
1 1:0 2:0 
1 1:0 2:0 
1 1:0 2:0 
1 1:0 2:0 
1 1:0 2:0 
1 1:0 2:0 
1 1:0 2:0 
1 1:0 2:0 
1 1:0 2:0 
1 1:0 2:0 
1 1:0 2:0 
1 1:0 2:0 
1 1:0 2:0 
1 1:0 2:0 
1 1:0 2:0 
1 1:0 2:0 
1 1:0 2:0 
1 1:0 2:0 
1 1:0 2:0 
1 1:0 2:0 
1 1:0 2:0 
1 1:0 2:0 
1 1:0 2:0 
1 1:0 2:0 
1 1:0 2:0 
1 1:0 2:0 
1 1:0 2:0 
1 1:0 2:0 
1 1:0 2:0 
1 1:0 2:0 
1 1:0 2:0 
1 1:0 2:0 
1 1:0 2:0 
1 1:0 2:0 
1 1:0 2:0 
1 1:0 2:0 
1 1:0 2:0 
1 1:0 2:0 
1 1:0 2:0 
1 1:0 2:0 
1 1:0 2:0 
1 1:0 2:0 
1 1:0 2:0 
1 1:0 2:0 
1 1:0 2:0 
1 1:0 2:0 
1 1:0 2:0 
1 1:0 2:0 
1 1:0 2:0 
1 1:0 2:0 
1 1:0 2:0 
1 1:0 2:0 
1 1:0 2:0 
1 1:0 2:0 
1 1:0 2:0 
1 1:0 2:0 
1 1:0 2:0 
1 1:0 2:0 
1 1:0 2:0 
1 1:0 2:0 
1 1:0 2:0 
1 1:0 2:0 
1 1:0 2:0 
1 1:0 2:0 
1 1:0 2:0 
1 1:0 2:0 
1 1:0 2:0 
1 1:0 2:0 
1 1:0 2:0 
1 1:0 2:0 
1 1:0 2:0 
1 1:0 2:0 
1 1:0 2:0 
1 1:0 2:0 
1 1:0 2:0 
1 1:0 2:0 
1 1:0 2:0 
1 1:0 2:0 
1 1:0 2:0 
1 1:0 2:0 
1 1:0 2:0 
1 1:0 2:0 
1 1:0 2:0 
1 1:0 2:0 
1 1:0 2:0 
1 1:0 2:0 
1 1:0 2:0 
1 1:0 2:0 
1 1:0 2:0 
1 1:0 2:0 
1 1:0 2:0 
1 1:0 2:0 
1 1:0 2:0 
1 1:0 2:0 
1 1:0 2:0 
1 1:0 2:0 
1 1:0 2:0 
1 1:0 2:0 
1 1:0 2:0 
1 1:0 2:0 
1 1:0 2:0 
1 1:0 2:0 
1 1:0 2:0 
1 1:0 2:0 
1 1:0 2:0 
1 1:0 2:0 
1 1:0 2:0 
1 1:0 2:0 
1 1:0 2:0 
1 1:0 2:0 
1 1:0 2:0 
1 1:0 2:0 
1 1:0 2:0 
1 1:0 2:0 
1 1:0 2:0 
1 1:0 2:0 
1 1:0 2:0 
1 1:0 2:0 
1 1:0 2:0 
1 1:0 2:0 
1 1:0 2:0 
1 1:0 2:0 
1 1:0 2:0 
1 1:0 2:0 
1 1:0 2:0 
1 1:0 2:0 
1 1:0 2:0 
1 1:0 2:0 
1 1:0 2:0 
1 1:0 2:0 
1 1:0 2:0 
1 1:0 2:0 
1 1:0 2:0 
1 1:0 2:0 
1 1:0 2:0 
1 1:0 2:0 
1 1:0 2:0 
1 1:0 2:0 
1 1:0 2:0 
1 1:0 2:0 
1 1:0 2:0 
1 1:0 2:0 
1 1:0 2:0 
1 1:0 2:0 
1 1:0 2:0 
1 1:0 2:0 
1 1:0 2:0 
1 1:0 2:0 
1 1:0 2:0 
1 1:0 2:0 
1 1:0 2:0 
1 1:0 2:0 
1 1:0 2:0 
1 1:0 2:0 
1 1:0 2:0 
1 1:0 2:0 
1 1:0 2:0 
1 1:0 2:0 
1 1:0 2:0 
1 1:0 2:0 
1 1:0 2:0 
1 1:0 2:0 
1 1:0 2:0 
1 1:0 2:0 
1 1:0 2:0 
1 1:0 2:0 
1 1:0 2:0 
1 1:0 2:0 
1 1:0 2:0 
1 1:0 2:0 
1 1:0 2:0 
1 1:0 2:0 
1 1:0 2:0 
1 1:0 2:0 
1 1:0 2:0 
1 1:0 2:0 
1 1:0 2:0 
1 1:0 2:0 
1 1:0 2:0 
1 1:0 2:0 
1 1:0 2:0 
1 1:0 2:0 
1 1:0 2:0 
1 1:0 2:0 
1 1:0 2:0 
1 1:0 2:0 
1 1:0 2:0 
1 1:0 2:0 
1 1:0 2:0 
1 1:0 2:0 
1 1:0 2:0 
1 1:0 2:0 
1 1:0 2:0 
1 1:0 2:0 
1 1:0 2:0 
1 1:0 2:0 
1 1:0 2:0 
1 1:0 2:0 
1 1:0 2:0 
1 1:0 2:0 
1 1:0 2:0 
1 1:0 2:0 
1 1:0 2:0 
1 1:0 2:0 
1 1:0 2:0 
1 1:0 2:0 
1 1:0 2:0 
1 1:0 2:0 
1 1:0 2:0 
1 1:0 2:0 
1 1:0 2:0 
1 1:0 2:0 
1 1:0 2:0 
1 1:0 2:0 
1 1:0 2:0 
1 1:0 2:0 
1 1:0 2:0 
1 1:0 2:0 
1 1:0 2:0 
1 1:0 2:0 
1 1:0 2:0 
1 1:0 2:0 
1 1:0 2:0 
1 1:0 2:0 
1 1:0 2:0 
1 1:0 2:0 
1 1:0 2:0 
1 1:0 2:0 
1 1:0 2:0 
1 1:0 2:0 
1 1:0 2:0 
1 1:0 2:0 
1 1:0 2:0 
1 1:0 2:0 
1 1:0 2:0 
1 1:0 2:0 
1 1:0 2:0 
1 1:0 2:0 
1 1:0 2:0 
1 1:0 2:0 
1 1:0 2:0 
1 1:0 2:0 
1 1:0 2:0 
1 1:0 2:0 
1 1:0 2:0 
1 1:0 2:0 
1 1:0 2:0 
1 1:0 2:0 
1 1:0 2:0 
1 1:0 2:0 
1 1:0 2:0 
1 1:0 2:0 
1 1:0 2:0 
1 1:0 2:0 
1 1:0 2:0 
1 1:0 2:0 
1 1:0 2:0 
1 1:0 2:0 
1 1:0 2:0 
1 1:0 2:0 
1 1:0 2:0 
1 1:0 2:0 
1 1:0 2:0 
1 1:0 2:0 
1 1:0 2:0 
1 1:0 2:0 
1 1:0 2:0 
1 1:0 2:0 
1 1:0 2:0 
1 1:0 2:0 
1 1:0 2:0 
1 1:0 2:0 
1 1:0 2:0 
1 1:0 2:0 
1 1:0 2:0 
1 1:0 2:0 
1 1:0 2:0 
1 1:0 2:0 
1 1:0 2:0 
1 1:0 2:0 
1 1:0 2:0 
1 1:0 2:0 
1 1:0 2:0 
1 1:0 2:0 
1 1:0 2:0 
1 1:0 2:0 
1 1:0 2:0 
1 1:0 2:0 
1 1:0 2:0 
1 1:0 2:0 
1 1:0 2:0 
1 1:0 2:0 
1 1:0 2:0 
1 1:0 2:0 
1 1:0 2:0 
1 1:0 2:0 
1 1:0 2:0 
1 1:0 2:0 
1 1:0 2:0 
1 1:0 2:0 
1 1:0 2:0 
1 1:0 2:0 
1 1:0 2:0 
1 1:0 2:0 
1 1:0 2:0 
1 1:0 2:0 
1 1:0 2:0 
1 1:0 2:0 
1 1:0 2:0 
1 1:0 2:0 
1 1:0 2:0 
1 1:0 2:0 
1 1:0 2:0 
1 1:0 2:0 
1 1:0 2:0 
1 1:0 2:0 
1 1:0 2:0 
1 1:0 2:0 
1 1:0 2:0 
1 1:0 2:0 
1 1:0 2:0 
1 1:0 2:0 
1 1:0 2:0 
1 1:0 2:0 
1 1:0 2:0 
1 1:0 2:0 
1 1:0 2:0 
1 1:0 2:0 
1 1:0 2:0 
1 1:0 2:0 
1 1:0 2:0 
1 1:0 2:0 
1 1:0 2:0 
1 1:0 2:0 
1 1:0 2:0 
1 1:0 2:0 
1 1:0 2:0 
1 1:0 2:0 
1 1:0 2:0 
1 1:0 2:0 
1 1:0 2:0 
1 1:0 2:0 
1 1:0 2:0 
1 1:0 2:0 
1 1:0 2:0 
1 1:0 2:0 
1 1:0 2:0 
1 1:0 2:0 
1 1:0 2:0 
1 1:0 2:0 
1 1:0 2:0 
1 1:0 2:0 
1 1:0 2:0 
1 1:0 2:0 
1 1:0 2:0 
1 1:0 2:0 
1 1:0 2:0 
1 1:0 2:0 
1 1:0 2:0 
1 1:0 2:0 
1 1:0 2:0 
1 1:0 2:0 
1 1:0 2:0 
1 1:0 2:0 
1 1:0 2:0 
1 1:0 2:0 
1 1:0 2:0 
1 1:0 2:0 
1 1:0 2:0 
1 1:0 2:0 
1 1:0 2:0 
1 1:0 2:0 
1 1:0 2:0 
1 1:0 2:0 
1 1:0 2:0 
1 1:0 2:0 
1 1:0 2:0 
1 1:0 2:0 
1 1:0 2:0 
1 1:0 2:0 
1 1:0 2:0 
1 1:0 2:0 
1 1:0 2:0 
1 1:0 2:0 
1 1:0 2:0 
1 1:0 2:0 
1 1:0 2:0 
1 1:0 2:0 
1 1:0 2:0 
1 1:0 2:0 
1 1:0 2:0 
1 1:0 2:0 
1 1:0 2:0 
1 1:0 2:0 
1 1:0 2:0 
1 1:0 2:0 
1 1:0 2:0 
1 1:0 2:0 
1 1:0 2:0 
1 1:0 2:0 
1 1:0 2:0 
1 1:0 2:0 
1 1:0 2:0 
1 1:0 2:0 
1 1:0 2:0 
1 1:0 2:0 
1 1:0 2:0 
1 1:0 2:0 
1 1:0 2:0 
1 1:0 2:0 
1 1:0 2:0 
1 1:0 2:0 
1 1:0 2:0 
1 1:0 2:0 
1 1:0 2:0 
1 1:0 2:0 
1 1:0 2:0 
1 1:0 2:0 
1 1:0 2:0 
1 1:0 2:0 
1 1:0 2:0 
1 1:0 2:0 
1 1:0 2:0 
1 1:0 2:0 
1 1:0 2:0 
1 1:0 2:0 
1 1:0 2:0 
1 1:0 2:0 
1 1:0 2:0 
1 1:0 2:0 
1 1:0 2:0 
1 1:0 2:0 
1 1:0 2:0 
1 1:0 2:0 
1 1:0 2:0 
1 1:0 2:0 
1 1:0 2:0 
1 1:0 2:0 
1 1:0 2:0.36554158 
1 1:0 2:0.37336108 
1 1:0 2:0.3639417 
1 1:0 2:0.336261 
1 1:0 2:0.32298905 
1 1:0 2:0.30775288 
1 1:0 2:0.28239 
1 1:0 2:0.25144237 
1 1:0 2:0.24575719 
1 1:0 2:0.29745895 
1 1:0 2:0.38607287 
1 1:0 2:0.4682993 
1 1:0 2:0.56022692 
1 1:0 2:0.58777261 
1 1:0 2:0.5818277 
1 1:0 2:0.62761843 
1 1:0 2:0.68498784 
1 1:0 2:0.67426693 
1 1:0 2:0.64856029 
1 1:0 2:0.62742311 
1 1:0 2:0.63186496 
1 1:0 2:0.64451587 
1 1:0 2:0.64371789 
1 1:0 2:0.64528799 
1 1:0 2:0.64516419 
1 1:0 2:0.64318752 
1 1:0 2:0.64333987 
1 1:0 2:0.63937944 
1 1:0 2:0.62819064 
1 1:0 2:0.64165288 
1 1:0 2:0.68077731 
1 1:0 2:0.74105984 
1 1:4.0541849 2:1.5959724 
1 1:3.5277104 2:1.6176765 
1 1:2.2745202 2:4.2434955 
1 1:3.7486734 2:3.6060116 
0.3978528170798823 1:3.2359519 2:4.5560803 
1 1:3.0071063 2:4.5813174 
1 1:3.0071063 2:4.5706124 
1 1:0 2:1.714903 
1 1:0 2:1.7677729 
1 1:0 2:0 
1 1:0 2:0 
1 1:0 2:0 
1 1:0 2:0 
1 1:0 2:0 
1 1:0 2:0 
1 1:0 2:0 
1 1:0 2:0 
1 1:0 2:0 
1 1:0 2:0 
1 1:0 2:0 
1 1:0 2:0 
1 1:0 2:0 
1 1:0 2:0 
1 1:0 2:0 
1 1:0 2:0 
1 1:0 2:0 
1 1:0 2:0 
1 1:0 2:0 
1 1:0 2:0 
1 1:0 2:0 
1 1:0 2:0 
1 1:0 2:0 
1 1:0 2:0 
1 1:0 2:0 
1 1:0 2:0 
1 1:0 2:0 
1 1:0 2:0 
1 1:0 2:0 
1 1:0 2:0 
1 1:0 2:0 
1 1:0 2:0 
1 1:0 2:0 
1 1:0 2:0 
1 1:0 2:0 
1 1:0 2:0 
1 1:0 2:0 
1 1:0 2:0 
1 1:0 2:0 
1 1:0 2:0 
1 1:0 2:0 
1 1:0 2:0 
1 1:0 2:0 
1 1:0 2:0 
1 1:0 2:0 
1 1:0 2:0 
1 1:0 2:0 
1 1:0 2:0 
1 1:0 2:0 
1 1:0 2:0 
1 1:0 2:0 
1 1:0 2:0 
1 1:0 2:0 
1 1:0 2:0 
1 1:0 2:0 
1 1:0 2:0 
1 1:0 2:0 
1 1:0 2:0 
1 1:0 2:0 
1 1:0 2:0 
1 1:0 2:0 
1 1:0 2:0 
1 1:0 2:0 
1 1:0 2:0 
1 1:0 2:0 
1 1:0 2:0 
1 1:0 2:0 
1 1:0 2:0 
1 1:0 2:0 
1 1:0 2:0 
1 1:0 2:0 
1 1:0 2:0 
1 1:0 2:0 
1 1:0 2:0 
1 1:0 2:0 
1 1:0 2:0 
1 1:0 2:0 
1 1:0 2:0 
1 1:0 2:0 
1 1:0 2:0 
1 1:0 2:0 
1 1:0 2:0 
1 1:0 2:0 
1 1:0 2:0 
1 1:0 2:0 
1 1:0 2:0 
1 1:0 2:0 
1 1:0 2:0 
1 1:0 2:0 
1 1:0 2:0 
1 1:0 2:0 
1 1:0 2:0 
1 1:0 2:0 
1 1:0 2:0 
1 1:0 2:0 
1 1:0 2:0 
1 1:0 2:0 
1 1:0 2:0 
1 1:0 2:0 
1 1:0 2:0 
1 1:0 2:0 
1 1:0 2:0 
1 1:0 2:0 
1 1:0 2:0 
1 1:0 2:0 
1 1:0 2:0 
1 1:0 2:0 
1 1:0 2:0 
1 1:0 2:0 
1 1:0 2:0 
1 1:0 2:0 
1 1:0 2:0 
1 1:0 2:0 
1 1:0 2:0 
1 1:0 2:0 
1 1:0 2:0 
1 1:0 2:0 
1 1:0 2:0 
1 1:0 2:0 
1 1:0 2:0 
1 1:0 2:0 
1 1:0 2:0 
1 1:0 2:0 
1 1:0 2:0 
1 1:0 2:0 
1 1:0 2:0 
1 1:0 2:0 
1 1:0 2:0 
1 1:0 2:0 
1 1:0 2:0 
1 1:0 2:0 
1 1:0 2:0 
1 1:0 2:0 
1 1:0 2:0 
1 1:0 2:0 
1 1:0 2:0 
1 1:0 2:0 
1 1:0 2:0 
1 1:0 2:0 
1 1:0 2:0 
1 1:0 2:0 
1 1:0 2:0 
1 1:0 2:0 
1 1:0 2:0 
1 1:0 2:0 
1 1:0 2:0 
1 1:0 2:0 
1 1:0 2:0 
1 1:0 2:0 
1 1:0 2:0 
1 1:0 2:0 
1 1:0 2:0 
1 1:0 2:0 
1 1:0 2:0 
1 1:0 2:0 
1 1:0 2:0 
1 1:0 2:0 
1 1:0 2:0 
1 1:0 2:0 
1 1:0 2:0 
1 1:0 2:0 
1 1:0 2:0 
1 1:0 2:0 
1 1:0 2:0 
1 1:0 2:0 
1 1:0 2:0 
1 1:0 2:0 
1 1:0 2:0 
1 1:0 2:0 
1 1:0 2:0 
1 1:0 2:0 
1 1:0 2:0 
1 1:0 2:0 
1 1:0 2:0 
1 1:0 2:0 
1 1:0 2:0 
1 1:0 2:0 
1 1:0 2:0 
1 1:0 2:0 
1 1:0 2:0 
1 1:0 2:0 
1 1:0 2:0 
1 1:0 2:0 
1 1:0 2:0 
1 1:0 2:0 
1 1:0 2:0 
1 1:0 2:0 
1 1:0 2:0 
1 1:0 2:0 
1 1:0 2:0 
1 1:0 2:0 
1 1:0 2:0 
1 1:0 2:0 
1 1:0 2:0 
1 1:0 2:0 
1 1:0 2:0 
1 1:0 2:0 
1 1:0 2:0 
1 1:0 2:0 
1 1:0 2:0 
1 1:0 2:0 
1 1:0 2:0 
1 1:0 2:0 
1 1:0 2:0 
1 1:0 2:0 
1 1:0 2:0 
1 1:0 2:0 
1 1:0 2:0 
1 1:0 2:0 
1 1:0 2:0 
1 1:0 2:0 
1 1:0 2:0 
1 1:0 2:0 
1 1:0 2:0 
1 1:0 2:0 
1 1:0 2:0 
1 1:0 2:0 
1 1:0 2:0 
1 1:0 2:0 
1 1:0 2:0 
1 1:0 2:0 
1 1:0 2:0 
1 1:0 2:0 
1 1:0 2:0 
1 1:0 2:0 
1 1:0 2:0 
1 1:0 2:0 
1 1:0 2:0 
1 1:0 2:0 
1 1:0 2:0 
1 1:0 2:0 
1 1:0 2:0 
1 1:0 2:0 
1 1:0 2:0 
1 1:0 2:0 
1 1:0 2:0 
1 1:0 2:0 
1 1:0 2:0 
1 1:0 2:0 
1 1:0 2:0 
1 1:0 2:0 
1 1:0 2:0 
1 1:0 2:0 
1 1:0 2:0 
1 1:0 2:0 
1 1:0 2:0 
1 1:0 2:0 
1 1:0 2:0 
1 1:0 2:0 
1 1:0 2:0 
1 1:0 2:0 
1 1:0 2:0 
1 1:0 2:0 
1 1:0 2:0 
1 1:0 2:0 
1 1:0 2:0 
1 1:0 2:0 
1 1:0 2:0 
1 1:0 2:0 
1 1:0 2:0 
1 1:0 2:0 
1 1:0 2:0 
1 1:0 2:0 
1 1:0 2:0 
1 1:0 2:0 
1 1:0 2:0 
1 1:0 2:0 
1 1:0 2:0 
1 1:0 2:0 
1 1:0 2:0 
1 1:0 2:0 
1 1:0 2:0 
1 1:0 2:0 
1 1:0 2:0 
1 1:0 2:0 
1 1:0 2:0 
1 1:0 2:0 
1 1:0 2:0 
1 1:0 2:0 
1 1:0 2:0 
1 1:0 2:0 
1 1:0 2:0 
1 1:0 2:0 
1 1:0 2:0 
1 1:0 2:0 
1 1:0 2:0 
1 1:0 2:0 
1 1:0 2:0 
1 1:0 2:0 
1 1:0 2:0 
1 1:0 2:0 
1 1:0 2:0 
1 1:0 2:0 
1 1:0 2:0 
1 1:0 2:0 
1 1:0 2:0 
1 1:0 2:0 
1 1:0 2:0 
1 1:0 2:0 
1 1:0 2:0 
1 1:0 2:0 
1 1:0 2:0 
1 1:0 2:0 
1 1:0 2:0 
1 1:0 2:0 
1 1:0 2:0 
1 1:0 2:0 
1 1:0 2:0 
1 1:0 2:0 
1 1:0 2:0 
1 1:0 2:0 
1 1:0 2:0 
1 1:0 2:0 
1 1:0 2:0 
1 1:0 2:0 
1 1:0 2:0 
1 1:0 2:0 
1 1:0 2:0 
1 1:0 2:0 
1 1:0 2:0 
1 1:0 2:0 
1 1:0 2:0 
1 1:0 2:0 
1 1:0 2:0 
1 1:0 2:0 
1 1:0 2:0 
1 1:0 2:0 
1 1:0 2:0 
1 1:0 2:0 
1 1:0 2:0 
1 1:0 2:0 
1 1:0 2:0 
1 1:0 2:0 
1 1:0 2:0 
1 1:0 2:0 
1 1:0 2:0 
1 1:0 2:0 
1 1:0 2:0 
1 1:0 2:0 
1 1:0 2:0 
1 1:0 2:0 
1 1:0 2:0 
1 1:0 2:0 
1 1:0 2:0 
1 1:0 2:0 
1 1:0 2:0 
1 1:0 2:0 
1 1:0 2:0 
1 1:0 2:0 
1 1:0 2:0 
1 1:0 2:0 
1 1:0 2:0 
1 1:0 2:0 
1 1:0 2:0 
1 1:0 2:0 
1 1:0 2:0 
1 1:0 2:0 
1 1:0 2:0 
1 1:0 2:0 
1 1:0 2:0 
1 1:0 2:0 
1 1:0 2:0 
1 1:0 2:0 
1 1:0 2:0 
1 1:0 2:0 
1 1:0 2:0 
1 1:0 2:0 
1 1:0 2:0 
1 1:0 2:0 
1 1:0 2:0 
1 1:0 2:0 
1 1:0 2:0 
1 1:0 2:0 
1 1:0 2:0 
1 1:0 2:0 
1 1:0 2:0 
1 1:0 2:0 
1 1:0 2:0 
1 1:0 2:0 
1 1:0 2:0 
1 1:0 2:0 
1 1:0 2:0 
1 1:0 2:0 
1 1:0 2:0 
1 1:0 2:0 
1 1:0 2:0 
1 1:0 2:0 
1 1:0 2:0 
1 1:0 2:0 
1 1:0 2:0 
1 1:0 2:0 
1 1:0 2:0 
1 1:0 2:0 
1 1:0 2:0 
1 1:0 2:0 
1 1:0 2:0 
1 1:0 2:0 
1 1:0 2:0 
1 1:0 2:0 
1 1:0 2:0 
1 1:0 2:0 
1 1:0 2:0 
1 1:0 2:0 
1 1:0 2:0 
1 1:0 2:0 
1 1:0 2:0 
1 1:0 2:0 
1 1:0 2:0 
1 1:0 2:0 
1 1:0 2:0 
1 1:0 2:0 
1 1:0 2:0 
1 1:0 2:0 
1 1:0 2:0 
1 1:0 2:0 
1 1:0 2:0 
1 1:0 2:0 
1 1:0 2:0 
1 1:0 2:0 
1 1:0 2:0 
1 1:0 2:0 
1 1:0 2:0 
1 1:0 2:0 
1 1:0 2:0 
1 1:0 2:0 
1 1:0 2:0 
1 1:0 2:0 
1 1:0 2:0 
1 1:0 2:0 
1 1:0 2:0 
1 1:0 2:0 
1 1:0 2:0 
1 1:0 2:0 
1 1:0 2:0 
1 1:0 2:0 
1 1:0 2:0 
1 1:0 2:0 
1 1:0 2:0 
1 1:0 2:0 
1 1:0 2:0 
1 1:0 2:0 
1 1:0 2:0 
1 1:0 2:0 
1 1:0 2:0 
1 1:0 2:0 
1 1:0 2:0 
1 1:0 2:0 
1 1:0 2:0 
1 1:0 2:0 
1 1:0 2:0 
1 1:0 2:0 
1 1:0 2:0 
1 1:0 2:0 
1 1:0 2:0 
1 1:0 2:0 
1 1:0 2:0 
1 1:0 2:0 
1 1:0 2:0 
1 1:0 2:0 
1 1:0 2:0 
1 1:0 2:0 
1 1:0 2:0 
1 1:0 2:0 
1 1:0 2:0 
1 1:0 2:0 
1 1:0 2:0 
1 1:0 2:0 
1 1:0 2:0 
1 1:0 2:0 
1 1:0 2:0 
1 1:0 2:0 
1 1:0 2:0 
1 1:0 2:0 
1 1:0 2:0 
1 1:0 2:0 
1 1:0 2:0 
1 1:0 2:0 
1 1:0 2:0 
1 1:0 2:0 
1 1:0 2:0 
1 1:0 2:0 
1 1:0 2:0 
1 1:0 2:0 
1 1:0 2:0 
1 1:0 2:0 
1 1:0 2:0 
1 1:0 2:0 
1 1:0 2:0 
1 1:0 2:0 
1 1:0 2:0 
1 1:0 2:0 
1 1:0 2:0 
1 1:0 2:0 
1 1:0 2:0 
1 1:0 2:0 
1 1:0 2:0 
1 1:0 2:0 
1 1:0 2:0 
1 1:0 2:0 
1 1:0 2:0 
1 1:0 2:0 
1 1:0 2:0 
1 1:0 2:0 
1 1:0 2:0 
1 1:0 2:0 
1 1:0 2:0 
1 1:0 2:0 
1 1:0 2:0 
1 1:0 2:0 
1 1:0 2:0 
1 1:0 2:0 
1 1:0 2:0 
1 1:0 2:0 
1 1:0 2:0 
1 1:0 2:0 
1 1:0 2:0 
1 1:0 2:0 
1 1:0 2:0 
1 1:0 2:0 
1 1:0 2:0 
1 1:0 2:0 
1 1:0 2:0 
1 1:0 2:0 
1 1:0 2:0 
1 1:0 2:0 
1 1:0 2:0 
1 1:0 2:0 
1 1:0 2:0 
1 1:0 2:0 
1 1:0 2:0 
1 1:0 2:0 
1 1:0 2:0 
1 1:0 2:0 
1 1:0 2:0 
1 1:0 2:0 
1 1:0 2:0 
1 1:0 2:0 
1 1:0 2:0 
1 1:0 2:0 
1 1:0 2:0 
1 1:0 2:0 
1 1:0 2:0 
1 1:0 2:0 
1 1:0 2:0 
1 1:0 2:0 
1 1:0 2:0 
1 1:0 2:0 
1 1:0 2:0 
1 1:0 2:0 
1 1:0 2:0 
1 1:0 2:0 
1 1:0 2:0 
1 1:0 2:0 
1 1:0 2:0 
1 1:0 2:0 
1 1:0 2:0 
1 1:0 2:0 
1 1:0 2:0 
1 1:0 2:0 
1 1:0 2:0 
1 1:0 2:0 
1 1:0 2:0 
1 1:0 2:0 
1 1:0 2:0 
1 1:0 2:0 
1 1:0 2:0 
1 1:0 2:0 
1 1:0 2:0 
1 1:0 2:0 
1 1:0 2:0 
1 1:0 2:0 
1 1:0 2:0 
1 1:0 2:0 
1 1:0 2:0 
1 1:0 2:0 
1 1:0 2:0 
1 1:0 2:0 
1 1:0 2:0 
1 1:0 2:0 
1 1:0 2:0 
1 1:0 2:0 
1 1:0 2:0 
1 1:0 2:0 
1 1:0 2:0 
1 1:0 2:0 
1 1:0 2:0 
1 1:0 2:0 
1 1:0 2:0 
1 1:0 2:0 
1 1:0 2:0 
1 1:0 2:0 
1 1:0 2:0 
1 1:0 2:0 
1 1:0 2:0 
1 1:0 2:0 
1 1:0 2:0 
1 1:0 2:0 
1 1:0 2:0 
1 1:0 2:0 
1 1:0 2:0 
1 1:0 2:0 
1 1:0 2:0 
1 1:0 2:0 
1 1:0 2:0 
1 1:0 2:0 
1 1:0 2:0 
1 1:0 2:0 
1 1:0 2:0 
1 1:0 2:0 
1 1:0 2:0 
1 1:0 2:0 
1 1:0 2:0 
1 1:0 2:0 
1 1:0 2:0 
1 1:0 2:0 
1 1:0 2:0 
1 1:0 2:0 
1 1:0 2:0 
1 1:0 2:0 
1 1:0 2:0 
1 1:0 2:0 
1 1:0 2:0 
1 1:0 2:0 
1 1:0 2:0 
1 1:0 2:0 
1 1:0 2:0 
1 1:0 2:0 
1 1:0 2:0 
1 1:0 2:0 
1 1:0 2:0 
1 1:0 2:0 
1 1:0 2:0 
1 1:0 2:0 
1 1:0 2:0 
1 1:0 2:0 
1 1:0 2:0 
1 1:0 2:0 
1 1:0 2:0 
1 1:0 2:0 
1 1:0 2:0 
1 1:0 2:0 
1 1:0 2:0 
1 1:0 2:0 
1 1:0 2:0 
1 1:0 2:0 
1 1:0 2:0 
1 1:0 2:0 
1 1:0 2:0 
1 1:0 2:0 
1 1:0 2:0 
1 1:0 2:0 
1 1:0 2:0 
1 1:0 2:0 
1 1:0 2:0 
1 1:0 2:0 
1 1:0 2:0 
1 1:0 2:0 
1 1:0 2:0 
1 1:0 2:0 
1 1:0 2:0 
1 1:0 2:0 
1 1:0 2:0 
1 1:0 2:0 
1 1:0 2:0 
1 1:0 2:0 
1 1:0 2:0 
1 1:0 2:0 
1 1:0 2:0 
1 1:0 2:0 
1 1:0 2:0 
1 1:0 2:0 
1 1:0 2:0 
1 1:0 2:0 
1 1:0 2:0 
1 1:0 2:0 
1 1:0 2:0 
1 1:0 2:0 
1 1:0 2:0 
1 1:0 2:0 
1 1:0 2:0 
1 1:0 2:0 
1 1:0 2:0 
1 1:0 2:0 
1 1:0 2:0 
1 1:0 2:0 
1 1:0 2:0 
1 1:0 2:0 
1 1:0 2:0 
1 1:0 2:0 
1 1:0 2:0 
1 1:0 2:0 
1 1:0 2:0 
1 1:0 2:0 
1 1:0 2:0 
1 1:0 2:0 
1 1:0 2:0 
1 1:0 2:0 
1 1:0 2:0 
1 1:0 2:0 
1 1:0 2:0 
1 1:0 2:0 
1 1:0 2:0 
1 1:0 2:0 
1 1:0 2:0 
1 1:0 2:0 
1 1:0 2:0 
1 1:0 2:0 
1 1:0 2:0 
1 1:0 2:0 
1 1:0 2:0 
1 1:0 2:0 
1 1:0 2:0 
1 1:0 2:0 
1 1:0 2:0 
1 1:0 2:0 
1 1:0 2:0 
1 1:0 2:0 
1 1:0 2:0 
1 1:0 2:0 
1 1:0 2:0 
1 1:0 2:0 
1 1:0 2:0 
1 1:0 2:0 
1 1:0 2:0 
1 1:0 2:0 
1 1:0 2:0 
1 1:0 2:0 
1 1:0 2:0 
1 1:0 2:0 
1 1:0 2:0 
1 1:0 2:0 
1 1:0 2:0 
1 1:0 2:0 
1 1:0 2:0 
1 1:0 2:0 
1 1:0 2:0 
1 1:0 2:0 
1 1:0 2:0 
1 1:0 2:0 
1 1:0 2:0 
1 1:0 2:0 
1 1:0 2:0 
1 1:0 2:0 
1 1:0 2:0 
1 1:0 2:0 
1 1:0 2:0 
1 1:0 2:0 
1 1:0 2:0 
1 1:0 2:0 
1 1:0 2:0 
1 1:0 2:0 
1 1:0 2:0 
1 1:0 2:0 
1 1:0 2:0 
1 1:0 2:0 
1 1:0 2:0 
1 1:0 2:0 
1 1:0 2:0 
1 1:0 2:0 
1 1:0 2:0 
1 1:0 2:0 
1 1:0 2:0 
1 1:0 2:0 
1 1:0 2:0 
1 1:0 2:0 
1 1:0 2:0 
1 1:0 2:0 
1 1:0 2:0 
1 1:13.729859 2:0 
1 1:13.86653 2:0 
1 1:15.75 2:0 
1 1:12.514319 2:0 
1 1:12.615017 2:0 
1 1:12.615017 2:0 
1 1:0 2:0 
1 1:0 2:0 
1 1:0 2:0 
1 1:0 2:0 
1 1:0 2:0 
1 1:0 2:0 
1 1:0 2:0 
1 1:0 2:0 
1 1:0 2:0 
1 1:0 2:0 
1 1:0 2:0 
1 1:0 2:0 
1 1:0 2:0 
1 1:0 2:0 
1 1:0 2:0 
1 1:0 2:0 
1 1:0 2:0 
1 1:0 2:0 
1 1:0 2:0 
1 1:0 2:0 
1 1:0 2:0 
1 1:0 2:0 
1 1:0 2:0 
1 1:0 2:0 
1 1:0 2:0 
1 1:0 2:0 
1 1:0 2:0 
1 1:0 2:0 
1 1:0 2:0 
1 1:0 2:0 
1 1:0 2:0 
1 1:0 2:0 
1 1:0 2:0 
1 1:0 2:0 
1 1:0 2:0 
1 1:0 2:0 
1 1:0 2:0 
1 1:0 2:0 
1 1:0 2:0 
1 1:0 2:0 
1 1:0 2:0 
1 1:0 2:0 
1 1:0 2:0 
1 1:0 2:0 
1 1:0 2:0 
1 1:0 2:0 
1 1:0 2:0 
1 1:0 2:0 
1 1:0 2:0 
1 1:0 2:0 
1 1:0 2:0 
1 1:0 2:0 
1 1:0 2:0 
1 1:0 2:0 
1 1:0 2:0 
1 1:0 2:0 
1 1:0 2:0 
1 1:0 2:0 
1 1:0 2:0 
1 1:0 2:0 
1 1:0 2:0 
1 1:0 2:0 
1 1:0 2:0 
1 1:0 2:0 
1 1:0 2:0 
1 1:0 2:0 
1 1:0 2:0 
1 1:0 2:0 
1 1:0 2:0 
1 1:0 2:0 
1 1:0 2:0 
1 1:0 2:0 
1 1:0 2:0 
1 1:0 2:0 
1 1:0 2:0 
1 1:0 2:0 
1 1:0 2:0 
1 1:0 2:0 
1 1:0 2:0 
1 1:0 2:0 
1 1:0 2:0 
1 1:0 2:0 
1 1:0 2:0 
1 1:0 2:0 
1 1:0 2:0 
1 1:13.61561 2:0 
1 1:12.589589 2:0 
1 1:13.101116 2:0 
1 1:15.078219 2:0 
1 1:15.944296 2:0 
1 1:16.078651 2:0 
1 1:12.914483 2:0 
1 1:12.400392 2:0 
1 1:12.400392 2:0 
1 1:11.442972 2:0 
1 1:11.78426 2:0 
1 1:11.272191 2:0 
1 1:12.391934 2:0 
1 1:0 2:0 
1 1:0 2:0 
1 1:0 2:0 
1 1:0 2:0 
1 1:0 2:0 
1 1:0 2:0 
1 1:0 2:0 
1 1:0 2:0 
1 1:0 2:0 
1 1:0 2:0 
1 1:0 2:0 
1 1:0 2:0 
1 1:0 2:0 
1 1:0 2:0 
1 1:0 2:0 
1 1:0 2:0 
1 1:0 2:0 
1 1:0 2:0 
1 1:0 2:0 
1 1:0 2:0 
1 1:0 2:0 
1 1:0 2:0 
1 1:0 2:0 
1 1:0 2:0 
1 1:0 2:0 
1 1:0 2:0 
1 1:0 2:0 
1 1:0 2:0 
1 1:0 2:0 
1 1:0 2:0 
1 1:0 2:0 
1 1:0 2:0 
1 1:0 2:0 
1 1:0 2:0 
1 1:0 2:0 
1 1:0 2:0 
1 1:0 2:0 
1 1:0 2:0 
1 1:0 2:0 
1 1:0 2:0 
1 1:0 2:0 
1 1:0 2:0 
1 1:0 2:0 
1 1:0 2:0 
1 1:0 2:0 
1 1:0 2:0 
1 1:0 2:0 
1 1:0 2:0 
1 1:0 2:0 
1 1:0 2:0 
1 1:0 2:0 
1 1:0 2:0 
1 1:0 2:0 
1 1:0 2:0 
1 1:0 2:0 
1 1:0 2:0 
1 1:0 2:0 
1 1:0 2:0 
1 1:0 2:0 
1 1:0 2:0 
1 1:0 2:0 
1 1:0 2:0 
1 1:0 2:0 
1 1:0 2:0 
1 1:0 2:0 
1 1:0 2:0 
1 1:0 2:0 
1 1:0 2:0 
1 1:0 2:0 
1 1:0 2:0 
1 1:0 2:0 
1 1:0 2:0 
1 1:0 2:0 
1 1:0 2:0 
1 1:0 2:0 
1 1:0 2:0 
1 1:0 2:0 
1 1:0 2:0 
1 1:0 2:0 
1 1:0 2:0 
1 1:0 2:0 
1 1:0 2:0 
1 1:0 2:0 
1 1:0 2:0 
1 1:0 2:0 
1 1:0 2:0 
1 1:0 2:0 
1 1:0 2:0 
1 1:0 2:0 
1 1:0 2:0 
1 1:0 2:0 
1 1:0 2:0 
1 1:0 2:0 
1 1:0 2:0 
1 1:0 2:0 
1 1:0 2:0 
1 1:0 2:0 
1 1:0 2:0 
1 1:0 2:0 
1 1:0 2:0 
1 1:0 2:0 
1 1:0 2:0 
1 1:0 2:0 
1 1:0 2:0 
1 1:0 2:0 
1 1:0 2:0 
1 1:0 2:0 
1 1:0 2:0 
1 1:0 2:0 
1 1:0 2:0 
1 1:0 2:0 
1 1:0 2:0 
1 1:0 2:0 
1 1:0 2:0 
1 1:0 2:0 
1 1:0 2:0 
1 1:0 2:0 
1 1:0 2:0 
1 1:0 2:0 
1 1:0 2:0 
1 1:0 2:0 
1 1:0 2:0 
1 1:0 2:0 
1 1:0 2:0 
1 1:0 2:0 
1 1:0 2:0 
1 1:0 2:0 
1 1:0 2:0 
1 1:0 2:0 
1 1:0 2:0 
1 1:0 2:0 
1 1:0 2:0 
1 1:0 2:0 
1 1:0 2:0 
1 1:0 2:0 
1 1:0 2:0 
1 1:0 2:0 
1 1:0 2:0 
1 1:0 2:0 
1 1:0 2:0 
1 1:0 2:0 
1 1:0 2:0 
1 1:0 2:0 
1 1:0 2:0 
1 1:0 2:0 
1 1:0 2:0 
1 1:0 2:0 
1 1:0 2:0 
1 1:0 2:0 
1 1:0 2:0 
1 1:0 2:0 
1 1:0 2:0 
1 1:0 2:0 
1 1:0 2:0 
1 1:0 2:0 
1 1:0 2:0 
1 1:0 2:0 
1 1:0 2:0 
1 1:0 2:0 
1 1:0 2:0 
1 1:0 2:0 
1 1:0 2:0 
1 1:0 2:0 
1 1:0 2:0 
1 1:0 2:0 
1 1:0 2:0 
1 1:0 2:0 
1 1:0 2:0 
1 1:0 2:0 
1 1:0 2:0 
1 1:0 2:0 
1 1:0 2:0 
1 1:0 2:0 
1 1:0 2:0 
1 1:0 2:0 
1 1:0 2:0 
1 1:0 2:0 
1 1:0 2:0 
1 1:0 2:0 
1 1:0 2:0 
1 1:0 2:0 
1 1:0 2:0 
1 1:0 2:0 
1 1:0 2:0 
1 1:0 2:0 
1 1:0 2:0 
1 1:0 2:0 
1 1:0 2:0 
1 1:0 2:0 
1 1:0 2:0 
1 1:0 2:0 
1 1:0 2:0 
1 1:0 2:0 
1 1:0 2:0 
1 1:0 2:0 
1 1:0 2:0 
1 1:0 2:0 
1 1:0 2:0 
1 1:0 2:0 
1 1:0 2:0 
1 1:0 2:0 
1 1:0 2:0 
1 1:0 2:0 
1 1:0 2:0 
1 1:0 2:0 
1 1:0 2:0 
1 1:0 2:0 
1 1:0 2:0 
1 1:0 2:0 
1 1:0 2:0 
1 1:0 2:0 
1 1:0 2:0 
1 1:0 2:0 
1 1:0 2:0 
1 1:0 2:0 
1 1:0 2:0 
1 1:0 2:0 
1 1:0 2:0 
1 1:0 2:0 
1 1:0 2:0 
1 1:0 2:0 
1 1:0 2:0 
1 1:0 2:0 
1 1:0 2:0 
1 1:0 2:0 
1 1:0 2:0 
1 1:0 2:0 
1 1:0 2:0 
1 1:0 2:0 
1 1:0 2:0 
1 1:0 2:0 
1 1:0 2:0 
1 1:0 2:0 
1 1:0 2:0 
1 1:0 2:0 
1 1:0 2:0 
1 1:0 2:0 
1 1:0 2:0 
1 1:0 2:0 
1 1:0 2:0 
1 1:0 2:0 
1 1:0 2:0 
1 1:0 2:0 
1 1:0 2:0 
1 1:0 2:0 
1 1:0 2:0 
1 1:0 2:0 
1 1:0 2:0 
1 1:0 2:0 
1 1:0 2:0 
1 1:0 2:0 
1 1:0 2:0 
1 1:0 2:0 
1 1:0 2:0 
1 1:0 2:0 
1 1:0 2:0 
1 1:0 2:0 
1 1:0 2:0 
1 1:0 2:0 
1 1:0 2:0 
1 1:0 2:0 
1 1:0 2:0 
1 1:0 2:0 
1 1:0 2:0 
1 1:0 2:0 
1 1:0 2:0 
1 1:0 2:0 
1 1:0 2:0 
1 1:0 2:0 
1 1:0 2:0 
1 1:0 2:0 
1 1:0 2:0 
1 1:0 2:0 
1 1:0 2:0 
1 1:0 2:0 
1 1:0 2:0 
1 1:0 2:0 
1 1:0 2:0 
1 1:0 2:0 
1 1:0 2:0 
1 1:0 2:0 
1 1:0 2:0 
1 1:0 2:0 
1 1:0 2:0 
1 1:0 2:0 
1 1:0 2:0 
1 1:0 2:0 
1 1:0 2:0 
1 1:0 2:0 
1 1:0 2:0 
1 1:0 2:0 
1 1:0 2:0 
1 1:0 2:0 
1 1:0 2:0 
1 1:0 2:0 
1 1:0 2:0 
1 1:0 2:0 
1 1:0 2:0 
1 1:0 2:0 
1 1:0 2:0 
1 1:0 2:0 
1 1:0 2:0 
1 1:0 2:0 
1 1:0 2:0 
1 1:0 2:0 
1 1:0 2:0 
1 1:0 2:0 
1 1:0 2:0 
1 1:0 2:0 
1 1:0 2:0 
1 1:0 2:0 
1 1:0 2:0 
1 1:0 2:0 
1 1:0 2:0 
1 1:0 2:0 
1 1:0 2:0 
1 1:0 2:0 
1 1:0 2:0 
1 1:0 2:0 
1 1:0 2:0 
1 1:0 2:0 
1 1:0 2:0 
1 1:0 2:0 
1 1:0 2:0 
1 1:0 2:0 
1 1:0 2:0 
1 1:0 2:0 
1 1:0 2:0 
1 1:0 2:0 
1 1:0 2:0 
1 1:0 2:0 
1 1:0 2:0 
1 1:0 2:0 
1 1:0 2:0 
1 1:0 2:0 
1 1:0 2:0 
1 1:0 2:0 
1 1:0 2:0 
1 1:0 2:0 
1 1:0 2:0 
1 1:0 2:0 
1 1:0 2:0 
1 1:0 2:0 
1 1:0 2:0 
1 1:0 2:0 
1 1:0 2:0 
1 1:0 2:0 
1 1:0 2:0 
1 1:0 2:0 
1 1:0 2:0 
1 1:0 2:0 
1 1:0 2:0 
1 1:0 2:0 
1 1:0 2:0 
1 1:0 2:0 
1 1:0 2:0 
1 1:0 2:0 
1 1:0 2:0 
1 1:0 2:0 
1 1:0 2:0 
1 1:0 2:0 
1 1:0 2:0 
1 1:0 2:0 
1 1:0 2:0 
1 1:0 2:0 
1 1:0 2:0 
1 1:0 2:0 
1 1:0 2:0 
1 1:0 2:0 
1 1:0 2:0 
1 1:0 2:0 
1 1:0 2:0 
1 1:0 2:0 
1 1:0 2:0 
1 1:0 2:0 
1 1:0 2:0 
1 1:0 2:0 
1 1:0 2:0 
1 1:0 2:0 
1 1:0 2:0 
1 1:0 2:0 
1 1:0 2:0 
1 1:0 2:0 
1 1:0 2:0 
1 1:0 2:0 
1 1:0 2:0 
1 1:0 2:0 
1 1:0 2:0 
1 1:0 2:0 
1 1:0 2:0 
1 1:0 2:0 
1 1:0 2:0 
1 1:0 2:0 
1 1:0 2:0 
1 1:0 2:0 
1 1:0 2:0 
1 1:0 2:0 
1 1:0 2:0 
1 1:0 2:0 
1 1:0 2:0 
1 1:0 2:0 
1 1:0 2:0 
1 1:0 2:0 
1 1:0 2:0 
1 1:0 2:0 
1 1:0 2:0 
1 1:0 2:0 
1 1:0 2:0 
1 1:0 2:0 
1 1:0 2:0 
1 1:0 2:0 
1 1:0 2:0 
1 1:0 2:0 
1 1:0 2:0 
1 1:0 2:0 
1 1:0 2:0 
1 1:0 2:0 
1 1:0 2:0 
1 1:0 2:0 
1 1:0 2:0 
1 1:0 2:0 
1 1:0 2:0 
1 1:0 2:0 
1 1:0 2:0 
1 1:0 2:0 
1 1:0 2:0 
1 1:0 2:0 
1 1:0 2:0 
1 1:0 2:0 
1 1:0 2:0 
1 1:0 2:0 
1 1:0 2:0 
1 1:0 2:0 
1 1:0 2:0 
1 1:0 2:0 
1 1:0 2:0 
1 1:0 2:0 
1 1:0 2:0 
1 1:0 2:0 
1 1:0 2:0 
1 1:0 2:0 
1 1:0 2:0 
1 1:0 2:0 
1 1:0 2:0 
1 1:0 2:0 
1 1:0 2:0 
1 1:0 2:0 
1 1:0 2:0 
1 1:0 2:0 
1 1:0 2:0 
1 1:0 2:0 
1 1:0 2:0 
1 1:0 2:0 
1 1:0 2:0 
1 1:0 2:0 
1 1:0 2:0 
1 1:0 2:0 
1 1:0 2:0 
1 1:0 2:0 
1 1:0 2:0 
1 1:0 2:0 
1 1:0 2:0 
1 1:0 2:0 
1 1:0 2:0 
1 1:0 2:0 
1 1:0 2:0 
1 1:0 2:0 
1 1:0 2:0 
1 1:0 2:0 
1 1:0 2:0 
1 1:0 2:0 
1 1:0 2:0 
1 1:0 2:0 
1 1:0 2:0 
1 1:0 2:0 
1 1:0 2:0 
1 1:0 2:0 
1 1:0 2:0 
1 1:0 2:0 
1 1:0 2:0 
1 1:0 2:0 
1 1:0 2:0 
1 1:0 2:0 
1 1:0 2:0 
1 1:0 2:0 
1 1:0 2:0 
1 1:0 2:0 
1 1:0 2:0 
1 1:0 2:0 
1 1:0 2:0 
1 1:0 2:0 
1 1:0 2:0 
1 1:0 2:0 
1 1:0 2:0 
1 1:0 2:0 
1 1:0 2:0 
1 1:0 2:0 
1 1:0 2:0 
1 1:0 2:0 
1 1:0 2:0 
1 1:0 2:0 
1 1:0 2:0 
1 1:0 2:0 
1 1:0 2:0 
1 1:0 2:0 
1 1:0 2:0 
1 1:0 2:0 
1 1:0 2:0 
1 1:0 2:0 
1 1:0 2:0 
1 1:0 2:0 
1 1:0 2:0 
1 1:0 2:0 
1 1:0 2:0 
1 1:0 2:0 
1 1:0 2:0 
1 1:0 2:0 
1 1:0 2:0 
1 1:0 2:0 
1 1:0 2:0 
1 1:0 2:0 
1 1:0 2:0 
1 1:0 2:0 
1 1:0 2:0 
1 1:0 2:0 
1 1:0 2:0 
1 1:0 2:0 
1 1:0 2:0 
1 1:0 2:0 
1 1:0 2:0 
1 1:0 2:0 
1 1:0 2:0 
1 1:0 2:0 
1 1:0 2:0 
1 1:0 2:0 
1 1:0 2:0 
1 1:0 2:0 
1 1:0 2:0 
1 1:0 2:0 
1 1:0 2:0 
1 1:0 2:0 
1 1:0 2:0 
1 1:0 2:0 
1 1:0 2:0 
1 1:0 2:0 
1 1:0 2:0 
1 1:0 2:0 
1 1:0 2:0 
1 1:0 2:0 
1 1:0 2:0 
1 1:0 2:0 
1 1:0 2:0 
1 1:0 2:0 
1 1:0 2:0 
1 1:0 2:0 
1 1:0 2:0 
1 1:0 2:0 
1 1:0 2:0 
1 1:0 2:0 
1 1:0 2:0 
1 1:0 2:0 
1 1:0 2:0 
1 1:0 2:0 
1 1:0 2:0 
1 1:0 2:0 
1 1:0 2:0 
1 1:0 2:0 
1 1:0 2:0 
1 1:0 2:0 
1 1:0 2:0 
1 1:0 2:0 
1 1:0 2:0 
1 1:0 2:0 
1 1:0 2:0 
1 1:0 2:0 
1 1:0 2:0 
1 1:0 2:0 
1 1:0 2:0 
1 1:0 2:5.1705837 
1 1:0 2:5.2784805 
1 1:0 2:5.2843218 
1 1:0 2:5.2697773 
1 1:32.740261 2:5.2591729 
1 1:31.001396 2:5.0966487 
1 1:25.55307 2:4.9065104 
1 1:24.249151 2:4.4878597 
1 1:22.543934 2:4.4482617 
1 1:23.331085 2:4.728766 
1 1:23.050032 2:4.8347611 
1 1:22.877884 2:4.8429418 
1 1:22.877884 2:5.0088835 
1 1:22.679983 2:4.9794393 
1 1:21.430088 2:0 
1 1:20.725338 2:0 
1 1:16.124401 2:0 
1 1:21.712687 2:0 
1 1:11.033246 2:0 
1 1:8.1381826 2:0 
1 1:9.3519945 2:0 
1 1:15.621451 2:0 
1 1:20.448261 2:0 
1 1:22.241863 2:0 
1 1:22.982281 2:0 
1 1:22.73893 2:0 
1 1:22.925768 2:0 
1 1:22.45546 2:0 
1 1:21.999495 2:0 
1 1:21.627359 2:0 
1 1:21.470177 2:0 
1 1:21.506994 2:0 
1 1:21.117823 2:0 
1 1:19.53261 2:0 
1 1:19.53261 2:0 
1 1:20.265373 2:0 
1 1:23.496988 2:0 
1 1:24.259176 2:0 
1 1:24.383369 2:0 
1 1:25.127104 2:0 
1 1:25.038374 2:0 
1 1:23.43634 2:0 
1 1:23.015717 2:0 
1 1:22.632376 2:0 
1 1:21.041096 2:0 
1 1:21.865267 2:0 
1 1:21.865267 2:0 
1 1:20.59236 2:0 
1 1:22.288641 2:0 
1 1:22.655834 2:0 
1 1:21.69606 2:0 
1 1:20.239408 2:0 
1 1:20.788435 2:0 
1 1:18.632486 2:0 
1 1:15.542525 2:0 
1 1:17.477842 2:0 
1 1:15.165601 2:0 
1 1:15.381796 2:0 
1 1:16.373823 2:0 
1 1:19.258789 2:0 
1 1:15.777469 2:0 
1 1:12.970419 2:0 
1 1:12.81622 2:0 
1 1:13.513296 2:0 
1 1:13.513296 2:0 
1 1:13.196602 2:0 
1 1:14.429782 2:0 
1 1:17.034517 2:0 
1 1:16.178095 2:0 
1 1:12.318189 2:0 
1 1:14.392557 2:0 
1 1:10.098331 2:0 
1 1:11.095328 2:0 
1 1:11.549332 2:0 
1 1:10.667743 2:0 
1 1:16.544388 2:0 
1 1:19.433262 2:0 
1 1:19.433262 2:0 
1 1:19.318926 2:0 
1 1:19.656713 2:0 
1 1:20.056898 2:0 
1 1:20.694929 2:0 
1 1:21.039265 2:0 
1 1:21.798515 2:0 
1 1:22.185249 2:0 
1 1:19.922192 2:0 
1 1:19.23781 2:0 
1 1:20.31918 2:0 
1 1:20.31918 2:0 
1 1:20.218227 2:0 
1 1:20.655628 2:0 
1 1:20.866962 2:0 
1 1:20.690903 2:0 
1 1:21.042669 2:0 
1 1:21.765461 2:0 
1 1:23.045664 2:0 
1 1:23.859066 2:0 
1 1:23.327875 2:0 
1 1:23.086863 2:0 
1 1:23.063911 2:0 
1 1:23.049089 2:0 
1 1:19.733921 2:0 
1 1:19.088573 2:0 
1 1:19.584759 2:0 
1 1:18.270075 2:0 
1 1:18.781012 2:0 
1 1:17.091118 2:0 
1 1:14.666575 2:0 
1 1:18.11153 2:0 
1 1:19.862017 2:0 
1 1:20.025118 2:0 
1 1:20.202814 2:0 
1 1:21.564775 2:0 
1 1:21.939451 2:0 
1 1:10.582751 2:0 
1 1:15.719709 2:0 
1 1:11.520287 2:0 
1 1:10.462383 2:0 
1 1:11.091522 2:0 
1 1:8.5425434 2:0 
1 1:8.5425434 2:0 
1 1:0 2:0 
1 1:0 2:0 
1 1:0 2:0 
1 1:0 2:0 
1 1:0 2:0 
1 1:0 2:0 
1 1:0 2:0 
1 1:0 2:0 
1 1:0 2:0 
1 1:0 2:0 
1 1:0 2:0 
1 1:0 2:0 
1 1:0 2:0 
1 1:0 2:0 
1 1:0 2:0 
1 1:0 2:0 
1 1:0 2:0 
1 1:0 2:0 
1 1:0 2:0 
1 1:0 2:0 
1 1:0 2:0 
1 1:0 2:0 
1 1:0 2:0 
1 1:0 2:0 
1 1:0 2:0 
1 1:0 2:0 
1 1:0 2:0 
1 1:0 2:0 
1 1:0 2:0 
1 1:0 2:0 
1 1:0 2:0 
1 1:0 2:0 
1 1:0 2:0 
1 1:0 2:0 
1 1:0 2:0 
1 1:0 2:0 
1 1:0 2:0 
1 1:0 2:0 
1 1:0 2:0 
1 1:0 2:0 
1 1:7.2846942 2:0 
1 1:0 2:0 
1 1:0 2:0 
1 1:0 2:0 
1 1:0 2:0 
1 1:0 2:0 
1 1:0 2:0 
1 1:0 2:0 
1 1:0 2:0 
1 1:0 2:0 
1 1:0 2:0 
1 1:0 2:0 
1 1:0 2:0 
1 1:0 2:0 
1 1:0 2:0 
1 1:0 2:0 
1 1:0 2:0 
1 1:0 2:0 
1 1:0 2:0 
1 1:0 2:0 
1 1:0 2:0 
1 1:0 2:0 
1 1:0 2:0 
1 1:0 2:0 
1 1:0 2:0 
1 1:0 2:0 
1 1:0 2:0 
1 1:0 2:0 
1 1:0 2:0 
1 1:0 2:0 
1 1:0 2:0 
1 1:0 2:0 
1 1:0 2:0 
1 1:0 2:0 
1 1:0 2:0 
1 1:0 2:0 
1 1:0 2:0 
1 1:0 2:0 
1 1:0 2:0 
1 1:0 2:0 
1 1:0 2:0 
1 1:0 2:0 
1 1:0 2:0 
1 1:0 2:0 
1 1:0 2:0 
1 1:0 2:0 
1 1:0 2:0 
1 1:0 2:0 
1 1:0 2:0 
1 1:0 2:0 
1 1:0 2:0 
1 1:0 2:0 
1 1:0 2:0 
1 1:0 2:0 
1 1:0 2:0 
1 1:0 2:0 
1 1:0 2:0 
1 1:0 2:0 
1 1:0 2:0 
1 1:0 2:0 
1 1:0 2:0 
1 1:0 2:0 
1 1:0 2:0 
1 1:0 2:0 
1 1:0 2:0 
1 1:0 2:0 
1 1:0 2:0 
1 1:0 2:0 
1 1:0 2:0 
1 1:0 2:0 
1 1:0 2:0 
1 1:0 2:0 
1 1:0 2:0 
1 1:0 2:0 
1 1:0 2:0 
1 1:0 2:0 
1 1:0 2:0 
1 1:0 2:0 
1 1:0 2:0 
1 1:0 2:0 
1 1:0 2:0 
1 1:0 2:0 
1 1:0 2:0 
1 1:0 2:0 
1 1:0 2:0 
1 1:0 2:0 
1 1:0 2:0 
1 1:0 2:0 
1 1:0 2:0 
1 1:0 2:0 
1 1:0 2:0 
1 1:0 2:0 
1 1:0 2:0 
1 1:0 2:0 
1 1:0 2:0 
1 1:0 2:0 
1 1:0 2:0 
1 1:0 2:0 
1 1:0 2:0 
1 1:0 2:0 
1 1:0 2:0 
1 1:0 2:0 
1 1:0 2:0 
1 1:0 2:0 
1 1:0 2:0 
1 1:0 2:0 
1 1:0 2:0 
1 1:0 2:0 
1 1:0 2:0 
1 1:0 2:0 
1 1:0 2:0 
1 1:0 2:0 
1 1:0 2:0 
1 1:0 2:0 
1 1:0 2:0 
1 1:0 2:0 
1 1:0 2:0 
1 1:0 2:0 
1 1:0 2:0 
1 1:0 2:0 
1 1:0 2:0 
1 1:0 2:0 
1 1:0 2:0 
1 1:0 2:0 
1 1:0 2:0 
1 1:0 2:0 
1 1:0 2:0 
1 1:0 2:0 
1 1:0 2:0 
1 1:0 2:0 
1 1:0 2:0 
1 1:0 2:0 
1 1:0 2:0 
1 1:0 2:0 
1 1:0 2:0 
1 1:0 2:0 
1 1:0 2:0 
1 1:0 2:0 
1 1:0 2:0 
1 1:0 2:0 
1 1:0 2:0 
1 1:0 2:0 
1 1:0 2:0 
1 1:0 2:0 
1 1:0 2:0 
1 1:0 2:0 
1 1:0 2:0 
1 1:0 2:0 
1 1:0 2:0 
1 1:0 2:0 
1 1:0 2:0 
1 1:0 2:0 
1 1:0 2:0 
1 1:0 2:0 
1 1:0 2:0 
1 1:0 2:0 
1 1:0 2:0 
1 1:0 2:0 
1 1:0 2:0 
1 1:0 2:0 
1 1:0 2:0 
1 1:0 2:0 
1 1:0 2:0 
1 1:0 2:0 
1 1:0 2:0 
1 1:0 2:0 
1 1:0 2:0 
1 1:0 2:0 
1 1:0 2:0 
1 1:0 2:0 
1 1:0 2:0 
1 1:0 2:0 
1 1:0 2:0 
1 1:0 2:0 
1 1:0 2:0 
1 1:0 2:0 
1 1:0 2:0 
1 1:0 2:0 
1 1:0 2:0 
1 1:0 2:0 
1 1:0 2:0 
1 1:0 2:0 
1 1:0 2:0 
1 1:0 2:0 
1 1:0 2:0 
1 1:0 2:0 
1 1:0 2:0 
1 1:0 2:0 
1 1:0 2:0 
1 1:0 2:0 
1 1:0 2:0 
1 1:0 2:0 
1 1:0 2:0 
1 1:0 2:0 
1 1:0 2:0 
1 1:0 2:0 
1 1:0 2:0 
1 1:0 2:0 
1 1:0 2:0 
1 1:0 2:0 
1 1:0 2:0 
1 1:0 2:0 
1 1:0 2:0 
1 1:0 2:0 
1 1:0 2:0 
1 1:0 2:0 
1 1:0 2:0 
1 1:0 2:0 
1 1:0 2:0 
1 1:0 2:0 
1 1:0 2:0 
1 1:0 2:0 
1 1:0 2:0 
1 1:0 2:0 
1 1:0 2:0 
1 1:0 2:0 
1 1:0 2:0 
1 1:0 2:0 
1 1:0 2:0 
1 1:0 2:0 
1 1:0 2:0 
1 1:0 2:0 
1 1:0 2:0 
1 1:0 2:0 
1 1:0 2:0 
1 1:0 2:0 
1 1:0 2:0 
1 1:0 2:0 
1 1:0 2:0 
1 1:0 2:0 
1 1:0 2:0 
1 1:0 2:0 
1 1:0 2:0 
1 1:0 2:0 
1 1:0 2:0 
1 1:0 2:0 
1 1:0 2:0 
1 1:0 2:0 
1 1:0 2:0 
1 1:0 2:0 
1 1:0 2:0 
1 1:0 2:0 
1 1:0 2:0 
1 1:0 2:0 
1 1:0 2:0 
1 1:0 2:0 
1 1:0 2:0 
1 1:0 2:0 
1 1:0 2:0 
1 1:0 2:0 
1 1:0 2:0 
1 1:0 2:0 
1 1:0 2:0 
1 1:0 2:0 
1 1:0 2:0 
1 1:0 2:0 
1 1:0 2:0 
1 1:0 2:0 
1 1:0 2:0 
1 1:0 2:0 
1 1:0 2:0 
1 1:0 2:0 
1 1:0 2:0 
1 1:0 2:0 
1 1:0 2:0 
1 1:0 2:0 
1 1:0 2:0 
1 1:0 2:0 
1 1:0 2:0 
1 1:0 2:0 
1 1:0 2:0 
1 1:0 2:0 
1 1:0 2:0 
1 1:0 2:0 
1 1:0 2:0 
1 1:0 2:0 
1 1:0 2:0 
1 1:0 2:0 
1 1:0 2:0 
1 1:0 2:0 
1 1:0 2:0 
1 1:0 2:0 
1 1:0 2:0 
1 1:0 2:0 
1 1:0 2:0 
1 1:0 2:0 
1 1:0 2:0 
1 1:0 2:0 
1 1:0 2:0 
1 1:0 2:0 
1 1:0 2:0 
1 1:0 2:0 
1 1:0 2:0 
1 1:0 2:0 
1 1:0 2:0 
1 1:0 2:0 
1 1:0 2:0 
1 1:0 2:0 
1 1:0 2:0 
1 1:0 2:0 
1 1:0 2:0 
1 1:0 2:0 
1 1:0 2:0 
1 1:0 2:0 
1 1:0 2:0 
1 1:0 2:0 
1 1:0 2:0 
1 1:0 2:0 
1 1:0 2:0 
1 1:0 2:0 
1 1:0 2:0 
1 1:0 2:0 
1 1:0 2:0 
1 1:0 2:0 
1 1:0 2:0 
1 1:0 2:0 
1 1:0 2:0 
1 1:0 2:0 
1 1:0 2:0 
1 1:0 2:0 
1 1:0 2:0 
1 1:0 2:0 
1 1:0 2:0 
1 1:0 2:0 
1 1:0 2:0 
1 1:0 2:0 
1 1:0 2:0 
1 1:0 2:0 
1 1:0 2:0 
1 1:0 2:0 
1 1:0 2:0 
1 1:0 2:0 
1 1:0 2:0 
1 1:0 2:0 
1 1:0 2:0 
1 1:0 2:0 
1 1:0 2:0 
1 1:0 2:0 
1 1:0 2:0 
1 1:0 2:0 
1 1:0 2:0 
1 1:0 2:0 
1 1:0 2:0 
1 1:0 2:0 
1 1:0 2:0 
1 1:0 2:0 
1 1:0 2:0 
1 1:0 2:0 
1 1:0 2:0 
1 1:0 2:0 
1 1:0 2:0 
1 1:0 2:0 
1 1:0 2:0 
1 1:0 2:0 
1 1:0 2:0 
1 1:0 2:0 
1 1:0 2:0 
1 1:0 2:0 
1 1:0 2:0 
1 1:0 2:0 
1 1:0 2:0 
1 1:0 2:0 
1 1:0 2:0 
1 1:0 2:0 
1 1:0 2:0 
1 1:0 2:0 
1 1:0 2:0 
1 1:0 2:0 
1 1:0 2:0 
1 1:0 2:0 
1 1:0 2:0 
1 1:0 2:0 
1 1:0 2:0 
1 1:0 2:0 
1 1:0 2:0 
1 1:0 2:0 
1 1:0 2:0 
1 1:0 2:0 
1 1:0.45253316 2:0 
1 1:0.51451844 2:0 
1 1:1.8493807 2:4.2610784 
1 1:1.9552461 2:4.4045048 
1 1:2.0180242 2:4.3245974 
1 1:2.0785737 2:4.182394 
1 1:5.7432623 2:4.7538667 
1 1:5.1698489 2:5.2339935 
1 1:5.037859 2:5.4479313 
1 1:5.1399484 2:5.4873672 
1 1:5.4122486 2:5.7080822 
1 1:5.5642896 2:5.7945604 
1 1:5.4413729 2:6.0362916 
1 1:4.7202053 2:6.2898693 
1 1:4.3522854 2:5.5180206 
1 1:4.3896103 2:5.1118031 
1 1:4.5069194 2:5.5248752 
1 1:4.2300034 2:6.3115997 
1 1:3.9410722 2:6.5306072 
1 1:3.9115939 2:6.5539136 
1 1:3.9108922 2:6.5365882 
1 1:3.8511429 2:6.5128007 
1 1:3.7900977 2:6.508801 
1 1:3.7900977 2:6.5181527 
1 1:3.8615093 2:6.4948049 
1 1:4.0090284 2:6.376534 
1 1:4.2875934 2:6.4184952 
1 1:4.5637159 2:6.4863672 
1 1:4.6847544 2:6.5351787 
1 1:4.5019341 2:6.5528703 
1 1:4.6465821 2:6.5935144 
1 1:5.3521047 2:6.5135026 
1 1:6.3189335 2:6.4789357 
1 1:7.2050095 2:6.4357181 
1 1:8.3635845 2:6.8236446 
1 1:9.2244425 2:7.5712032 
1 1:9.4743118 2:7.7909541 
1 1:9.5400476 2:7.7395492 
1 1:9.6114817 2:7.5310307 
1 1:9.7091637 2:7.6406589 
1 1:8.893013 2:7.7953482 
1 1:7.8290186 2:8.0712023 
1 1:6.7528119 2:8.0636139 
1 1:5.7312412 2:7.7460608 
1 1:6.4855013 2:7.4339132 
1 1:8.2493143 2:7.365109 
1 1:10.008396 2:7.4017549 
1 1:11.145665 2:7.5910201 
1 1:11.326216 2:7.4887147 
1 1:10.200248 2:7.5271201 
1 1:9.579689 2:7.7007666 
1 1:10.768134 2:7.8838439 
1 1:11.688991 2:7.7014236 
1 1:11.401514 2:7.0771813 
1 1:11.775893 2:6.7664714 
1 1:11.863293 2:6.8936152 
1 1:11.946558 2:6.8883424 
1 1:11.526949 2:6.6581445 
1 1:10.492911 2:6.1615562 
1 1:10.237556 2:5.2676001 
1 1:10.186004 2:4.5800633 
1 1:10.091336 2:4.6161962 
1 1:10.122341 2:4.9387593 
1 1:10.28636 2:4.9734101 
1 1:7.5146708 2:0 
1 1:0 2:0 
1 1:0 2:0 
1 1:0 2:0 
1 1:18.875975 2:0 
1 1:18.747715 2:0 
1 1:0 2:0 
1 1:0 2:0 
1 1:0 2:0 
1 1:0 2:0 
1 1:0 2:0 
1 1:0 2:5.8190765 
1 1:0 2:5.595437 
1 1:0 2:0 
1 1:0 2:0 
1 1:0 2:0 
1 1:0 2:0 
1 1:0 2:0 
1 1:0 2:0 
1 1:0 2:0 
1 1:0 2:0 
1 1:0 2:0 
1 1:5.5978961 2:6.4127951 
1 1:5.6908188 2:6.5603023 
1 1:6.2848334 2:8.7944374 
1 1:6.5705628 2:8.6408253 
1 1:6.6249437 2:7.5683136 
1 1:6.5780144 2:5.933856 
1 1:6.0949383 2:5.2784724 
1 1:5.2314367 2:4.7919707 
1 1:4.6520152 2:4.9332848 
1 1:4.4390292 2:5.143568 
1 1:4.0265479 2:5.1633058 
1 1:3.6744547 2:5.2166538 
1 1:3.479424 2:5.3440933 
1 1:3.5166144 2:5.2185678 
1 1:3.7266433 2:4.9360733 
1 1:5.3844166 2:4.7475004 
1 1:5.4201236 2:4.7273326 
1 1:8.5436049 2:0 
1 1:16.770952 2:0 
1 1:17.308592 2:0 
1 1:17.197081 2:0 
1 1:17.197081 2:0 
1 1:16.591579 2:0 
1 1:4.555757 2:0 
1 1:0 2:0 
1 1:0 2:0 
1 1:0 2:0 
1 1:0 2:0 
1 1:0 2:0 
1 1:0 2:0 
1 1:0 2:0 
1 1:0 2:0 
1 1:0 2:0 
1 1:0 2:0 
1 1:0 2:0 
1 1:0 2:0 
1 1:0 2:0 
1 1:0 2:0 
1 1:0 2:0 
1 1:0 2:0 
1 1:0 2:0 
1 1:0 2:0 
1 1:0 2:0 
1 1:0 2:0 
1 1:0 2:0 
1 1:0 2:0 
1 1:0 2:0 
1 1:0 2:0 
1 1:0 2:0 
1 1:0 2:0 
1 1:0 2:0 
1 1:0 2:0 
1 1:0 2:0 
1 1:0 2:0 
1 1:0 2:0 
1 1:0 2:0 
1 1:0 2:0 
1 1:0 2:0 
1 1:0 2:0 
1 1:0 2:0 
1 1:0 2:0 
1 1:0 2:0 
1 1:0 2:0 
1 1:0 2:0 
1 1:0 2:0 
1 1:0 2:0 
1 1:0 2:0 
1 1:0 2:0 
1 1:0 2:0 
1 1:0 2:0 
1 1:0 2:0 
1 1:0 2:0 
1 1:0 2:0 
1 1:0 2:0 
1 1:0 2:0 
1 1:0 2:0 
1 1:0 2:0 
1 1:0 2:0 
1 1:0 2:0 
1 1:0 2:0 
1 1:0 2:0 
1 1:0 2:0 
1 1:0 2:0 
1 1:0 2:0 
1 1:0 2:0 
1 1:0 2:0 
1 1:0 2:0 
1 1:0 2:0 
1 1:0 2:0 
1 1:0 2:0 
1 1:0 2:0 
1 1:0 2:0 
1 1:0 2:0 
1 1:0 2:0 
1 1:0 2:0 
1 1:0 2:0 
1 1:0 2:0 
1 1:0 2:0 
1 1:0 2:0 
1 1:0 2:0 
1 1:0 2:0 
1 1:0 2:0 
1 1:0 2:0 
1 1:0 2:0 
1 1:0 2:0 
1 1:0 2:0 
1 1:0 2:0 
1 1:0 2:0 
1 1:0 2:0 
1 1:0 2:0 
1 1:0 2:0 
1 1:0 2:0 
1 1:0 2:0 
1 1:0 2:0 
1 1:0 2:0 
1 1:0 2:0 
1 1:0 2:0 
1 1:0 2:0 
1 1:0 2:0 
1 1:0 2:0 
1 1:0 2:0 
1 1:0 2:0 
1 1:0 2:0 
1 1:0 2:0 
1 1:0 2:0 
1 1:0 2:0 
1 1:0 2:0 
1 1:0 2:0 
1 1:0 2:0 
1 1:0 2:0 
1 1:0 2:0 
1 1:0 2:0 
1 1:0 2:0 
1 1:0 2:0 
1 1:0 2:0 
1 1:0 2:0 
1 1:0 2:0 
1 1:0 2:0 
1 1:0 2:0 
1 1:0 2:0 
1 1:0 2:0 
1 1:0 2:0 
1 1:0 2:0 
1 1:0 2:0 
1 1:0 2:0 
1 1:0 2:0 
1 1:0 2:0 
1 1:0 2:0 
1 1:0 2:0 
1 1:0 2:0 
1 1:0 2:0 
1 1:0 2:0 
1 1:0 2:0 
1 1:0 2:0 
1 1:0 2:0 
1 1:0 2:0 
1 1:0 2:0 
1 1:0 2:0 
1 1:0 2:0 
1 1:0 2:0 
1 1:0 2:0 
1 1:0 2:0 
1 1:0 2:0 
1 1:0 2:0 
1 1:0 2:0 
1 1:0 2:0 
1 1:0 2:0 
1 1:0 2:0 
1 1:0 2:0 
1 1:0 2:0 
1 1:0 2:0 
1 1:0 2:0 
1 1:0 2:0 
1 1:0 2:0 
1 1:0 2:0 
1 1:0 2:0 
1 1:0 2:0 
1 1:0 2:0 
1 1:0 2:0 
1 1:0 2:0 
1 1:0 2:0 
1 1:0 2:0 
1 1:0 2:0 
1 1:0 2:0 
1 1:0 2:0 
1 1:0 2:0 
1 1:0 2:0 
1 1:0 2:0 
1 1:0 2:0 
1 1:0 2:0 
1 1:0 2:0 
1 1:0 2:0 
1 1:0 2:0 
1 1:0 2:0 
1 1:0 2:0 
1 1:0 2:0 
1 1:0 2:0 
1 1:0 2:0 
1 1:0 2:0 
1 1:0 2:0 
1 1:0 2:0 
1 1:0 2:0 
1 1:0 2:0 
1 1:0 2:0 
1 1:0 2:0 
1 1:0 2:0 
1 1:0 2:0 
1 1:0 2:0 
1 1:0 2:0 
1 1:0 2:0 
1 1:0 2:0 
1 1:0 2:0 
1 1:0 2:0 
1 1:0 2:0 
1 1:0 2:0 
1 1:0 2:0 
1 1:0 2:0 
1 1:0 2:0 
1 1:2.0635102 2:0 
1 1:1.9143398 2:0 
1 1:0 2:0 
1 1:0 2:0 
1 1:0 2:0 
1 1:0 2:0 
1 1:0 2:0 
1 1:0 2:0 
1 1:0 2:0 
1 1:0 2:0 
1 1:0 2:0 
1 1:0 2:0 
1 1:0 2:0 
1 1:0 2:0 
1 1:0 2:0 
1 1:0 2:0 
1 1:0 2:0 
1 1:0 2:0 
1 1:0 2:0 
1 1:0 2:0 
1 1:0 2:0 
1 1:0 2:0 
1 1:0 2:0 
1 1:0 2:0 
1 1:0 2:0 
1 1:0 2:0 
1 1:0 2:0 
1 1:0 2:0 
1 1:0 2:0 
1 1:0 2:0 
1 1:0 2:0 
1 1:0 2:0 
1 1:0 2:0 
1 1:0 2:0 
1 1:0 2:0 
1 1:0 2:0 
1 1:0 2:0 
1 1:0 2:0 
1 1:0 2:0 
1 1:0 2:0 
1 1:0 2:0 
1 1:0 2:0 
1 1:0 2:0 
1 1:0 2:0 
1 1:0 2:0 
1 1:0 2:0 
1 1:0 2:0 
1 1:0 2:0 
1 1:0 2:0 
1 1:0 2:0 
1 1:0 2:0 
1 1:0 2:0 
1 1:0 2:0 
1 1:0 2:0 
1 1:0 2:0 
1 1:0 2:0 
1 1:0 2:0 
1 1:0 2:0 
1 1:0 2:0 
1 1:0 2:0 
1 1:0 2:0 
1 1:0 2:0 
1 1:0 2:0 
1 1:0 2:0 
1 1:0 2:0 
1 1:0 2:0 
1 1:0 2:0 
1 1:0 2:0 
1 1:0 2:0 
1 1:0 2:0 
1 1:0 2:0 
1 1:0 2:0 
1 1:0 2:0 
1 1:0 2:0 
1 1:0 2:0 
1 1:0 2:0 
1 1:11.227537 2:0.19371116 
1 1:15.83459 2:0.18676777 
1 1:14.136449 2:0.13811371 
1 1:12.985024 2:0.12646274 
1 1:0 2:0 
1 1:0 2:0 
1 1:0 2:0 
1 1:0 2:0 
1 1:0 2:0 
1 1:0 2:0 
1 1:0 2:0 
1 1:0 2:0 
1 1:0 2:0 
1 1:0 2:0 
1 1:0 2:0 
1 1:0 2:0 
1 1:0 2:0 
1 1:0 2:0 
1 1:0 2:0 
1 1:0 2:0 
1 1:0 2:0 
1 1:0 2:0 
1 1:0 2:0 
1 1:0 2:0 
1 1:0 2:0 
1 1:0 2:0 
1 1:0 2:0 
1 1:0 2:0 
1 1:0 2:0 
1 1:0 2:0 
1 1:0 2:0 
1 1:0 2:0 
1 1:0 2:0 
1 1:0 2:0 
1 1:0 2:0 
1 1:0 2:0 
1 1:0 2:0 
1 1:0 2:0 
1 1:0 2:0 
1 1:0 2:0 
1 1:0 2:0 
1 1:0 2:0 
1 1:0 2:0 
1 1:0 2:0 
1 1:0 2:0 
1 1:0 2:0 
1 1:0 2:0 
1 1:0 2:0 
1 1:0 2:0 
1 1:0 2:0 
1 1:0 2:0 
1 1:0 2:0 
1 1:0 2:0 
1 1:0 2:0 
1 1:0 2:0 
1 1:0 2:0 
1 1:0 2:0 
1 1:0 2:0 
1 1:0 2:0 
1 1:0 2:0 
1 1:0 2:0 
1 1:0 2:0 
1 1:0 2:0 
1 1:0 2:0 
1 1:0 2:0 
1 1:0 2:0 
1 1:0 2:0 
1 1:0 2:0 
1 1:0 2:0 
1 1:0 2:0 
1 1:0 2:0 
1 1:0 2:0 
1 1:0 2:0 
1 1:0 2:0 
1 1:0 2:0 
1 1:0 2:0 
1 1:0 2:0 
1 1:0 2:0 
1 1:0 2:0 
1 1:0 2:0 
1 1:0 2:0 
1 1:0 2:0 
1 1:0 2:0 
1 1:0 2:0 
1 1:0 2:0 
1 1:0 2:0 
1 1:0 2:0 
1 1:0 2:0 
1 1:0 2:0 
1 1:0 2:0 
1 1:0 2:0 
1 1:0 2:0 
1 1:0 2:0 
1 1:0 2:0 
1 1:0 2:0 
1 1:0 2:0 
1 1:0 2:0 
1 1:0 2:0 
1 1:0 2:0 
1 1:0 2:0 
1 1:0 2:0 
1 1:0 2:0 
1 1:0 2:0 
1 1:0 2:0 
1 1:0 2:0 
1 1:0 2:0 
1 1:0 2:0 
1 1:0 2:0 
1 1:0 2:0 
1 1:0 2:0 
1 1:0 2:0 
1 1:0 2:0 
1 1:0 2:0 
1 1:0 2:0 
1 1:0 2:0 
1 1:0 2:0 
1 1:0 2:0 
1 1:0 2:0 
1 1:0 2:0 
1 1:0 2:0 
1 1:0 2:0 
1 1:0 2:0 
1 1:0 2:0 
1 1:0 2:0 
1 1:0 2:0 
1 1:0 2:0 
1 1:0 2:0 
1 1:0 2:0 
1 1:0 2:0 
1 1:0 2:0 
1 1:0 2:0 
1 1:0 2:0 
1 1:0 2:0 
1 1:0 2:0 
1 1:0 2:0 
1 1:0 2:0 
1 1:0 2:0 
1 1:0 2:0 
1 1:0 2:0 
1 1:0 2:0 
1 1:0 2:0 
1 1:0 2:0 
1 1:0 2:0 
1 1:0 2:0 
1 1:0 2:0 
1 1:0 2:0 
1 1:0 2:0 
1 1:0 2:0 
1 1:0 2:0 
1 1:0 2:0 
1 1:0 2:0 
1 1:0 2:0 
1 1:0 2:0 
1 1:0 2:0 
1 1:0 2:0 
1 1:0 2:0 
1 1:0 2:0 
1 1:0 2:0 
1 1:0 2:0 
1 1:0 2:0 
1 1:0 2:0 
1 1:0 2:0 
1 1:0 2:0 
1 1:0 2:0 
1 1:1.1215545 2:0 
1 1:22.071102 2:0 
1 1:28.671814 2:0 
1 1:0 2:0 
1 1:0 2:0 
1 1:0 2:0 
1 1:0 2:0 
1 1:0 2:0 
1 1:0 2:0 
1 1:0 2:0 
1 1:0 2:0 
1 1:0 2:0 
1 1:0 2:0 
1 1:0 2:0 
1 1:0 2:0 
1 1:0 2:0 
1 1:0 2:0 
1 1:0 2:0 
1 1:0 2:0 
1 1:0 2:0 
1 1:0 2:0 
1 1:0 2:0 
1 1:0 2:0 
1 1:0 2:0 
1 1:0 2:0 
1 1:0 2:0 
1 1:0 2:0 
1 1:0 2:0 
1 1:0 2:0 
1 1:0 2:0 
1 1:0 2:0 
1 1:0 2:0 
1 1:0 2:0 
1 1:0 2:0 
1 1:0 2:0 
1 1:0 2:0 
1 1:0 2:0 
1 1:0 2:0 
1 1:0 2:0 
1 1:0 2:0 
1 1:0 2:0 
1 1:0 2:0 
1 1:0 2:0 
1 1:0 2:0 
1 1:0 2:0 
1 1:0 2:0 
1 1:0 2:0 
1 1:0 2:0 
1 1:0 2:0 
1 1:0 2:0 
1 1:0 2:0 
1 1:0 2:0 
1 1:0 2:0 
1 1:0 2:0 
1 1:0 2:0 
1 1:0 2:0 
1 1:0 2:0 
1 1:0 2:0 
1 1:0 2:0 
1 1:0 2:0 
1 1:0 2:0 
1 1:0 2:0 
1 1:0 2:0 
1 1:0 2:0 
1 1:0 2:0 
1 1:0 2:0 
1 1:0 2:0 
1 1:0 2:0 
1 1:0 2:0 
1 1:0 2:0 
1 1:0 2:0 
1 1:0 2:0 
1 1:0 2:0 
1 1:0 2:0 
1 1:0 2:0 
1 1:0 2:0 
1 1:0 2:0 
1 1:0 2:0 
1 1:0 2:0 
1 1:0 2:0 
1 1:0 2:0 
1 1:0 2:0 
1 1:0 2:0 
1 1:0 2:0 
1 1:0 2:0 
1 1:0 2:0 
1 1:0 2:0 
1 1:0 2:0 
1 1:0 2:0 
1 1:0 2:0 
1 1:0 2:0 
1 1:0 2:0 
1 1:0 2:0 
1 1:0 2:0 
1 1:0 2:0 
1 1:0 2:0 
1 1:0 2:0 
1 1:0 2:0 
1 1:0 2:0 
1 1:0 2:0 
1 1:0 2:0 
1 1:0 2:0 
1 1:0 2:0 
1 1:0 2:0 
1 1:0 2:0 
1 1:0 2:0 
1 1:0 2:0 
1 1:0 2:0 
1 1:0 2:0 
1 1:0 2:0 
1 1:0 2:0 
1 1:0 2:0 
1 1:0 2:0 
1 1:0 2:0 
1 1:0 2:0 
1 1:0 2:0 
1 1:0 2:0 
1 1:0 2:0 
1 1:0 2:0 
1 1:0 2:0 
1 1:0 2:0 
1 1:0 2:0 
1 1:0 2:0 
1 1:0 2:0 
1 1:0 2:0 
1 1:0 2:0 
1 1:0 2:0 
1 1:0 2:0 
1 1:0 2:0 
1 1:0 2:0 
1 1:0 2:0 
1 1:0 2:0 
1 1:0 2:0 
1 1:0 2:0 
1 1:0 2:0 
1 1:0 2:0 
1 1:0 2:0 
1 1:0 2:0 
1 1:0 2:0 
1 1:0 2:0 
1 1:0 2:0 
1 1:0 2:0 
1 1:0 2:0 
1 1:0 2:0 
1 1:0 2:0 
1 1:0 2:0 
1 1:0 2:0 
1 1:0 2:0 
1 1:0 2:0 
1 1:0 2:0 
1 1:0 2:0 
1 1:0 2:0 
1 1:0 2:0 
1 1:0 2:0 
1 1:0 2:0 
1 1:0 2:0 
1 1:0 2:0 
1 1:0 2:0 
1 1:0 2:0 
1 1:0 2:0 
1 1:0 2:0 
1 1:0 2:0 
1 1:0 2:0 
1 1:0 2:0 
1 1:0 2:0 
1 1:0 2:0 
1 1:0 2:0 
1 1:0 2:0 
1 1:0 2:0 
1 1:0 2:0 
1 1:0 2:0 
1 1:0 2:0 
1 1:0 2:0 
1 1:0 2:0 
1 1:0 2:0 
1 1:0 2:0 
1 1:0 2:0 
1 1:0 2:0 
1 1:0 2:0 
1 1:0 2:0 
1 1:0 2:0 
1 1:0 2:0 
1 1:0 2:0 
1 1:0 2:0 
1 1:0 2:0 
1 1:0 2:0 
1 1:0 2:0 
1 1:0 2:0 
1 1:0 2:0 
1 1:0 2:0 
1 1:0 2:0 
1 1:0 2:0 
1 1:0 2:0 
1 1:0 2:0 
1 1:0 2:0 
1 1:0 2:0 
1 1:0 2:0 
1 1:0 2:0 
1 1:0 2:0 
1 1:0 2:0 
1 1:0 2:0 
1 1:0 2:0 
1 1:0 2:0 
1 1:0 2:0 
1 1:0 2:0 
1 1:0 2:0 
1 1:0 2:0 
1 1:0 2:0 
1 1:0 2:0 
1 1:0 2:0 
1 1:0 2:0 
1 1:0 2:0 
1 1:0 2:0 
1 1:0 2:0 
1 1:0 2:0 
1 1:0 2:0 
1 1:0 2:0 
1 1:0 2:0 
1 1:0 2:0 
1 1:0 2:0 
1 1:0 2:0 
1 1:0 2:0 
1 1:0 2:0 
1 1:0 2:0 
1 1:0 2:0 
1 1:0 2:0 
1 1:0 2:0 
1 1:0 2:0 
1 1:0 2:0 
1 1:0 2:0 
1 1:0 2:0 
1 1:0 2:0 
1 1:0 2:0 
1 1:0 2:0 
1 1:0 2:0 
1 1:0 2:0 
1 1:0 2:0 
1 1:0 2:0 
1 1:0 2:0 
1 1:0 2:0 
1 1:0 2:0 
1 1:0 2:0 
1 1:0 2:0 
1 1:0 2:0 
1 1:0 2:0 
1 1:0 2:0 
1 1:0 2:0 
1 1:0 2:0 
1 1:0 2:0 
1 1:0 2:0 
1 1:0 2:0 
1 1:0 2:0 
1 1:0 2:0 
1 1:0 2:0 
1 1:0 2:0 
1 1:0 2:0 
1 1:0 2:0 
1 1:0 2:0 
1 1:0 2:0 
1 1:0 2:0 
1 1:0 2:0 
1 1:0 2:0 
1 1:0 2:0 
1 1:0 2:0 
1 1:0 2:0 
1 1:0 2:0 
1 1:0 2:0 
1 1:0 2:0 
1 1:0 2:3.6719687 
1 1:0 2:3.2506304 
1 1:0 2:2.9309444 
1 1:0 2:2.5720954 
1 1:0 2:2.9078648 
1 1:0 2:3.8415935 
1 1:0 2:4.5773244 
1 1:0 2:4.7052469 
1 1:0 2:4.3692064 
1 1:0 2:3.8362617 
1 1:0 2:3.5792255 
1 1:0 2:3.4794321 
1 1:0 2:3.6651783 
1 1:0 2:3.8768611 
1 1:0 2:4.2478514 
1 1:0 2:4.5849261 
1 1:0 2:4.6475644 
1 1:0 2:4.7324381 
1 1:0 2:4.698307 
1 1:0 2:4.5849495 
1 1:0 2:4.4669776 
1 1:0 2:4.6156688 
1 1:0 2:5.477942 
1 1:0 2:6.6634741 
1 1:0 2:6.7403021 
1 1:0 2:6.7567477 
1 1:0 2:7.0160317 
1 1:0 2:7.0500922 
1 1:0 2:6.9587975 
1 1:0 2:7.034956 
1 1:0 2:7.5393023 
1 1:0 2:7.9730234 
1 1:0 2:8.3424244 
1 1:0 2:8.482317 
1 1:0 2:8.6192265 
1 1:0 2:8.7184258 
1 1:0 2:8.75877 
1 1:0 2:8.7674103 
1 1:0 2:8.7550955 
1 1:0 2:8.7472191 
1 1:0 2:8.7089949 
1 1:0 2:8.67486 
1 1:0 2:8.7809353 
1 1:0 2:8.8645515 
1 1:0 2:8.9651136 
1 1:0 2:9.0035305 
1 1:0 2:8.9536209 
1 1:0 2:8.9526901 
1 1:0 2:9.00951 
1 1:0 2:9.0155659 
1 1:0 2:9.0071001 
1 1:0 2:9.0235329 
1 1:0 2:9.0154085 
1 1:0 2:9.02777 
1 1:0 2:9.026679 
1 1:0 2:9.0219421 
1 1:0 2:9.0168447 
1 1:0 2:8.9969606 
1 1:0 2:8.9302425 
1 1:0 2:8.8906698 
1 1:0 2:8.7807055 
1 1:0 2:8.7178411 
1 1:0 2:8.5872622 
1 1:0 2:8.5964184 
1 1:0 2:8.5897388 
1 1:0 2:8.6537952 
1 1:0 2:8.6981821 
1 1:0 2:8.6991301 
1 1:0 2:8.6882296 
1 1:0 2:8.5869026 
1 1:0 2:8.4546976 
1 1:0 2:8.2994833 
1 1:0 2:8.2269516 
1 1:0 2:8.3830004 
1 1:0 2:8.3956451 
1 1:0 2:8.212719 
1 1:0 2:7.9942822 
1 1:0 2:7.8424907 
1 1:0 2:7.8657765 
1 1:0 2:7.874033 
1 1:0 2:7.9950223 
1 1:0 2:8.2149839 
1 1:0 2:8.313838 
1 1:0 2:8.3346767 
1 1:0 2:8.2933502 
1 1:0 2:8.2464046 
1 1:0 2:8.0946541 
1 1:0 2:8.0779142 
1 1:0 2:8.0178127 
1 1:0 2:8.1703787 
1 1:0 2:8.2213774 
1 1:0 2:8.4361134 
1 1:0 2:8.4761744 
1 1:0 2:8.4388924 
1 1:0 2:8.3917332 
1 1:0 2:8.3911085 
1 1:0 2:8.3841524 
1 1:0 2:8.204236 
1 1:0 2:7.8494158 
1 1:0 2:7.7002821 
1 1:0 2:7.8912492 
1 1:0 2:8.216239 
1 1:0 2:8.3946838 
1 1:0 2:8.565053 
1 1:0 2:8.7918768 
1 1:0 2:8.802187 
1 1:0 2:8.8139896 
1 1:0 2:8.7015924 
1 1:0 2:8.4094143 
1 1:0 2:8.3642149 
1 1:0 2:8.862422 
1 1:0 2:9.2641554 
1 1:0 2:9.3351603 
1 1:0 2:9.32897 
1 1:0 2:9.3215284 
1 1:0 2:9.3237743 
1 1:0 2:9.3595915 
1 1:0 2:9.3641348 
1 1:0 2:9.3539543 
1 1:0 2:9.3453751 
1 1:0 2:9.3596125 
1 1:0 2:9.4221363 
1 1:0 2:9.4363747 
1 1:0 2:9.4294844 
1 1:0 2:9.418148 
1 1:0 2:9.4088573 
1 1:0 2:9.4053802 
1 1:0 2:9.3787985 
1 1:0 2:9.4210882 
1 1:0 2:9.4335146 
1 1:0 2:9.4330387 
1 1:0 2:9.4212294 
1 1:0 2:9.3939943 
1 1:0 2:9.4430389 
1 1:0 2:9.4888811 
1 1:0 2:9.5712156 
1 1:0 2:9.7703371 
1 1:0 2:9.7801304 
1 1:0 2:9.7545338 
1 1:0 2:9.6951876 
1 1:0 2:9.6337805 
1 1:0 2:9.5579042 
1 1:0 2:9.5991697 
1 1:0 2:9.7049398 
1 1:0 2:9.8113737 
1 1:0 2:9.9039183 
1 1:0 2:9.9679966 
1 1:0 2:9.9747219 
1 1:0 2:9.9598932 
1 1:0 2:9.9551678 
1 1:0 2:9.9354906 
1 1:0 2:9.8417101 
1 1:0 2:9.6294985 
1 1:0 2:9.4063559 
1 1:0 2:9.4347954 
1 1:0 2:9.7296219 
1 1:0 2:9.81108 
1 1:0 2:9.692831 
1 1:0 2:9.595747 
1 1:0 2:9.7153139 
1 1:0 2:9.8891935 
1 1:0 2:9.9487076 
1 1:0 2:10.040465 
1 1:0 2:10.073195 
1 1:0 2:10.041732 
1 1:0 2:9.9086113 
1 1:0 2:9.5784454 
1 1:0 2:9.4270468 
1 1:0 2:9.491787 
1 1:0 2:9.5275202 
1 1:0 2:9.5868282 
1 1:0 2:9.6819458 
1 1:0 2:9.6496849 
1 1:0 2:9.4310474 
1 1:0 2:9.125967 
1 1:0 2:9.1090345 
1 1:0 2:9.3668995 
1 1:0 2:9.3707447 
1 1:0 2:9.3587008 
1 1:0 2:9.2998257 
1 1:0 2:9.3238707 
1 1:0 2:9.3786945 
1 1:0 2:9.3357925 
1 1:0 2:9.3282433 
1 1:0 2:9.3368702 
1 1:0 2:9.3152876 
1 1:0 2:9.1284943 
1 1:0 2:8.5911503 
1 1:0 2:8.4234543 
1 1:0 2:8.5414267 
1 1:0 2:8.4168806 
1 1:0 2:8.5034485 
1 1:0 2:8.4434881 
1 1:0 2:8.3429804 
1 1:0 2:8.2887793 
1 1:0 2:8.3788652 
1 1:0 2:8.4114685 
1 1:0 2:8.4907036 
1 1:0 2:8.533391 
1 1:0 2:8.5576077 
1 1:0 2:8.5419722 
1 1:0 2:8.4943972 
1 1:0 2:8.1042004 
1 1:0 2:7.7138319 
1 1:0 2:7.6949453 
1 1:0 2:7.7326975 
1 1:0 2:7.8178616 
1 1:0 2:7.8500185 
1 1:0 2:7.8522677 
1 1:0 2:7.7558556 
1 1:0 2:7.565506 
1 1:0 2:7.4600377 
1 1:0 2:7.3932862 
1 1:0 2:7.1603432 
1 1:0 2:6.8999696 
1 1:0 2:6.6416798 
1 1:0 2:6.4907808 
1 1:0 2:6.6857991 
1 1:0 2:6.9643064 
1 1:0 2:6.9960737 
1 1:0 2:5.9950151 
1 1:0 2:4.7155576 
1 1:0 2:3.958415 
1 1:0 2:3.6550999 
1 1:0 2:3.6470096 
1 1:0 2:4.3274727 
1 1:0 2:4.7622156 
1 1:0 2:5.0502763 
1 1:0 2:5.45889 
1 1:0 2:5.5482497 
1 1:0 2:5.3191299 
1 1:0 2:5.0274954 
1 1:0 2:4.5529971 
1 1:0 2:4.534688 
1 1:0 2:5.0774045 
1 1:0 2:6.0869374 
1 1:0 2:7.2122798 
1 1:0 2:7.7826529 
1 1:0 2:8.0757627 
1 1:0 2:8.1860609 
1 1:0 2:8.5544071 
1 1:0 2:8.699131 
1 1:0 2:8.6346807 
1 1:0 2:8.5477333 
1 1:0 2:8.6338005 
1 1:0 2:8.8862324 
1 1:0 2:9.1818542 
1 1:0 2:8.1539392 
1 1:0 2:6.3068237 
1 1:0 2:5.9432092 
1 1:0 2:6.0916748 
1 1:0 2:6.353929 
1 1:0 2:6.5018353 
1 1:0 2:6.6040487 
1 1:0 2:6.7262654 
1 1:0 2:6.4101372 
1 1:0 2:5.5421166 
1 1:0 2:4.8819494 
1 1:0 2:4.3756089 
1 1:0 2:4.0137663 
1 1:0 2:4.7003789 
1 1:0 2:6.0800462 
1 1:0 2:0 
1 1:0 2:0 
1 1:0 2:0 
1 1:0 2:0 
1 1:0 2:0 
1 1:0 2:0 
1 1:0 2:0 
1 1:0 2:0 
1 1:0 2:0 
1 1:0 2:0 
1 1:0 2:0 
1 1:0 2:0 
1 1:0 2:0 
1 1:0 2:0 
1 1:0 2:0 
1 1:0 2:0 
1 1:0 2:0 
1 1:0 2:0 
1 1:0 2:0 
1 1:0 2:0 
1 1:0 2:0 
1 1:0 2:0 
1 1:0 2:0 
1 1:0 2:0 
1 1:0 2:0 
1 1:0 2:0 
1 1:0 2:0 
1 1:0 2:0 
1 1:0 2:0 
1 1:0 2:0 
1 1:0 2:0 
1 1:0 2:0 
1 1:0 2:0 
1 1:0 2:0 
1 1:0 2:0 
1 1:0 2:0 
1 1:0 2:0 
1 1:0 2:0 
1 1:0 2:0 
1 1:0 2:0 
1 1:0 2:0 
1 1:0 2:0 
1 1:0 2:0 
1 1:0 2:0 
1 1:0 2:0 
1 1:0 2:0 
1 1:0 2:0 
1 1:0 2:0 
1 1:0 2:0 
1 1:0 2:0 
1 1:0 2:0 
1 1:0 2:0 
1 1:0 2:0 
1 1:0 2:0 
1 1:0 2:0 
1 1:0 2:0 
1 1:0 2:0 
1 1:0 2:0 
1 1:0 2:0 
1 1:0 2:0 
1 1:0 2:0 
1 1:0 2:0 
1 1:0 2:0 
1 1:0 2:0 
1 1:0 2:0 
1 1:0 2:0 
1 1:0 2:0 
1 1:0 2:0 
1 1:0 2:0 
1 1:0 2:0 
1 1:0 2:0 
1 1:0 2:0 
1 1:0 2:0 
1 1:0 2:0 
1 1:0 2:0 
1 1:0 2:0 
1 1:0 2:0 
1 1:0 2:0 
1 1:0 2:0 
1 1:0 2:0 
1 1:0 2:0 
1 1:0 2:0 
1 1:0 2:0 
1 1:0 2:0 
1 1:0 2:0 
1 1:0 2:0 
1 1:0 2:0 
1 1:0 2:0 
1 1:0 2:0 
1 1:0 2:0 
1 1:0 2:0 
1 1:0 2:0 
1 1:0 2:0 
1 1:0 2:0 
1 1:0 2:0 
1 1:0 2:0 
1 1:0 2:0 
1 1:0 2:0 
1 1:0 2:0 
1 1:0 2:0 
1 1:0 2:0 
1 1:0 2:0 
1 1:0 2:0 
1 1:0 2:0 
1 1:0 2:0 
1 1:0 2:0 
1 1:0 2:0 
1 1:0 2:0 
1 1:0 2:0 
1 1:0 2:0 
1 1:0 2:0 
1 1:0 2:0 
1 1:0 2:0 
1 1:0 2:0 
1 1:0 2:0 
1 1:0 2:0 
1 1:0 2:0 
1 1:0 2:0 
1 1:0 2:0 
1 1:0 2:0 
1 1:0 2:0 
1 1:0 2:0 
1 1:0 2:0 
1 1:0 2:0 
1 1:0 2:0 
1 1:0 2:0 
1 1:0 2:0 
1 1:0 2:0 
1 1:0 2:0 
1 1:0 2:0 
1 1:0 2:0 
1 1:0 2:0 
1 1:0 2:0 
1 1:0 2:0 
1 1:0 2:0 
1 1:0 2:0 
1 1:0 2:0 
1 1:0 2:0 
1 1:0 2:0 
1 1:0 2:0 
1 1:0 2:0 
1 1:0 2:0 
1 1:0 2:0 
1 1:0 2:0 
1 1:0 2:0 
1 1:0 2:0 
1 1:0 2:0 
1 1:0 2:0 
1 1:0 2:0 
1 1:0 2:0 
1 1:0 2:0 
1 1:0 2:0 
1 1:0 2:0 
1 1:0 2:0 
1 1:0 2:0 
1 1:0 2:0 
1 1:0 2:0 
1 1:0 2:0 
1 1:0 2:0 
1 1:0 2:0 
1 1:0 2:0 
1 1:0 2:0 
1 1:0 2:0 
1 1:0 2:0 
1 1:0 2:0 
1 1:0 2:0 
1 1:0 2:0 
1 1:0 2:0 
1 1:0 2:0 
1 1:0 2:0 
1 1:0 2:0 
1 1:0 2:0 
1 1:0 2:0 
1 1:0 2:0 
1 1:0 2:0 
1 1:0 2:0 
1 1:0 2:0 
1 1:0 2:0 
1 1:0 2:0 
1 1:0 2:0 
1 1:0 2:0 
1 1:0 2:0 
1 1:0 2:0 
1 1:0 2:0 
1 1:0 2:0 
1 1:0 2:0 
1 1:0 2:0 
1 1:0 2:0 
1 1:0 2:0 
1 1:0 2:0 
1 1:0 2:0 
1 1:0 2:0 
1 1:0 2:0 
1 1:0 2:0 
1 1:0 2:0 
1 1:0 2:0 
1 1:0 2:0 
1 1:0 2:0 
1 1:0 2:0 
1 1:0 2:0 
1 1:0 2:0 
1 1:0 2:0 
1 1:0 2:0 
1 1:0 2:0 
1 1:0 2:0 
1 1:0 2:0 
1 1:0 2:0 
1 1:0 2:0 
1 1:0 2:0 
1 1:0 2:0 
1 1:0 2:0 
1 1:0 2:0 
1 1:0 2:0 
1 1:0 2:0 
1 1:0 2:0 
1 1:0 2:0 
1 1:0 2:0 
1 1:0 2:0 
1 1:0 2:0 
1 1:0 2:0 
1 1:0 2:0 
1 1:0 2:0 
1 1:3.6504097 2:1.3008311 
1 1:4.4495034 2:0 
1 1:0 2:0 
1 1:0 2:0 
1 1:0 2:0 
1 1:0 2:0 
1 1:0 2:0 
1 1:0 2:0 
1 1:0 2:0 
1 1:0 2:0 
1 1:0 2:0 
1 1:0 2:0 
1 1:0 2:0 
1 1:0 2:0 
1 1:0 2:0 
1 1:0 2:0 
1 1:0 2:0 
1 1:0 2:0 
1 1:0 2:0 
1 1:0 2:0 
1 1:0 2:0 
1 1:0 2:0 
1 1:0 2:0 
1 1:0 2:0 
1 1:0 2:0 
1 1:0 2:0 
1 1:0 2:0 
1 1:0 2:0 
1 1:0 2:0 
1 1:0 2:0 
1 1:0 2:0 
1 1:0 2:0 
1 1:0 2:0 
1 1:0 2:0 
1 1:0 2:0 
1 1:0 2:0 
1 1:0 2:0 
1 1:0 2:0 
1 1:0 2:0 
1 1:0 2:0 
1 1:0 2:0 
1 1:0 2:0 
1 1:0 2:0 
1 1:0 2:0 
1 1:0 2:0 
1 1:0 2:0 
1 1:0 2:0 
1 1:0 2:0 
1 1:0 2:0 
1 1:0 2:0 
1 1:0 2:0 
1 1:0 2:0 
1 1:0 2:0 
1 1:0 2:0 
1 1:0 2:0 
1 1:0 2:0 
1 1:0 2:0 
1 1:0 2:0 
1 1:0 2:0 
1 1:0 2:0 
1 1:0 2:0 
1 1:0 2:0 
1 1:0 2:0 
1 1:0 2:0 
1 1:0 2:0 
1 1:0 2:0 
1 1:0 2:0 
1 1:0 2:0 
1 1:0 2:0 
1 1:0 2:0 
1 1:0 2:0 
1 1:0 2:0 
1 1:0 2:0 
1 1:0 2:0 
1 1:0 2:0 
1 1:0 2:0 
1 1:0 2:0 
1 1:0 2:0 
1 1:0 2:0 
1 1:0 2:0 
1 1:0 2:0 
1 1:0 2:0 
1 1:0 2:0 
1 1:0 2:0 
1 1:0 2:0 
1 1:0 2:0 
1 1:0 2:0 
1 1:0 2:0 
1 1:0 2:0 
1 1:0 2:0 
1 1:0 2:0 
1 1:0 2:0 
1 1:0 2:0 
1 1:0 2:0 
1 1:0 2:0 
1 1:0 2:0 
1 1:0 2:0 
1 1:0 2:0 
1 1:0 2:0 
1 1:0 2:0 
1 1:0 2:0 
1 1:0 2:0 
1 1:0 2:0 
1 1:0 2:0 
1 1:0 2:0 
1 1:0 2:0 
1 1:0 2:0 
1 1:0 2:0 
1 1:0 2:0 
1 1:0 2:0 
1 1:0 2:0 
1 1:0 2:0 
1 1:0 2:0 
1 1:0 2:0 
1 1:0 2:0 
1 1:0 2:0 
1 1:0 2:0 
1 1:0 2:0 
1 1:0 2:0 
1 1:0 2:0 
1 1:0 2:0 
1 1:0 2:0 
1 1:0 2:0 
1 1:0 2:0 
1 1:0 2:0 
1 1:0 2:0 
1 1:0 2:0 
1 1:0 2:0 
1 1:0 2:0 
1 1:0 2:0 
1 1:0 2:0 
1 1:0 2:0 
1 1:0 2:0 
1 1:0 2:0 
1 1:0 2:0 
1 1:0 2:0 
1 1:0 2:0 
1 1:0 2:0 
1 1:0 2:0 
1 1:0 2:0 
1 1:0 2:0 
1 1:0 2:0 
1 1:0 2:0 
1 1:0 2:0 
1 1:0 2:0 
1 1:0 2:0 
1 1:0 2:0 
1 1:0 2:0 
1 1:0 2:0 
1 1:0 2:0 
1 1:0 2:0 
1 1:0 2:0 
1 1:0 2:0 
1 1:0 2:0 
1 1:0 2:0 
1 1:0 2:0 
1 1:0 2:0 
1 1:0 2:0 
1 1:0 2:0 
1 1:0 2:0 
1 1:0 2:0 
1 1:0 2:0 
1 1:0 2:0 
1 1:0 2:0 
1 1:0 2:0 
1 1:0 2:0 
1 1:0 2:0 
1 1:0 2:0 
1 1:0 2:0 
1 1:0 2:0 
1 1:0 2:0 
1 1:0 2:0 
1 1:0 2:0 
1 1:0 2:0 
1 1:0 2:0 
1 1:0 2:0 
1 1:0 2:0 
1 1:0 2:0 
1 1:0 2:0 
1 1:0 2:0 
1 1:0 2:0 
1 1:0 2:0 
1 1:4.6100912 2:0 
1 1:2.0422583 2:4.5280647 
1 1:2.137476 2:4.5590072 
1 1:2.1724193 2:4.6145229 
1 1:2.2079625 2:4.9229774 
1 1:2.1826394 2:5.439364 
1 1:2.0943241 2:5.794826 
1 1:1.9981934 2:5.7752247 
1 1:1.9775105 2:5.4774418 
1 1:1.912392 2:5.1888061 
1 1:1.8304899 2:4.7739444 
1 1:1.77605 2:4.451251 
1 1:1.8254344 2:6.6397667 
1 1:2.0177386 2:6.9294829 
1 1:2.0385535 2:6.446856 
1 1:2.0711665 2:4.5689421 
1 1:3.1515963 2:2.9759533 
1 1:1.5115063 2:4.1566086 
1 1:1.5979586 2:4.3646398 
1 1:1.6088821 2:4.4122567 
1 1:1.7035527 2:4.2043695 
1 1:1.6691309 2:4.1613679 
1 1:1.6598074 2:4.210804 
1 1:1.6591014 2:4.2016516 
1 1:1.6695572 2:4.1534224 
1 1:1.6785382 2:4.1389685 
1 1:1.336852 2:4.1244545 
1 1:1.3168758 2:4.2093511 
1 1:1.3070867 2:4.2781644 
1 1:1.3102621 2:4.245944 
1 1:1.2900569 2:4.2246656 
1 1:1.3231536 2:4.2385015 
1 1:1.3496734 2:4.2177386 
1 1:1.3573822 2:4.1487656 
1 1:1.353573 2:4.1489253 
1 1:1.3515443 2:4.1596155 
1 1:1.3516463 2:4.1588478 
1 1:1.3506527 2:4.1594725 
1 1:1.3503069 2:4.1576357 
1 1:1.3497931 2:4.1601982 
1 1:1.3470836 2:4.1664276 
1 1:1.3453774 2:4.1904631 
1 1:1.3445425 2:4.1884131 
1 1:1.3401244 2:4.1905093 
1 1:1.3241602 2:4.1756253 
1 1:1.3028822 2:4.1806235 
1 1:1.2812799 2:4.1692729 
1 1:1.2683864 2:4.187778 
1 1:1.2679089 2:4.1992335 
1 1:1.2874107 2:4.1988759 
1 1:1.3015709 2:4.2183676 
1 1:1.3144153 2:4.2562056 
1 1:1.3031887 2:4.204021 
1 1:1.3033602 2:4.0726838 
1 1:1.3048899 2:3.91418 
0.1173457589844498 1:1.3306732 2:3.7522156 
1 1:1.411304 2:4.2217808 
1 1:1.389781 2:4.2854266 
1 1:1.360451 2:4.1432791 
1 1:1.3607079 2:4.3964672 
1 1:1.3571899 2:4.6020393 
1 1:1.354799 2:4.7799649 
1 1:1.3536215 2:4.8961954 
1 1:1.3536148 2:5.0098448 
1 1:1.3550563 2:5.0591669 
1 1:1.3551722 2:5.0515881 
1 1:1.349314 2:5.0488095 
1 1:1.3351113 2:4.9668036 
1 1:1.3288227 2:4.9207959 
1 1:1.3231916 2:4.8118691 
1 1:1.3148124 2:4.6925716 
1 1:1.3148124 2:4.6873064 
1 1:1.3139808 2:4.90589 
1 1:1.307191 2:5.352386 
1 1:1.2898855 2:5.3809738 
1 1:1.2765417 2:5.3335533 
1 1:1.2412161 2:4.6178699 
1 1:1.2438347 2:4.3802071 
1 1:1.2259412 2:4.2571297 
1 1:1.2107488 2:4.5593929 
1 1:1.2127324 2:4.5564489 
1 1:1.2094591 2:4.6752391 
1 1:1.212985 2:4.8419509 
1 1:1.2139703 2:4.9160228 
1 1:1.2227577 2:4.7701097 
1 1:1.2235289 2:4.5683169 
1 1:1.2089581 2:4.4721265 
1 1:1.1911265 2:4.4080849 
1 1:1.1642454 2:4.555357 
1 1:1.1653692 2:4.8892245 
1 1:1.1630292 2:5.2371135 
1 1:1.1403717 2:5.5142751 
1 1:1.1321208 2:5.517345 
1 1:1.1287472 2:5.4856873 
1 1:1.1444614 2:5.4728851 
1 1:1.1274332 2:5.3057351 
1 1:1.1198591 2:5.2360716 
1 1:1.0846332 2:5.1711602 
1 1:1.0868787 2:5.1454186 
1 1:1.0868787 2:5.1438923 
1 1:1.0962846 2:5.1091781 
1 1:1.0960727 2:5.1155882 
1 1:1.1154612 2:5.1101418 
1 1:1.1484517 2:5.008399 
1 1:1.1831567 2:4.9538026 
1 1:1.1600817 2:5.0510011 
1 1:1.0695076 2:4.7061825 
1 1:1.0305424 2:4.4072838 
1 1:1.0427938 2:4.5927858 
1 1:1.1069931 2:4.8159852 
1 1:1.1872131 2:4.5740204 
0.0653359981556076 1:1.7102902 2:4.0177402 
1 1:1.6718999 2:4.2512827 
1 1:1.6705353 2:4.1236148 
1 1:4.7035356 2:0.83107793 
1 1:0.8795523 2:3.4106388 
1 1:0.88401961 2:3.5177593 
1 1:0.91206878 2:3.5270228 
1 1:0.88585603 2:3.5250061 
1 1:0.87006092 2:3.5299783 
1 1:0.87013346 2:3.487632 
1 1:0.87211668 2:3.4587607 
1 1:0.87528294 2:3.4449911 
1 1:0.88520163 2:3.4355032 
1 1:0.88334173 2:3.4280915 
1 1:0.87876898 2:3.4357133 
1 1:0.87826806 2:3.4509451 
1 1:0.87797952 2:3.4604106 
1 1:0.85725927 2:3.4666169 
1 1:0.7945053 2:3.4498494 
1 1:0.73134518 2:3.3950996 
1 1:0.70903802 2:3.3370047 
1 1:0.7104739 2:3.2684252 
1 1:0.71792722 2:3.1524775 
1 1:0.72547644 2:3.046309 
1 1:0.72518474 2:2.9567907 
1 1:0.72146004 2:2.8840423 
1 1:0.71161568 2:2.8267157 
1 1:0.69879436 2:2.8205125 
1 1:0.68679702 2:2.8311553 
1 1:0.66612518 2:2.826777 
1 1:0.66110283 2:2.8124363 
1 1:0.65588015 2:2.7638483 
1 1:0.65552747 2:2.5593104 
1 1:0.64871758 2:2.4716752 
1 1:0.66766649 2:2.8382156 
1 1:0.67964458 2:3.2760069 
1 1:0.69794321 2:3.3877022 
1 1:0.70303905 2:3.3385322 
1 1:0.6997987 2:3.3584437 
1 1:0.70166487 2:3.370193 
1 1:0.69850475 2:3.3448002 
1 1:0.69699526 2:3.3283355 
1 1:0.69795686 2:3.2976871 
1 1:0.69717789 2:3.2491322 
1 1:0.71502078 2:3.2748108 
1 1:0.74812359 2:3.310708 
1 1:0.78025943 2:3.3523247 
1 1:0.78455347 2:3.3788548 
1 1:0.78117621 2:3.3543141 
1 1:0.78200543 2:3.357414 
1 1:0.79215425 2:3.3686903 
1 1:0.8005476 2:3.3609946 
1 1:0.8062771 2:3.2458391 
1 1:0.8062771 2:3.2014239 
1 1:0.80636114 2:3.1682346 
1 1:0.8063783 2:3.1784694 
1 1:0.8065207 2:3.2215781 
1 1:0.8065207 2:3.2228024 
1 1:0.80563062 2:3.2481205 
1 1:0.8091343 2:3.2535119 
1 1:0.81842172 2:3.2394395 
1 1:0.83453953 2:3.2049277 
1 1:0.82949078 2:3.1626449 
1 1:0.82295191 2:3.2351053 
0.7726822176489406 1:0.81541324 2:3.3102272 
1 1:0.79963285 2:3.3705235 
1 1:0.81148779 2:3.3573637 
1 1:0.85541415 2:3.3519993 
1 1:0.78121656 2:3.3517766 
1 1:0.77160877 2:3.3491974 
1 1:0.82918566 2:3.2577698 
1 1:0.8241967 2:3.1987605 
1 1:0.80437809 2:2.8718176 
1 1:0.80579025 2:2.9288588 
1 1:0.80110449 2:2.85256 
1 1:0.87580431 2:3.1641285 
1 1:0.86472791 2:3.183955 
1 1:0.87057221 2:3.2255995 
1 1:0.95062417 2:3.6139183 
1 1:13.279893 2:2.0390079 
1 1:14.805719 2:2.6049719 
1 1:17.627632 2:2.5809438 
1 1:26.84413 2:2.5819643 
1 1:27.29944 2:2.5989695 
1 1:27.158091 2:2.644839 
1 1:27.001736 2:2.7154903 
1 1:27.001736 2:2.8428934 
1 1:27.114855 2:2.993911 
1 1:27.011803 2:3.1965182 
1 1:27.292997 2:3.4105241 
1 1:27.181553 2:3.4650805 
1 1:26.236656 2:3.4673557 
1 1:28.512871 2:3.7229555 
1 1:26.959057 2:3.7658105 
1 1:30.752651 2:3.7594969 
1 1:29.345921 2:3.7608142 
1 1:27.861479 2:3.7713051 
1 1:30.10327 2:3.7795949 
1 1:33.857998 2:3.7868619 
1 1:39.577763 2:3.7944798 
1 1:38.627235 2:3.771872 
1 1:34.982754 2:3.753432 
1 1:35.620739 2:3.7206695 
1 1:37.264801 2:3.6697876 
1 1:37.059631 2:3.664048 
1 1:37.398022 2:3.6216831 
1 1:37.625492 2:3.6117299 
1 1:38.553219 2:3.5968711 
1 1:38.747009 2:3.6271541 
1 1:38.923542 2:3.6218719 
1 1:39.388073 2:3.6307578 
1 1:39.310944 2:3.6149299 
1 1:39.386501 2:3.574048 
1 1:37.724998 2:3.5360422 
1 1:34.050541 2:3.5211277 
1 1:0.6179263 2:2.3839569 
1 1:0.57876861 2:2.3940091 
1 1:0.57047147 2:2.4046762 
1 1:0.57229322 2:2.429606 
1 1:0.57005781 2:2.5081742 
1 1:0.56996751 2:2.5216777 
1 1:0.57180786 2:2.5230615 
1 1:0.57180786 2:2.4896891 
1 1:0.56602377 2:2.4128749 
1 1:0.54968804 2:2.2837868 
1 1:0.55322045 2:2.2457478 
1 1:0.55840522 2:2.2199864 
1 1:0.55961537 2:2.4169137 
1 1:0.55875403 2:2.4068265 
1 1:0.55875403 2:2.4153225 
1 1:0.56160635 2:2.4680381 
1 1:0.57574165 2:2.4761095 
1 1:3.2339578 2:5.5139303 
1 1:3.3992717 2:6.5890965 
1 1:3.3792784 2:7.1238346 
1 1:3.3127527 2:7.3021035 
1 1:3.2322567 2:7.2082262 
1 1:3.2281697 2:7.1229315 
1 1:3.2466407 2:7.3136191 
1 1:3.1584134 2:7.4353251 
1 1:2.9791188 2:7.4734111 
1 1:2.8311987 2:7.5218863 
1 1:2.7417657 2:7.5724711 
1 1:2.6704264 2:7.7890568 
1 1:2.5821474 2:8.6145763 
1 1:2.4947925 2:9.4278793 
1 1:2.4115181 2:10.023779 
1 1:2.3277633 2:10.537899 
1 1:2.240927 2:10.754035 
1 1:2.1729085 2:10.799995 
1 1:2.1306236 2:10.719784 
1 1:2.1028762 2:10.558336 
1 1:2.0991077 2:10.588682 
1 1:2.098629 2:10.54835 
1 1:2.0914085 2:10.454683 
1 1:2.0743895 2:10.201172 
1 1:2.0588143 2:9.8797159 
1 1:2.0741875 2:9.8295403 
1 1:2.148562 2:9.9225988 
1 1:2.2460835 2:9.6888247 
1 1:2.3200226 2:9.1465311 
1 1:2.3370185 2:9.0498743 
1 1:2.3075395 2:9.3496161 
1 1:2.245513 2:9.7057838 
1 1:2.2062757 2:10.320972 
1 1:2.1355183 2:10.489119 
1 1:2.0631261 2:10.350527 
1 1:2.0250669 2:9.9690437 
1 1:1.9980803 2:9.8080626 
1 1:1.9761961 2:9.983777 
1 1:1.94985 2:9.9726954 
1 1:1.9442451 2:9.6434135 
1 1:1.9713988 2:9.336256 
1 1:2.063899 2:10.221897 
1 1:2.1804855 2:11.046376 
1 1:2.2985597 2:11.842863 
1 1:2.3880863 2:12.18103 
1 1:2.4401083 2:12.539451 
1 1:2.4666684 2:12.800057 
1 1:2.4724698 2:12.841187 
1 1:2.4675519 2:12.528458 
1 1:2.4529767 2:12.137259 
1 1:2.4453344 2:11.748777 
1 1:2.4368367 2:11.73992 
1 1:2.4261518 2:11.71627 
1 1:2.4160998 2:11.301412 
1 1:2.4107008 2:10.362137 
1 1:2.4163086 2:9.9480591 
1 1:2.438273 2:10.33008 
1 1:2.4993365 2:11.083984 
1 1:2.5755193 2:12.071789 
1 1:2.6499381 2:12.814075 
1 1:2.7680764 2:12.963181 
1 1:2.8654058 2:12.82427 
1 1:2.9730027 2:12.293793 
1 1:3.0553403 2:12.123247 
1 1:3.1475208 2:12.17283 
1 1:3.2615542 2:12.158685 
1 1:3.3670199 2:11.856154 
1 1:3.4724951 2:11.344906 
1 1:3.5739114 2:10.621599 
1 1:3.6995387 2:10.124757 
1 1:3.8997281 2:10.544217 
1 1:4.1860518 2:11.649663 
1 1:4.5463724 2:13.618021 
1 1:4.9232578 2:15.652762 
1 1:5.3939242 2:16.539097 
1 1:5.9306164 2:16.161219 
1 1:6.3172088 2:15.952553 
1 1:6.6488347 2:15.646936 
1 1:6.7905555 2:15.639476 
1 1:6.8302307 2:15.684494 
1 1:6.7862101 2:15.657949 
1 1:6.7264585 2:14.86771 
1 1:6.6632051 2:13.761661 
1 1:6.6544929 2:12.717525 
1 1:6.6363916 2:11.76265 
1 1:6.5969648 2:11.777785 
1 1:6.5562663 2:12.215118 
1 1:6.4309607 2:13.235853 
1 1:6.2994881 2:13.511075 
1 1:6.1600647 2:12.800724 
1 1:6.1040244 2:11.542475 
1 1:6.0673447 2:10.340929 
1 1:6.0673447 2:9.8777485 
1 1:6.0644979 2:10.282185 
1 1:6.0761056 2:11.566267 
1 1:6.1179624 2:12.857973 
1 1:6.1656227 2:13.679366 
1 1:6.2067881 2:13.626385 
1 1:6.2890797 2:13.079597 
1 1:6.3257871 2:11.586054 
1 1:6.3980227 2:10.410292 
1 1:6.4419909 2:9.9061394 
1 1:6.525176 2:10.164211 
1 1:6.6087809 2:10.887638 
1 1:6.6629682 2:11.448096 
1 1:6.7026386 2:11.170218 
1 1:6.7326217 2:9.8689985 
1 1:6.7628059 2:8.6851168 
1 1:6.7999296 2:8.0869007 
1 1:6.8480783 2:8.1400404 
1 1:6.9425654 2:8.4779387 
1 1:7.0307031 2:8.6327152 
1 1:7.1449342 2:8.2931547 
1 1:7.3210907 2:7.6012125 
1 1:7.4321313 2:6.7529397 
1 1:7.5060592 2:5.8661599 
1 1:7.686379 2:5.6399183 
1 1:7.8565154 2:5.8830252 
1 1:8.0413952 2:6.3162665 
1 1:8.1852198 2:6.5890942 
1 1:8.2535439 2:6.4324827 
1 1:8.231081 2:5.8622007 
1 1:7.7776837 2:0 
1 1:7.6798511 2:0 
1 1:7.6798511 2:0 
1 1:7.6575599 2:0 
1 1:7.6575599 2:0 
1 1:7.5860548 2:0 
1 1:8.0079975 2:0 
1 1:7.9023247 2:0 
1 1:7.7637844 2:0 
1 1:7.7762103 2:0 
1 1:8.7746477 2:0 
1 1:8.8651247 2:0 
1 1:7.8046255 2:0 
1 1:4.4454217 2:0 
1 1:8.9197779 2:0 
1 1:10.597008 2:0 
1 1:9.566968 2:0 
1 1:13.071828 2:0 
1 1:11.124021 2:0 
1 1:0 2:0 
1 1:0 2:0 
1 1:0 2:0 
1 1:0 2:0 
1 1:0 2:0 
1 1:0 2:0 
1 1:0 2:0 
1 1:0 2:0 
1 1:0 2:0 
1 1:0 2:0 
1 1:0 2:0 
1 1:0 2:0 
1 1:0 2:0 
1 1:0 2:0 
1 1:0 2:0 
1 1:0 2:0 
1 1:0 2:0 
1 1:0 2:0 
1 1:0 2:0 
1 1:0 2:0 
1 1:0 2:0 
1 1:0 2:0 
1 1:0 2:0 
1 1:0 2:0 
1 1:0 2:0 
1 1:0 2:0 
1 1:0 2:0 
1 1:0 2:0 
1 1:0 2:0 
1 1:0 2:0 
1 1:0 2:0 
1 1:0 2:0 
1 1:0 2:0 
1 1:0 2:0 
1 1:0 2:0 
1 1:0 2:0 
1 1:0 2:0 
1 1:0 2:0 
1 1:0 2:0 
1 1:0 2:0 
1 1:0 2:0 
1 1:0 2:0 
1 1:0 2:0 
1 1:0 2:0 
1 1:0 2:0 
1 1:0 2:0 
1 1:0 2:0 
1 1:0 2:0 
1 1:0 2:0 
1 1:0 2:0 
1 1:0 2:0 
1 1:0 2:0 
1 1:0 2:0 
1 1:0 2:0 
1 1:0 2:0 
1 1:0 2:0 
1 1:0 2:0 
1 1:0 2:0 
1 1:0 2:0 
1 1:0 2:0 
1 1:0 2:0 
1 1:0 2:0 
1 1:0 2:0 
1 1:0 2:0 
1 1:0 2:0 
1 1:0 2:0 
1 1:0 2:0 
1 1:0 2:0 
1 1:0 2:0 
1 1:0 2:0 
1 1:0 2:0 
1 1:0 2:0 
1 1:0 2:0 
1 1:0 2:0 
1 1:0 2:0 
1 1:0 2:0 
1 1:0 2:0 
1 1:0 2:0 
1 1:0 2:0 
1 1:0 2:0 
1 1:0 2:0 
1 1:0 2:0 
1 1:0 2:0 
1 1:0 2:0 
1 1:0 2:0 
1 1:0 2:0 
1 1:0 2:0 
1 1:0 2:0 
1 1:0 2:0 
1 1:0 2:0 
1 1:0 2:0 
1 1:0 2:0 
1 1:0 2:0 
1 1:0 2:0 
1 1:0 2:0 
1 1:0 2:0 
1 1:0 2:0 
1 1:0 2:0 
1 1:0 2:0 
1 1:0 2:0 
1 1:0 2:0 
1 1:0 2:0 
1 1:0 2:0 
1 1:0 2:0 
1 1:0 2:0 
1 1:0 2:0 
1 1:0 2:0 
1 1:0 2:0 
1 1:0 2:0 
1 1:0 2:0 
1 1:0 2:0 
1 1:0 2:0 
1 1:0 2:0 
1 1:0 2:0 
1 1:0 2:0 
1 1:0 2:0 
1 1:0 2:0 
1 1:0 2:0 
1 1:0 2:0 
1 1:0 2:0 
1 1:0 2:0 
1 1:0 2:0 
1 1:0 2:0 
1 1:0 2:0 
1 1:0 2:0 
1 1:0 2:0 
1 1:0 2:0 
1 1:0 2:0 
1 1:0 2:0 
1 1:0 2:0 
1 1:0 2:0 
1 1:0 2:0 
1 1:0 2:0 
1 1:0 2:0 
1 1:0 2:0 
1 1:0 2:0 
1 1:0 2:0 
1 1:0 2:0 
1 1:0 2:0 
1 1:0 2:0 
1 1:0 2:0 
1 1:0 2:0 
1 1:0 2:0 
1 1:0 2:0 
1 1:0 2:0 
1 1:0 2:0 
1 1:0 2:0 
1 1:0 2:0 
1 1:0 2:0 
1 1:0 2:0 
1 1:0 2:0 
1 1:0 2:0 
1 1:0 2:0 
1 1:0 2:0 
1 1:0 2:0 
1 1:0 2:0 
1 1:0 2:0 
1 1:0 2:0 
1 1:0 2:0 
1 1:0 2:0 
1 1:0 2:0 
1 1:0 2:0 
1 1:0 2:0 
1 1:0 2:0 
1 1:0 2:0 
1 1:0 2:0 
1 1:0 2:0 
1 1:0 2:0 
1 1:0 2:0 
1 1:0 2:0 
1 1:0 2:0 
1 1:0 2:0 
1 1:0 2:0 
1 1:0 2:0 
1 1:0 2:0 
1 1:0 2:0 
1 1:0 2:0 
1 1:0 2:0 
1 1:0 2:0 
1 1:0 2:0 
1 1:0 2:0 
1 1:0 2:0 
1 1:0 2:0 
1 1:0 2:0 
1 1:0 2:0 
1 1:0 2:0 
1 1:0 2:0 
1 1:0 2:0 
1 1:0 2:0 
1 1:0 2:0 
1 1:0 2:0 
1 1:0 2:0 
1 1:0 2:0 
1 1:0 2:0 
1 1:0 2:0 
1 1:0 2:0 
1 1:0 2:0 
1 1:0 2:0 
1 1:0 2:0 
1 1:0 2:0 
1 1:0 2:0 
1 1:0 2:0 
1 1:0 2:0 
1 1:0 2:0 
1 1:0 2:0 
1 1:0 2:0 
1 1:0 2:0 
1 1:0 2:0 
1 1:0 2:0 
1 1:0 2:0 
1 1:0 2:0 
1 1:0 2:0 
1 1:0 2:0 
1 1:0 2:0 
1 1:0 2:0 
1 1:0 2:0 
1 1:0 2:0 
1 1:0 2:0 
1 1:0 2:0 
1 1:0 2:0 
1 1:0 2:0 
1 1:0 2:0 
1 1:0 2:0 
1 1:0 2:0 
1 1:0 2:0 
1 1:0 2:0 
1 1:0 2:0 
1 1:0 2:0 
1 1:0 2:0 
1 1:0 2:0 
1 1:0 2:0 
1 1:0 2:0 
1 1:0 2:0 
1 1:0 2:0 
1 1:0 2:0 
1 1:0 2:0 
1 1:0 2:0 
1 1:0 2:0 
1 1:0 2:0 
1 1:0 2:0 
1 1:0 2:0 
1 1:0 2:0 
1 1:0 2:0 
1 1:0 2:0 
1 1:0 2:0 
1 1:0 2:0 
1 1:0 2:0 
1 1:0 2:0 
1 1:0 2:0 
1 1:0 2:0 
1 1:0 2:0 
1 1:0 2:0 
1 1:0 2:0 
1 1:0 2:0 
1 1:0 2:0 
1 1:0 2:0 
1 1:0 2:0 
1 1:0 2:0 
1 1:0 2:0 
1 1:0 2:0 
1 1:0 2:0 
1 1:0 2:0 
1 1:0 2:0 
1 1:0 2:0 
1 1:0 2:0 
1 1:0 2:0 
1 1:0 2:0 
1 1:0 2:0 
1 1:0 2:0 
1 1:0 2:0 
1 1:0 2:0 
1 1:0 2:0 
1 1:0 2:0 
1 1:0 2:0 
1 1:0 2:0 
1 1:0 2:0 
1 1:0 2:0 
1 1:0 2:0 
1 1:0 2:0 
1 1:0 2:0 
1 1:0 2:0 
1 1:0 2:0 
1 1:0 2:0 
1 1:0 2:0 
1 1:0 2:0 
1 1:0 2:0 
1 1:0 2:0 
1 1:0 2:0 
1 1:0 2:0 
1 1:0 2:0 
1 1:0 2:0 
1 1:0 2:0 
1 1:0 2:0 
1 1:0 2:0 
1 1:0 2:0 
1 1:0 2:0 
1 1:0 2:0 
1 1:0 2:0 
1 1:0 2:0 
1 1:0 2:0 
1 1:0 2:0 
1 1:0 2:0 
1 1:0 2:0 
1 1:0 2:0 
1 1:0 2:0 
1 1:0 2:0 
1 1:0 2:0 
1 1:0 2:0 
1 1:0 2:0 
1 1:0 2:0 
1 1:0 2:0 
1 1:0 2:0 
1 1:0 2:0 
1 1:0 2:0 
1 1:0 2:0 
1 1:0 2:0 
1 1:0 2:0 
1 1:0 2:0 
1 1:0 2:0 
1 1:0 2:0 
1 1:0 2:0 
1 1:0 2:0 
1 1:0 2:0 
1 1:0 2:0 
1 1:0 2:0 
1 1:0 2:0 
1 1:0 2:0 
1 1:0 2:0 
1 1:0 2:0 
1 1:0 2:0 
1 1:0 2:0 
1 1:0 2:0 
1 1:0 2:0 
1 1:0 2:0 
1 1:0 2:0 
1 1:0 2:0 
1 1:0 2:0 
1 1:0 2:0 
1 1:0 2:0 
1 1:0 2:0 
1 1:0 2:0 
1 1:0 2:0 
1 1:0 2:0 
1 1:0 2:0 
1 1:0 2:0 
1 1:0 2:0 
1 1:0 2:0 
1 1:0 2:0 
1 1:0 2:0 
1 1:0 2:0 
1 1:0 2:0 
1 1:0 2:0 
1 1:0 2:0 
1 1:0 2:0 
1 1:0 2:0 
1 1:0 2:0 
1 1:0 2:0 
1 1:0 2:0 
1 1:0 2:0 
1 1:0 2:0 
1 1:0 2:0 
1 1:0 2:0 
1 1:0 2:0 
1 1:0 2:0 
1 1:0 2:0 
1 1:0 2:0 
1 1:0 2:0 
1 1:0 2:0 
1 1:0 2:0 
1 1:0 2:0 
1 1:0 2:0 
1 1:0 2:0 
1 1:0 2:0 
1 1:0 2:0 
1 1:0 2:0 
1 1:0 2:0 
1 1:0 2:0 
1 1:0 2:0 
1 1:0 2:0 
1 1:0 2:0 
1 1:0 2:0 
1 1:0 2:0 
1 1:0 2:0 
1 1:0 2:0 
1 1:0 2:0 
1 1:0 2:0 
1 1:0 2:0 
1 1:0 2:0 
1 1:0 2:0 
1 1:0 2:0 
1 1:0 2:0 
1 1:0 2:0 
1 1:0 2:0 
1 1:0 2:0 
1 1:0 2:0 
1 1:0 2:0 
1 1:0 2:0 
1 1:0 2:0 
1 1:0 2:0 
1 1:0 2:0 
1 1:0 2:0 
1 1:0 2:0 
1 1:0 2:0 
1 1:0 2:0 
1 1:0 2:0 
1 1:0 2:0 
1 1:0 2:0 
1 1:0 2:0 
1 1:0 2:0 
1 1:0 2:0 
1 1:0 2:0 
1 1:0 2:0 
1 1:0 2:0 
1 1:0 2:0 
1 1:0 2:0 
1 1:0 2:0 
1 1:0 2:0 
1 1:0 2:0 
1 1:0 2:0 
1 1:0 2:0 
1 1:0 2:0 
1 1:0 2:0 
1 1:0 2:0 
1 1:0 2:0 
1 1:0 2:0 
1 1:0 2:0 
1 1:0 2:0 
1 1:0 2:0 
1 1:0 2:0 
1 1:0 2:0 
1 1:0 2:0 
1 1:0 2:0 
1 1:0 2:0 
1 1:0 2:0 
1 1:0 2:0 
1 1:0 2:0 
1 1:0 2:0 
1 1:0 2:0 
1 1:0 2:0 
1 1:0 2:0 
1 1:0 2:0 
1 1:0 2:0 
1 1:0 2:0 
1 1:0 2:0 
1 1:0 2:0 
1 1:0 2:0 
1 1:0 2:0 
1 1:0 2:0 
1 1:0 2:0 
1 1:0 2:0 
1 1:0 2:0 
1 1:0 2:0 
1 1:0 2:0 
1 1:0 2:0 
1 1:0 2:0 
1 1:0 2:0 
1 1:0 2:0 
1 1:0 2:0 
1 1:0 2:0 
1 1:0 2:0 
1 1:0 2:0 
1 1:0 2:0 
1 1:0 2:0 
1 1:0 2:0 
1 1:0 2:0 
1 1:0 2:0 
1 1:0 2:0 
1 1:0 2:0 
1 1:0 2:0 
1 1:0 2:0 
1 1:0 2:0 
1 1:0 2:0 
1 1:0 2:0 
1 1:0 2:0 
1 1:0 2:0 
1 1:0 2:0 
1 1:0 2:0 
1 1:0 2:0 
1 1:0 2:0 
1 1:0 2:0 
1 1:0 2:0 
1 1:0 2:0 
1 1:0 2:0 
1 1:0 2:0 
1 1:0 2:0 
1 1:0 2:0 
1 1:0 2:0 
1 1:0 2:0 
1 1:0 2:0 
1 1:0 2:0 
1 1:0 2:0 
1 1:0 2:0 
1 1:0 2:0 
1 1:0 2:0 
1 1:0 2:0 
1 1:0 2:0 
1 1:0 2:0 
1 1:0 2:0 
1 1:0 2:0 
1 1:0 2:0 
1 1:0 2:0 
1 1:0 2:0 
1 1:0 2:0 
1 1:0 2:0 
1 1:0 2:0 
1 1:0 2:0 
1 1:0 2:0 
1 1:0 2:0 
1 1:0 2:0 
1 1:0 2:0 
1 1:0 2:0 
1 1:0 2:0 
1 1:0 2:0 
1 1:0 2:0 
1 1:0 2:0 
1 1:0 2:0 
1 1:0 2:0 
1 1:0 2:0 
1 1:0 2:0 
1 1:0 2:0 
1 1:0 2:0 
1 1:0 2:0 
1 1:0 2:0 
1 1:0 2:0 
1 1:0 2:0 
1 1:0 2:0 
1 1:0 2:0 
1 1:0 2:0 
1 1:0 2:0 
1 1:0 2:0 
1 1:0 2:0 
1 1:0 2:0 
1 1:0 2:0 
1 1:0 2:0 
1 1:0 2:0 
1 1:0 2:0 
1 1:0 2:0 
1 1:0 2:0 
1 1:0 2:0 
1 1:0 2:0 
1 1:0 2:0 
1 1:0 2:0 
1 1:0 2:0 
1 1:0 2:0 
1 1:0 2:0 
1 1:0 2:0 
1 1:0 2:0 
1 1:0 2:0 
1 1:0 2:0 
1 1:0 2:0 
1 1:0 2:0 
1 1:0 2:0 
1 1:0 2:0 
1 1:0 2:0 
1 1:0 2:0 
1 1:0 2:0 
1 1:0 2:0 
1 1:0 2:0 
1 1:0 2:0 
1 1:0 2:0 
1 1:0 2:0 
1 1:0 2:0 
1 1:0 2:0 
1 1:0 2:0 
1 1:0 2:0 
1 1:0 2:0 
1 1:0 2:0 
1 1:0 2:0 
1 1:0 2:0 
1 1:0 2:0 
1 1:0 2:0 
1 1:0 2:0 
1 1:0 2:0 
1 1:0 2:0 
1 1:0 2:0 
1 1:0 2:0 
1 1:0 2:0 
1 1:0 2:0 
1 1:0 2:0 
1 1:0 2:0 
1 1:0 2:0 
1 1:0 2:0 
1 1:0 2:0 
1 1:0 2:0 
1 1:0 2:0 
1 1:0 2:0 
1 1:0 2:0 
1 1:0 2:0 
1 1:0 2:0 
1 1:0 2:0 
1 1:0 2:0 
1 1:0 2:0 
1 1:0 2:0 
1 1:0 2:0 
1 1:0 2:0 
1 1:0 2:0 
1 1:0 2:0 
1 1:0 2:0 
1 1:0 2:0 
1 1:0 2:0 
1 1:0 2:0 
1 1:0 2:0 
1 1:0 2:0 
1 1:0 2:0 
1 1:0 2:0 
1 1:0 2:0 
1 1:0 2:0 
1 1:0 2:0 
1 1:0 2:0 
1 1:0 2:0 
1 1:0 2:0 
1 1:0 2:0 
1 1:0 2:0 
1 1:0 2:0 
1 1:0 2:0 
1 1:0 2:0 
1 1:0 2:0 
1 1:0 2:0 
1 1:0 2:0 
1 1:0 2:0 
1 1:0 2:0 
1 1:0 2:0 
1 1:0 2:0 
1 1:0 2:0 
1 1:0 2:0 
1 1:0 2:0 
1 1:0 2:0 
1 1:0 2:0 
1 1:0 2:0 
1 1:0 2:0 
1 1:0 2:0 
1 1:0 2:0 
1 1:0 2:0 
1 1:0 2:0 
1 1:0 2:0 
1 1:0 2:0 
1 1:0 2:0 
1 1:0 2:0 
1 1:0 2:0 
1 1:0 2:0 
1 1:0 2:0 
1 1:0 2:0 
1 1:0 2:0 
1 1:0 2:0 
1 1:0 2:0 
1 1:0 2:0 
1 1:0 2:0 
1 1:0 2:0 
1 1:0 2:0 
1 1:0 2:0 
1 1:0 2:0 
1 1:0 2:0 
1 1:0 2:0 
1 1:0 2:0 
1 1:0 2:0 
1 1:0 2:0 
1 1:0 2:0 
1 1:0 2:0 
1 1:0 2:0 
1 1:0 2:0 
1 1:0 2:0 
1 1:0 2:0 
1 1:0 2:0 
1 1:0 2:0 
1 1:0 2:0 
1 1:0 2:0 
1 1:0 2:0 
1 1:0 2:0 
1 1:0 2:0 
1 1:0 2:0 
1 1:0 2:0 
1 1:0 2:0 
1 1:0 2:0 
1 1:0 2:0 
1 1:0 2:0 
1 1:0 2:0 
1 1:0 2:0 
1 1:0 2:0 
1 1:0 2:0 
1 1:0 2:0 
1 1:0 2:0 
1 1:0 2:0 
1 1:0 2:0 
1 1:0 2:0 
1 1:0 2:0 
1 1:0 2:0 
1 1:0 2:0 
1 1:0 2:0 
1 1:0 2:0 
1 1:0 2:0 
1 1:0 2:0 
1 1:19.404465 2:0 
1 1:19.249969 2:0 
1 1:21.505781 2:0 
1 1:24.346071 2:0 
1 1:25.590899 2:0 
1 1:25.471466 2:0 
1 1:24.395454 2:0 
1 1:25.916534 2:0 
1 1:27.784691 2:0 
1 1:29.828691 2:0 
1 1:31.077324 2:0 
1 1:31.2733 2:0 
1 1:30.361441 2:0 
1 1:29.691883 2:0 
1 1:30.085451 2:0 
1 1:30.488058 2:0 
1 1:31.600622 2:0 
1 1:32.50737 2:0 
1 1:33.304241 2:0 
1 1:33.174427 2:0 
1 1:33.174427 2:0 
1 1:33.514854 2:0 
1 1:33.583664 2:0 
1 1:31.986412 2:0 
1 1:29.19393 2:0 
1 1:25.843647 2:0 
1 1:27.208696 2:0 
1 1:25.947699 2:0 
1 1:22.337555 2:0 
1 1:18.43924 2:0 
1 1:16.524775 2:0 
1 1:15.538466 2:0 
1 1:16.435852 2:0 
1 1:18.853462 2:0 
1 1:20.238964 2:0 
1 1:19.018671 2:0 
1 1:17.293669 2:0 
1 1:16.698866 2:0 
1 1:24.519188 2:0 
1 1:23.224611 2:0 
1 1:27.596544 2:0 
1 1:29.756458 2:0 
1 1:29.031643 2:0 
1 1:24.79883 2:0 
1 1:25.361725 2:0 
1 1:25.802202 2:0 
1 1:27.945839 2:0 
1 1:29.238611 2:0 
1 1:28.733843 2:0 
1 1:26.694332 2:0 
1 1:24.529985 2:0 
1 1:25.030704 2:0 
1 1:29.104437 2:0 
1 1:31.165001 2:0 
1 1:32.374706 2:0 
1 1:32.476284 2:0 
1 1:30.917608 2:0 
1 1:27.008421 2:0 
1 1:24.47485 2:0 
1 1:23.952255 2:0 
1 1:27.247402 2:0 
1 1:32.211338 2:0 
1 1:35.819901 2:0 
1 1:36.429401 2:0 
1 1:33.284424 2:0 
1 1:27.927839 2:0 
1 1:26.113016 2:0 
1 1:27.241823 2:0 
1 1:30.588657 2:0 
1 1:36.411312 2:0 
1 1:35.777107 2:0 
1 1:30.214565 2:0 
1 1:34.66045 2:0 
1 1:41.726807 2:0 
1 1:39.889652 2:0 
1 1:31.163031 2:0 
1 1:23.834335 2:0 
1 1:20.498592 2:0 
1 1:21.998243 2:0 
1 1:26.145456 2:0 
0.006156628650931511 1:25.545118 2:0 
1 1:24.438232 2:0 
1 1:24.441177 2:0 
1 1:18.295282 2:0 
1 1:18.967035 2:0 
1 1:24.43549 2:0 
1 1:31.010363 2:0 
1 1:34.17588 2:0 
1 1:29.435923 2:0 
1 1:18.804743 2:0 
1 1:18.804743 2:0 
1 1:21.938967 2:0 
1 1:27.106922 2:0 
1 1:31.991606 2:0 
1 1:32.736088 2:0 
1 1:29.532486 2:0 
1 1:25.265076 2:0 
1 1:25.933554 2:0 
1 1:36.002563 2:0 
1 1:44.70322 2:0 
1 1:43.012825 2:0 
1 1:36.691059 2:0 
1 1:32.918739 2:0 
1 1:31.016043 2:0 
1 1:34.238312 2:0 
1 1:38.776436 2:0 
1 1:44.213829 2:0 
1 1:45.436939 2:0 
1 1:41.823566 2:0 
1 1:35.416386 2:0 
1 1:30.982998 2:0 
1 1:22.796072 2:0 
1 1:26.681927 2:0 
1 1:31.367363 2:0 
1 1:32.227173 2:0 
1 1:29.318558 2:0 
1 1:26.852606 2:0 
1 1:28.098087 2:0 
1 1:26.545622 2:0 
1 1:24.302595 2:0 
1 1:28.218603 2:0 
1 1:33.483467 2:0 
1 1:36.645298 2:0 
1 1:35.676517 2:0 
1 1:34.157574 2:0 
1 1:33.34544 2:0 
1 1:33.814976 2:0 
1 1:35.830818 2:0 
1 1:39.778553 2:0 
1 1:42.173027 2:0 
1 1:43.873814 2:0 
1 1:43.701672 2:0 
1 1:41.549454 2:0 
1 1:39.336643 2:0 
1 1:41.827171 2:0 
1 1:45.109436 2:0 
1 1:47.634212 2:0 
1 1:49.056664 2:0 
1 1:49.020264 2:0 
1 1:48.898148 2:0 
1 1:47.590008 2:0 
1 1:46.89978 2:0 
1 1:46.060699 2:0 
1 1:44.196495 2:0 
1 1:45.133053 2:0 
1 1:45.833366 2:0 
1 1:45.833366 2:0 
1 1:46.124203 2:0 
1 1:46.258633 2:0 
1 1:46.734177 2:0 
1 1:48.192902 2:0 
1 1:49.688053 2:0 
1 1:50.044121 2:0 
1 1:49.55341 2:0 
1 1:47.614273 2:0 
1 1:47.614273 2:0 
1 1:46.792233 2:0 
1 1:46.792233 2:0 
1 1:46.792233 2:0 
1 1:46.013668 2:0 
1 1:45.326069 2:0 
1 1:43.574165 2:0 
1 1:46.06937 2:0 
1 1:46.46262 2:0 
1 1:43.475536 2:0 
1 1:39.860493 2:0 
1 1:37.090893 2:0 
1 1:35.665886 2:0 
1 1:36.375153 2:0 
1 1:38.508251 2:0 
1 1:42.244015 2:0 
1 1:46.100956 2:0 
1 1:45.381058 2:0 
1 1:39.898346 2:0 
1 1:34.477119 2:0 
1 1:29.173538 2:0 
1 1:28.340881 2:0 
1 1:34.194656 2:0 
1 1:37.688728 2:0 
1 1:37.139339 2:0 
1 1:32.922634 2:0 
1 1:29.13398 2:0 
1 1:29.720934 2:0 
1 1:31.003767 2:0 
1 1:33.855572 2:0 
1 1:36.85355 2:0 
1 1:41.202686 2:0 
1 1:46.28437 2:0 
1 1:47.832424 2:0 
1 1:44.906349 2:0 
1 1:40.265488 2:0 
1 1:33.367603 2:0 
1 1:29.721495 2:0 
1 1:28.418896 2:0 
1 1:30.899075 2:0 
1 1:36.265026 2:0 
1 1:39.361317 2:0 
1 1:40.399448 2:0 
1 1:38.161976 2:0 
1 1:36.067154 2:0 
1 1:36.706486 2:0 
1 1:36.706486 2:0 
1 1:37.475857 2:0 
1 1:39.903313 2:0 
1 1:42.454739 2:0 
1 1:47.183308 2:0 
1 1:52.086449 2:0 
1 1:52.757507 2:0 
1 1:50.382282 2:0 
1 1:48.407696 2:0 
1 1:47.645859 2:0 
1 1:49.247959 2:0 
1 1:52.297314 2:0 
1 1:54.876926 2:0 
1 1:57.54459 2:0 
1 1:57.700024 2:0 
1 1:56.872417 2:0 
1 1:56.541481 2:0 
1 1:56.820671 2:0 
1 1:57.058109 2:0 
1 1:56.190048 2:0 
1 1:53.614864 2:0 
1 1:50.617359 2:0 
1 1:49.019085 2:0 
1 1:45.750816 2:0 
1 1:45.750816 2:0 
1 1:46.883553 2:0 
1 1:47.54784 2:0 
1 1:47.195423 2:0 
1 1:44.264477 2:0 
1 1:42.047577 2:0 
1 1:43.756718 2:0 
1 1:45.605762 2:0 
1 1:48.481483 2:0 
1 1:52.185394 2:0 
1 1:56.74958 2:0 
1 1:58.752918 2:0 
1 1:58.275276 2:0 
1 1:56.808762 2:0 
