svm_type c_svc
kernel_type linear
nr_class 2
total_sv 1234
rho 0.046738 
label 0 1 
nr_sv 619 615 
SV 
1 0:0 1:0 
1 0:0 1:0 
1 0:0 1:0 
1 0:0 1:0 
1 0:0 1:0 
0.7256693537110883 0:0 1:0 
1 0:0 1:0 
1 0:0 1:0 
1 0:0 1:0 
1 0:0 1:0 
1 0:0 1:0 
1 0:0 1:0 
1 0:0 1:0 
1 0:0 1:0 
1 0:0 1:0 
1 0:0 1:0 
1 0:0 1:0 
1 0:0 1:0 
1 0:0 1:0 
1 0:0 1:0 
1 0:0 1:0 
1 0:0 1:0 
1 0:0 1:0 
1 0:0 1:0 
1 0:0 1:0 
1 0:0 1:0 
1 0:0 1:0 
1 0:0 1:0 
1 0:0 1:0 
1 0:0 1:0 
1 0:0 1:0 
1 0:0 1:0 
1 0:0 1:0 
1 0:0 1:0 
1 0:0 1:0 
1 0:0 1:0 
1 0:0 1:0 
1 0:0 1:0 
1 0:0 1:0 
1 0:0 1:0 
1 0:0 1:0 
1 0:0 1:0 
1 0:0 1:0 
1 0:0 1:0 
1 0:0 1:0 
1 0:0 1:0 
1 0:0 1:0 
1 0:0 1:0 
1 0:0 1:0 
1 0:0 1:0 
1 0:0 1:0 
1 0:0 1:0 
1 0:0 1:0 
1 0:0 1:0 
1 0:0 1:0 
1 0:0 1:0 
1 0:0 1:0 
1 0:0 1:0 
1 0:0 1:0 
1 0:0 1:0 
1 0:0 1:0 
1 0:0 1:0 
1 0:0 1:0 
1 0:0 1:0 
1 0:0 1:0 
1 0:0 1:0 
1 0:0 1:0 
1 0:0 1:0 
1 0:0 1:0 
1 0:0 1:0 
1 0:0 1:0 
1 0:0 1:0 
1 0:0 1:0 
1 0:0 1:0 
1 0:0 1:0 
1 0:0 1:0 
1 0:0 1:0 
1 0:0 1:0 
1 0:0 1:0 
1 0:0 1:0 
1 0:0 1:0 
1 0:0 1:0 
1 0:0 1:0 
1 0:0 1:0 
1 0:0 1:0 
1 0:0 1:0 
1 0:0 1:0 
1 0:0 1:0 
1 0:0 1:0 
1 0:0 1:0 
1 0:0 1:0 
1 0:0 1:0 
1 0:0 1:0 
1 0:0 1:0 
1 0:0 1:0 
1 0:0 1:0 
1 0:0 1:0 
1 0:0 1:0 
1 0:0 1:0 
1 0:0 1:0 
1 0:0 1:0 
1 0:0 1:0 
1 0:0 1:0 
1 0:0 1:0 
1 0:0 1:0 
1 0:0 1:0 
1 0:0 1:0 
1 0:0 1:0 
1 0:0 1:0 
1 0:0 1:0 
1 0:0 1:0 
1 0:0 1:0 
1 0:0 1:0 
1 0:0 1:0 
1 0:0 1:0 
1 0:0 1:0 
1 0:0 1:0 
1 0:0 1:0 
1 0:0 1:0 
1 0:0 1:0 
1 0:0 1:0 
1 0:0 1:0 
1 0:0 1:0 
1 0:0 1:0 
1 0:0 1:0 
1 0:0 1:0 
1 0:0 1:0 
1 0:0 1:0 
1 0:0 1:0 
1 0:0 1:0 
1 0:0 1:0 
1 0:0 1:0 
1 0:0 1:0 
1 0:0 1:0 
1 0:0 1:0 
1 0:0 1:0 
1 0:0 1:0 
1 0:0 1:0 
1 0:0 1:0 
1 0:0 1:0 
1 0:0 1:0 
1 0:0 1:0 
1 0:0 1:0 
1 0:0 1:0 
1 0:0 1:0 
1 0:0 1:0 
1 0:0 1:0 
1 0:0 1:0 
1 0:0 1:0 
1 0:0 1:0 
1 0:0 1:0 
1 0:0 1:0 
1 0:0 1:0 
1 0:0 1:0 
1 0:0 1:0 
1 0:0 1:0 
1 0:0 1:0 
1 0:0 1:0 
1 0:0 1:0 
1 0:0 1:0 
1 0:0 1:0 
1 0:0 1:0 
1 0:0 1:0 
1 0:0 1:0 
1 0:0 1:0 
1 0:0 1:0 
1 0:0 1:0 
1 0:0 1:0 
1 0:0 1:0 
1 0:0 1:0 
1 0:0 1:0 
1 0:0 1:0 
1 0:0 1:0 
1 0:0 1:0 
1 0:0 1:0 
1 0:0 1:0 
1 0:0 1:0 
1 0:0 1:0 
1 0:0 1:0 
1 0:0 1:0 
1 0:0 1:0 
1 0:0 1:0 
1 0:0 1:0 
1 0:0 1:0 
1 0:0 1:0 
1 0:0 1:0 
1 0:0 1:0 
1 0:0 1:0 
1 0:0 1:0 
1 0:0 1:0 
1 0:0 1:0 
1 0:0 1:0 
1 0:0 1:0 
1 0:0 1:0 
1 0:0 1:0 
1 0:0 1:0 
1 0:0 1:0 
1 0:0 1:0 
1 0:0 1:0 
1 0:0 1:0 
1 0:0 1:0 
1 0:0 1:0 
1 0:0 1:0 
1 0:0 1:0 
1 0:0 1:0 
1 0:0 1:0 
1 0:0 1:0 
1 0:0 1:0 
1 0:0 1:0 
1 0:0 1:0 
1 0:0 1:0 
1 0:0 1:0 
1 0:0 1:0 
1 0:0 1:0 
1 0:0 1:0 
1 0:0 1:0 
1 0:0 1:0 
1 0:0 1:0 
1 0:0 1:0 
1 0:0 1:0 
1 0:0 1:0 
1 0:0 1:0 
1 0:0 1:0 
1 0:0 1:0 
1 0:0 1:0 
1 0:0 1:0 
1 0:0 1:0 
1 0:0 1:0 
1 0:0 1:0 
1 0:0 1:0 
1 0:0 1:0 
1 0:0 1:0 
1 0:0 1:0 
1 0:0 1:0 
1 0:0 1:0 
1 0:0 1:0 
1 0:0 1:0 
1 0:0 1:0 
1 0:0 1:0 
1 0:0 1:0 
1 0:0 1:0 
1 0:0 1:0 
1 0:0 1:0 
1 0:0 1:0 
1 0:0 1:0 
1 0:0 1:0 
1 0:0 1:0 
1 0:0 1:0 
1 0:0 1:0 
1 0:0 1:0 
1 0:0 1:0 
1 0:0 1:0 
1 0:0 1:0 
1 0:0 1:0 
1 0:0 1:0 
1 0:0 1:0 
1 0:0 1:0 
1 0:0 1:0 
1 0:0 1:0 
1 0:0 1:0 
0.984489849069822 0:0 1:0 
1 0:73.223015 1:0 
1 0:64.410767 1:0 
1 0:73.503357 1:0 
1 0:64.938522 1:0 
1 0:64.938522 1:0 
1 0:74.509239 1:0 
1 0:78.042595 1:0 
1 0:77.673225 1:0 
1 0:74.395088 1:0 
1 0:70.218552 1:0 
1 0:64.910149 1:0 
1 0:74.018585 1:0 
1 0:80.197662 1:0 
0.4830057012003365 0:77.70742 1:0 
1 0:77.321648 1:0 
1 0:77.73233 1:0 
1 0:77.371986 1:0 
1 0:76.574699 1:0 
1 0:76.900284 1:0 
1 0:76.900284 1:0 
1 0:76.667664 1:0 
1 0:71.426918 1:0 
1 0:72.195869 1:0 
1 0:89.523857 1:0 
1 0:96.098534 1:0 
1 0:91.749374 1:0 
1 0:83.452408 1:0 
1 0:73.08316 1:0 
1 0:79.612808 1:0 
1 0:86.868851 1:0 
1 0:87.927383 1:0 
1 0:84.462929 1:0 
1 0:79.927216 1:0 
1 0:82.993919 1:0 
1 0:86.085793 1:0 
1 0:88.473846 1:0 
1 0:87.389961 1:0 
1 0:84.7929 1:0 
1 0:85.651123 1:0 
1 0:88.972427 1:0 
1 0:91.112701 1:0 
1 0:94.273827 1:0 
1 0:94.142418 1:0 
1 0:93.590164 1:0 
1 0:93.773399 1:0 
1 0:93.571724 1:0 
1 0:92.137268 1:0 
1 0:83.002815 1:0 
0.007705260571311613 0:78.833672 1:0 
1 0:71.419418 1:0 
1 0:71.559036 1:0 
1 0:70.994583 1:0 
1 0:71.213203 1:0 
1 0:76.90844 1:0 
1 0:79.23748 1:0 
1 0:73.160515 1:0 
1 0:71.296127 1:0 
1 0:74.725227 1:0 
1 0:75.105927 1:0 
1 0:70.192894 1:0 
1 0:70.157852 1:0 
1 0:72.050423 1:0 
1 0:69.083694 1:0 
1 0:70.711929 1:0 
1 0:73.160675 1:0 
1 0:73.472046 1:0 
1 0:71.903053 1:0 
1 0:70.664482 1:0 
1 0:70.664482 1:0 
1 0:69.799965 1:0 
1 0:71.789902 1:0 
1 0:74.398926 1:0 
1 0:74.363701 1:0 
1 0:73.16581 1:0 
1 0:73.955566 1:0 
1 0:74.762817 1:0 
1 0:74.890976 1:0 
1 0:74.767937 1:0 
1 0:74.767937 1:0 
1 0:75.173508 1:0 
1 0:74.316971 1:0 
1 0:75.037117 1:0 
1 0:75.362175 1:0 
1 0:75.951576 1:0 
1 0:76.764214 1:0 
1 0:76.796158 1:0 
1 0:76.566414 1:0 
1 0:76.597229 1:0 
1 0:76.453682 1:0 
1 0:76.908562 1:0 
1 0:76.235458 1:0 
1 0:75.71875 1:0 
1 0:76.317078 1:0 
1 0:79.724014 1:0 
1 0:79.057587 1:0 
1 0:80.923767 1:0 
1 0:81.798332 1:0 
1 0:82.009193 1:0 
1 0:80.846924 1:0 
1 0:74.445641 1:0 
1 0:73.789017 1:0 
1 0:71.241806 1:0 
1 0:70.669914 1:0 
1 0:70.909576 1:0 
1 0:64.717216 1:0 
1 0:77.043274 1:0 
1 0:84.053986 1:0 
1 0:85.605972 1:0 
1 0:86.818642 1:0 
1 0:88.373543 1:0 
1 0:88.373543 1:0 
1 0:88.44915 1:0 
1 0:87.752098 1:0 
1 0:86.808243 1:0 
1 0:85.576576 1:0 
1 0:84.108742 1:0 
1 0:83.068146 1:0 
1 0:80.835144 1:0 
1 0:78.348709 1:0 
1 0:75.656143 1:0 
1 0:77.205994 1:0 
1 0:77.85128 1:0 
1 0:74.917809 1:0 
1 0:72.585648 1:0 
0.3798986277811779 0:67.60289 1:0 
1 0:74.31955 1:0 
1 0:77.001541 1:0 
1 0:73.606804 1:0 
1 0:70.271088 1:0 
0.05873044243791462 0:69.24585 1:0 
1 0:70.374649 1:0 
1 0:76.201263 1:0 
1 0:79.35508 1:0 
1 0:84.883804 1:0 
1 0:86.341896 1:0 
1 0:86.341896 1:0 
1 0:86.142441 1:0 
1 0:86.954269 1:0 
1 0:88.840851 1:0 
1 0:89.911201 1:0 
1 0:92.309425 1:0 
1 0:93.538757 1:0 
1 0:92.757141 1:0 
1 0:85.996727 1:0 
1 0:72.242592 1:0 
1 0:69.49382 1:0 
1 0:76.696144 1:0 
1 0:83.662979 1:0 
1 0:92.992661 1:0 
1 0:96.485062 1:0 
1 0:96.116791 1:0 
1 0:86.196213 1:0 
1 0:74.27317 1:0 
0.07286691689840299 0:65.801399 1:0 
1 0:75.414864 1:0 
1 0:76.126358 1:0 
1 0:70.831093 1:0 
1 0:81.435814 1:0 
1 0:76.856407 1:0 
1 0:72.855782 1:0 
1 0:74.686043 1:0 
1 0:79.762444 1:0 
1 0:73.548553 1:0 
1 0:73.505486 1:0 
1 0:77.066345 1:0 
1 0:71.013451 1:0 
1 0:72.814758 1:0 
1 0:84.732933 1:0 
1 0:78.07177 1:0 
1 0:79.946625 1:0 
1 0:92.453537 1:0 
1 0:86.090149 1:0 
1 0:70.711693 1:0 
1 0:75.119949 1:0 
1 0:90.086571 1:0 
1 0:94.229904 1:0 
1 0:82.051254 1:0 
1 0:70.903198 1:0 
1 0:75.25499 1:0 
1 0:84.13279 1:0 
1 0:106.89787 1:0 
1 0:112.12276 1:0 
1 0:97.304863 1:0 
1 0:74.791573 1:0 
0.059666780299354 0:64.986565 1:0 
1 0:71.050896 1:0 
1 0:64.476585 1:0 
1 0:89.159851 1:0 
1 0:112.35965 1:0 
1 0:113.83115 1:0 
1 0:88.682793 1:0 
1 0:75.743141 1:0 
1 0:77.319527 1:0 
1 0:64.805817 1:0 
1 0:72.951263 1:0 
1 0:102.84286 1:0 
1 0:104.8484 1:0 
1 0:72.741776 1:0 
1 0:79.277832 1:0 
1 0:115.5621 1:0 
1 0:111.1864 1:0 
1 0:84.076683 1:0 
1 0:70.094955 1:0 
1 0:70.31768 1:0 
1 0:64.666603 1:0 
1 0:69.995659 1:0 
1 0:70.647156 1:0 
1 0:69.437294 1:0 
1 0:71.48806 1:0 
1 0:72.226028 1:0 
1 0:74.172852 1:0 
1 0:73.918976 1:0 
1 0:74.245934 1:0 
1 0:74.685585 1:0 
1 0:74.786438 1:0 
1 0:74.63002 1:0 
1 0:72.550644 1:0 
1 0:73.506691 1:0 
1 0:73.78743 1:0 
1 0:73.921867 1:0 
1 0:74.056274 1:0 
1 0:73.804459 1:0 
1 0:74.208992 1:0 
1 0:73.723434 1:0 
1 0:74.336617 1:0 
1 0:75.503586 1:0 
1 0:76.495628 1:0 
1 0:77.303246 1:0 
1 0:77.675667 1:0 
1 0:76.428894 1:0 
1 0:75.510315 1:0 
1 0:79.140594 1:0 
1 0:81.671394 1:0 
1 0:80.778679 1:0 
1 0:74.504662 1:0 
1 0:75.885941 1:0 
1 0:74.443748 1:0 
1 0:74.443748 1:0 
1 0:77.46212 1:0 
1 0:82.150871 1:0 
1 0:81.208069 1:0 
1 0:82.901192 1:0 
1 0:84.37738 1:0 
1 0:84.30114 1:0 
1 0:83.464951 1:0 
1 0:83.464951 1:0 
1 0:83.816185 1:0 
1 0:80.383499 1:0 
1 0:72.208488 1:0 
1 0:91.572624 1:0 
1 0:94.353996 1:0 
1 0:70.457397 1:0 
0.1113962104979533 0:69.486862 1:0 
1 0:65.01326 1:0 
1 0:69.742569 1:0 
1 0:72.543465 1:0 
1 0:87.591515 1:0 
1 0:90.756851 1:0 
1 0:85.714119 1:0 
1 0:77.76651 1:0 
1 0:80.15284 1:0 
1 0:95.137253 1:0 
1 0:109.43342 1:0 
1 0:107.99209 1:0 
1 0:89.245903 1:0 
1 0:76.310944 1:0 
1 0:70.137665 1:0 
1 0:74.522156 1:0 
1 0:73.164253 1:0 
1 0:75.280121 1:0 
1 0:71.862144 1:0 
1 0:71.528259 1:0 
0.1366046011255639 0:79.297668 1:0 
1 0:70.169701 1:0 
1 0:73.468025 1:0 
1 0:74.43264 1:0 
1 0:73.833168 1:0 
1 0:72.811249 1:0 
1 0:76.182365 1:0 
1 0:76.182365 1:0 
1 0:79.408089 1:0 
1 0:81.020691 1:0 
1 0:81.696487 1:0 
1 0:82.974884 1:0 
1 0:83.120598 1:0 
1 0:83.150421 1:0 
1 0:83.020699 1:0 
1 0:83.533714 1:0 
1 0:81.844528 1:0 
1 0:74.508339 1:0 
1 0:72.576981 1:0 
1 0:71.605873 1:0 
1 0:69.573174 1:0 
1 0:72.151421 1:2.3844097 
1 0:72.201271 1:2.5962644 
1 0:71.33181 1:2.6623659 
1 0:72.044403 1:2.6868646 
1 0:72.002426 1:2.6235516 
1 0:70.769432 1:2.7413161 
1 0:94.013222 1:2.4713194 
1 0:88.014557 1:2.3128736 
1 0:86.802246 1:2.4905035 
1 0:93.193771 1:2.2827969 
1 0:89.719193 1:2.2714689 
1 0:84.033775 1:2.2649765 
1 0:86.542191 1:2.2555192 
1 0:91.308182 1:2.1860452 
1 0:70.785973 1:2.1638272 
1 0:71.492775 1:2.3030691 
1 0:84.801552 1:2.3981051 
1 0:72.161461 1:2.3848283 
1 0:91.582825 1:1.6892527 
1 0:69.025337 1:1.9937987 
1 0:91.804848 1:2.2216756 
1 0:92.716583 1:2.3141868 
1 0:71.373932 1:2.3682799 
1 0:71.667068 1:3.0314057 
1 0:71.283379 1:2.9209249 
1 0:1.8324077 1:82.528732 
1 0:69.146942 1:1.419803 
1 0:69.219406 1:1.3785816 
1 0:69.111641 1:1.339614 
0.1758463065934406 0:68.637932 1:1.321371 
0.1670762588639275 0:68.927841 1:1.3435061 
1 0:70.180199 1:1.5426089 
1 0:72.0784 1:1.7243166 
1 0:70.656395 1:1.8887918 
1 0:64.120445 1:0.21994586 
0.4243544640507164 0:64.191467 1:0.21720515 
1 0:64.121376 1:0.21599014 
1 0:64.374207 1:0.2160434 
1 0:86.715263 1:0.52010268 
1 0:81.990829 1:0.46384886 
1 0:73.090157 1:0.6928466 
1 0:70.37204 1:0.73291743 
1 0:72.252144 1:0.74207175 
1 0:74.275818 1:0.74646628 
1 0:72.909348 1:0.71044528 
1 0:70.045731 1:0.45952892 
1 0:88.103874 1:0.47815344 
1 0:94.035164 1:0.48686531 
1 0:89.01725 1:0.48737848 
1 0:85.001244 1:0.490639 
1 0:88.268143 1:0.50463456 
1 0:92.31044 1:0.50265855 
1 0:89.968727 1:0.49143365 
1 0:0 1:20.945845 
1 0:0 1:20.770306 
1 0:0 1:21.034843 
1 0:0 1:20.908401 
1 0:0 1:20.785442 
1 0:0 1:20.687973 
1 0:0 1:20.618521 
1 0:0 1:21.276848 
1 0:0 1:20.822165 
0.9237689222747498 0:0 1:21.164907 
1 0:0 1:21.258158 
1 0:0 1:21.254055 
-1 0:76.673851 1:6.1676331 
-1 0:82.280434 1:6.3290954 
-1 0:85.683678 1:6.1995473 
-1 0:85.494606 1:6.2101569 
-1 0:85.153168 1:6.2109971 
-1 0:83.107025 1:6.2143717 
-1 0:73.23909 1:0.38027111 
-1 0:73.559517 1:0.52912283 
-1 0:77.168945 1:0.53428799 
-1 0:73.362976 1:0.54826748 
-1 0:78.452087 1:0.56603956 
-1 0:78.285889 1:0.59948748 
-1 0:75.319008 1:0.63782561 
-1 0:92.626076 1:0.66587192 
-1 0:92.626076 1:0.6714164 
-1 0:91.676254 1:0.67403847 
-1 0:96.910728 1:0.67400533 
-1 0:93.951729 1:0.67285246 
-1 0:89.526802 1:0.67419946 
-1 0:85.782013 1:0.67450291 
-1 0:82.505486 1:0.6757918 
-1 0:76.911407 1:0.6774407 
-1 0:73.496353 1:0.41445681 
-1 0:97.432625 1:0.61221343 
-1 0:91.042336 1:0.47724187 
-1 0:80.325005 1:0.4754943 
-1 0:76.980904 1:0.34717858 
-1 0:83.607277 1:0.37226543 
-1 0:84.066177 1:0.37239918 
-1 0:75.900154 1:0.3757759 
-1 0:73.688667 1:0.7275871 
-1 0:75.823212 1:0.72587341 
-1 0:74.227493 1:0.720707 
-1 0:75.803665 1:0.73124892 
-1 0:95.460762 1:0.30283862 
-1 0:98.58342 1:0.26373115 
-1 0:82.696754 1:0.46837676 
-1 0:84.85247 1:0.46819189 
-1 0:84.276939 1:0.48139882 
-1 0:81.721848 1:0.51918983 
-1 0:76.776054 1:0.56599748 
-1 0:73.660919 1:0.59743088 
-1 0:74.580177 1:0.59855813 
-1 0:79.263237 1:0.96023405 
-1 0:131.31671 1:0.94706321 
-1 0:104.42996 1:0.93741244 
-1 0:92.893631 1:0.94134963 
-1 0:130.29979 1:0.94779855 
-1 0:130.4313 1:0.98119605 
-1 0:129.75592 1:1.0187491 
-1 0:128.08757 1:0.98826396 
-1 0:96.158333 1:0.99846327 
-1 0:73.566925 1:0.88357776 
-1 0:74.009079 1:0.90789998 
-1 0:73.553734 1:0.9268775 
-1 0:73.998627 1:0.93303746 
-1 0:73.021973 1:0.94618452 
-1 0:72.989426 1:0.94872206 
-1 0:72.856155 1:0.94830829 
-1 0:75.009743 1:0.89990509 
-1 0:75.564743 1:0.8953681 
-1 0:73.797096 1:0.89989185 
-1 0:90.427628 1:0.69522446 
-1 0:111.67313 1:0.71208525 
-1 0:111.02828 1:0.71012706 
-1 0:110.61588 1:0.69714212 
-1 0:106.19843 1:0.68199581 
-1 0:111.48933 1:0.66652375 
-1 0:127.50932 1:0.66029888 
-1 0:111.05239 1:0.63235664 
-1 0:130.8607 1:0.62228948 
-1 0:125.80456 1:0.55601287 
-0.002525632380866343 0:131.66354 1:0.55693525 
-1 0:100.52061 1:0.60614479 
-1 0:96.830658 1:0.60702378 
-1 0:102.767 1:0.6070531 
-0.4454716987724668 0:112.29889 1:0.60725725 
-0.2583913132926552 0:131.41301 1:0.61563474 
-1 0:126.36749 1:0.61815029 
-1 0:111.54001 1:0.61687088 
-1 0:105.24873 1:0.61807907 
-1 0:128.80431 1:0.6225161 
-1 0:106.8474 1:0.66289133 
-1 0:82.994934 1:0.66463566 
-1 0:80.200653 1:0.68745309 
-1 0:81.695091 1:0.67756164 
-1 0:79.955582 1:0.64642704 
-1 0:77.968941 1:0.63314426 
-1 0:77.302765 1:0.66718727 
-1 0:76.013443 1:0.67089313 
-1 0:102.7247 1:0.77425826 
-1 0:109.74949 1:0.75958353 
-1 0:102.70937 1:0.75445473 
-1 0:99.244186 1:0.75459522 
-1 0:102.76987 1:0.75629085 
-1 0:100.18486 1:0.76296759 
-1 0:90.657692 1:0.76790935 
-1 0:82.000023 1:0.76948231 
-1 0:78.916931 1:0.77047592 
-1 0:83.359558 1:0.77096123 
-1 0:89.561607 1:0.77262014 
-1 0:96.340363 1:0.78065181 
-1 0:101.9251 1:0.78281081 
-1 0:103.23087 1:0.78515106 
-1 0:101.42733 1:0.79433227 
-1 0:101.11775 1:0.81265569 
-1 0:103.5271 1:0.8252421 
-1 0:106.35976 1:0.82215381 
-1 0:107.29191 1:0.81822956 
-1 0:107.7649 1:0.8159067 
-1 0:107.44142 1:0.81499797 
-1 0:102.71388 1:0.81580377 
-1 0:85.591812 1:0.81450361 
-1 0:74.378098 1:0.81220269 
-1 0:85.0466 1:0.81264633 
-1 0:94.959305 1:0.80919391 
-1 0:106.75753 1:0.80630153 
-1 0:103.44492 1:0.80439425 
-1 0:84.185104 1:0.80407268 
-1 0:73.575432 1:0.80242997 
-1 0:101.39493 1:0.80022746 
-1 0:104.1054 1:0.78257465 
-1 0:72.811249 1:0.81044638 
-1 0:89.514771 1:0.83050203 
-1 0:86.078644 1:0.80463225 
-1 0:82.485893 1:0.78035712 
-1 0:81.779442 1:0.76096684 
-1 0:80.493454 1:0.74003208 
-1 0:79.109001 1:0.87347072 
-1 0:80.347504 1:0.83703476 
-1 0:74.057762 1:0.80479383 
-1 0:74.897316 1:0.74428785 
-1 0:87.111702 1:0.75960129 
-1 0:99.069099 1:0.76792634 
-1 0:107.6293 1:0.75883347 
-1 0:105.4645 1:0.76298141 
-1 0:101.86954 1:0.76312202 
-1 0:109.12559 1:0.74014753 
-1 0:107.83628 1:0.74335867 
-1 0:91.10183 1:0.90897262 
-1 0:78.236435 1:0.63440228 
-1 0:74.586441 1:0.53858095 
-1 0:88.1903 1:0.55278409 
-1 0:88.87191 1:0.59977263 
-1 0:87.208076 1:0.63821292 
-1 0:86.05751 1:0.65571344 
-1 0:101.52783 1:0.65152407 
-1 0:107.86379 1:0.64441723 
-1 0:108.32664 1:0.63312387 
-1 0:107.62834 1:0.56073165 
-1 0:99.761047 1:0.55814654 
-1 0:88.868034 1:0.55372626 
-1 0:83.416924 1:0.5561347 
-1 0:77.350227 1:0.54448897 
-1 0:72.747337 1:0.5345673 
-1 0:75.765358 1:0.53230363 
-1 0:76.113312 1:0.53563404 
-1 0:80.116417 1:0.53645295 
-1 0:83.502571 1:0.53283828 
-1 0:75.325203 1:0.53193372 
-1 0:81.273788 1:0.53183311 
-1 0:86.419304 1:0.5319407 
-1 0:77.27462 1:0.53149402 
-1 0:74.59095 1:0.52315903 
-1 0:88.819504 1:0.52218419 
-1 0:102.80045 1:0.52316827 
-1 0:100.46492 1:0.52196151 
-1 0:95.783531 1:0.52014124 
-1 0:97.325233 1:0.5193038 
-1 0:101.76186 1:0.51927364 
-1 0:105.45018 1:0.51933366 
-1 0:105.88451 1:0.51906812 
-1 0:104.16073 1:0.51909047 
-1 0:99.734718 1:0.52117836 
-1 0:102.94315 1:0.52114022 
-1 0:106.01297 1:0.5199911 
-1 0:106.9426 1:0.52018571 
-1 0:98.953148 1:0.51967752 
-1 0:88.812004 1:0.51712281 
-1 0:89.039131 1:0.51521313 
-1 0:100.58276 1:0.51472807 
-1 0:111.51821 1:0.5141049 
-1 0:104.11168 1:0.51411611 
-1 0:101.7037 1:0.51340908 
-1 0:106.41957 1:0.51166701 
-1 0:110.379 1:0.50957805 
-1 0:106.33067 1:0.50810885 
-1 0:100.00407 1:0.50781286 
-1 0:97.574478 1:0.50792748 
-1 0:102.44792 1:0.51095766 
-1 0:109.34995 1:0.51798427 
-1 0:109.55516 1:0.52483511 
-1 0:98.568726 1:0.52847326 
-1 0:83.524658 1:0.52995402 
-1 0:84.223763 1:0.52960753 
-1 0:96.635841 1:0.52678496 
-1 0:107.72231 1:0.52294701 
-1 0:105.20435 1:0.5231086 
-1 0:94.934212 1:0.52318478 
-1 0:92.561356 1:0.52312595 
-1 0:101.73814 1:0.52258909 
-1 0:102.56989 1:0.52149171 
-1 0:102.01118 1:0.52170539 
-1 0:107.26777 1:0.52135998 
-1 0:105.95222 1:0.52328151 
-1 0:92.021545 1:0.51887554 
-1 0:75.315727 1:0.51344424 
-1 0:81.497475 1:0.51509947 
-1 0:91.602577 1:0.5173955 
-1 0:99.983765 1:0.51929504 
-1 0:97.093483 1:0.51762688 
-1 0:82.23645 1:0.51459366 
-1 0:73.724899 1:0.5149101 
-1 0:81.968391 1:0.51388764 
-1 0:96.415604 1:0.51280016 
-1 0:98.951164 1:0.51284957 
-1 0:108.75158 1:0.51280689 
-1 0:106.72948 1:0.53506947 
-1 0:103.96992 1:0.53764939 
-1 0:111.54865 1:0.53767747 
-0.01691432984053482 0:131.01537 1:0.53761166 
-1 0:128.55617 1:0.53999776 
-1 0:110.41317 1:0.52526033 
-1 0:87.676231 1:0.52549839 
-1 0:73.27002 1:0.52740175 
-1 0:77.849541 1:0.54168463 
-1 0:98.037079 1:0.54006255 
-1 0:97.226242 1:0.53587967 
-1 0:80.414734 1:0.53433174 
-1 0:91.065369 1:0.52722764 
-1 0:104.69802 1:0.50426084 
-1 0:103.76291 1:0.49813485 
-1 0:103.14985 1:0.49186751 
-1 0:103.44753 1:0.49472186 
-1 0:94.384125 1:0.50630379 
-1 0:86.630684 1:0.51280928 
-1 0:84.395515 1:0.51144403 
-1 0:88.666702 1:0.5131588 
-1 0:92.28318 1:0.52655071 
-1 0:81.076454 1:0.5556041 
-1 0:72.885437 1:0.56156844 
-1 0:74.522263 1:0.64383686 
-1 0:98.619179 1:0.64284343 
-1 0:101.82769 1:0.63737613 
-1 0:98.240578 1:0.62551576 
-1 0:93.22757 1:0.62086815 
-1 0:84.28582 1:0.62983 
-1 0:79.011726 1:0.64195043 
-1 0:92.390648 1:0.64008754 
-1 0:97.387672 1:0.63185877 
-1 0:83.819069 1:0.62501395 
-1 0:73.504189 1:0.62213427 
-1 0:74.5112 1:0.61622888 
-1 0:86.918587 1:0.61000109 
-1 0:107.78943 1:0.60307109 
-1 0:129.04726 1:0.61781079 
-1 0:130.67381 1:0.62142217 
-1 0:129.31088 1:0.61361057 
-1 0:105.50655 1:0.60273337 
-1 0:110.38235 1:0.6032728 
-1 0:102.18819 1:0.59661603 
-1 0:129.56795 1:0.54420626 
-1 0:108.79028 1:0.54156667 
-1 0:88.31543 1:0.5417605 
-1 0:82.444893 1:0.53814709 
-1 0:100.42498 1:0.51558584 
-1 0:83.545395 1:0.49425405 
-1 0:96.070793 1:0.4227151 
-1 0:87.693001 1:0.4179118 
-1 0:89.384064 1:0.42177948 
-1 0:80.77713 1:0.42329812 
-1 0:79.246399 1:0.45025626 
-1 0:72.624405 1:0.42926574 
-1 0:82.064026 1:0.38525641 
-1 0:98.80027 1:0.36233476 
-1 0:82.027634 1:0.33578664 
-1 0:85.109116 1:0.37436593 
-1 0:82.835464 1:0.40444273 
-1 0:87.750076 1:0.43958038 
-1 0:99.897766 1:0.43766013 
-1 0:102.41682 1:0.43405578 
-1 0:102.42033 1:0.43135384 
-1 0:100.97654 1:0.43558934 
-1 0:96.602005 1:0.44299415 
-1 0:90.025383 1:0.44998172 
-1 0:82.239914 1:0.45918131 
-1 0:76.029808 1:0.46838978 
-1 0:76.822784 1:0.48046857 
-1 0:79.761353 1:0.46775326 
-0.7499525714591277 0:0 1:113.66775 
-1 0:0 1:113.61282 
-0.2083034828967875 0:0 1:0 
-1 0:0 1:0 
-1 0:0 1:0 
-1 0:0 1:0 
-1 0:0 1:0 
-1 0:0 1:0 
-1 0:0 1:0 
-1 0:0 1:0 
-1 0:0 1:0 
-1 0:0 1:0 
-1 0:0 1:0 
-1 0:0 1:0 
-1 0:0 1:0 
-1 0:0 1:0 
-1 0:0 1:0 
-1 0:0 1:0 
-1 0:0 1:0 
-1 0:0 1:0 
-1 0:0 1:0 
-1 0:0 1:0 
-1 0:0 1:0 
-1 0:0 1:0 
-1 0:0 1:0 
-1 0:0 1:0 
-1 0:0 1:0 
-1 0:0 1:0 
-1 0:0 1:0 
-1 0:0 1:0 
-1 0:0 1:0 
-1 0:0 1:0 
-1 0:0 1:0 
-1 0:0 1:0 
-1 0:0 1:0 
-1 0:0 1:0 
-1 0:0 1:0 
-1 0:0 1:0 
-1 0:0 1:0 
-1 0:0 1:0 
-1 0:0 1:0 
-1 0:0 1:0 
-1 0:0 1:0 
-1 0:0 1:0 
-1 0:0 1:0 
-1 0:0 1:0 
-1 0:0 1:0 
-1 0:0 1:0 
-1 0:0 1:0 
-1 0:0 1:0 
-1 0:0 1:0 
-1 0:0 1:0 
-1 0:0 1:0 
-1 0:0 1:0 
-1 0:0 1:0 
-1 0:0 1:0 
-1 0:0 1:0 
-1 0:0 1:0 
-1 0:0 1:0 
-1 0:0 1:0 
-1 0:0 1:0 
-1 0:0 1:0 
-1 0:0 1:0 
-1 0:0 1:0 
-1 0:0 1:0 
-1 0:0 1:0 
-1 0:0 1:0 
-1 0:0 1:0 
-1 0:0 1:0 
-1 0:0 1:0 
-1 0:0 1:0 
-1 0:0 1:0 
-1 0:0 1:0 
-1 0:0 1:0 
-1 0:0 1:0 
-1 0:0 1:0 
-1 0:0 1:0 
-1 0:0 1:0 
-1 0:0 1:0 
-1 0:0 1:0 
-1 0:0 1:0 
-1 0:0 1:0 
-1 0:0 1:0 
-1 0:0 1:0 
-1 0:0 1:0 
-1 0:0 1:0 
-1 0:0 1:0 
-1 0:0 1:0 
-1 0:0 1:0 
-1 0:0 1:0 
-1 0:0 1:0 
-1 0:0 1:0 
-1 0:0 1:0 
-1 0:0 1:0 
-1 0:0 1:0 
-1 0:0 1:0 
-1 0:0 1:0 
-1 0:0 1:0 
-1 0:0 1:0 
-1 0:0 1:0 
-1 0:0 1:0 
-1 0:0 1:0 
-1 0:0 1:0 
-1 0:0 1:0 
-1 0:0 1:0 
-1 0:0 1:0 
-1 0:0 1:0 
-1 0:0 1:0 
-1 0:0 1:0 
-1 0:0 1:0 
-1 0:0 1:0 
-1 0:0 1:0 
-1 0:0 1:0 
-1 0:0 1:0 
-1 0:0 1:0 
-1 0:0 1:0 
-1 0:0 1:0 
-1 0:0 1:0 
-1 0:0 1:0 
-1 0:0 1:0 
-1 0:0 1:0 
-1 0:0 1:0 
-1 0:0 1:0 
-1 0:0 1:0 
-1 0:0 1:0 
-1 0:0 1:0 
-1 0:0 1:0 
-1 0:0 1:0 
-1 0:0 1:0 
-1 0:0 1:0 
-1 0:0 1:0 
-1 0:0 1:0 
-1 0:0 1:0 
-1 0:0 1:0 
-1 0:0 1:0 
-1 0:0 1:0 
-1 0:0 1:0 
-1 0:0 1:0 
-1 0:0 1:0 
-1 0:0 1:0 
-1 0:0 1:0 
-1 0:0 1:0 
-1 0:0 1:0 
-1 0:0 1:0 
-1 0:0 1:0 
-1 0:0 1:0 
-1 0:0 1:0 
-1 0:0 1:0 
-1 0:0 1:0 
-1 0:0 1:0 
-1 0:0 1:0 
-1 0:0 1:0 
-1 0:0 1:0 
-1 0:0 1:0 
-1 0:0 1:0 
-1 0:0 1:0 
-1 0:0 1:0 
-1 0:0 1:0 
-1 0:0 1:0 
-1 0:0 1:0 
-1 0:0 1:0 
-1 0:0 1:0 
-1 0:0 1:0 
-1 0:0 1:0 
-1 0:0 1:0 
-1 0:0 1:0 
-1 0:0 1:0 
-1 0:0 1:0 
-1 0:0 1:0 
-1 0:0 1:0 
-1 0:0 1:0 
-1 0:0 1:0 
-1 0:0 1:0 
-1 0:0 1:0 
-1 0:0 1:0 
-1 0:0 1:0 
-1 0:0 1:0 
-1 0:0 1:0 
-1 0:0 1:0 
-1 0:0 1:0 
-1 0:0 1:0 
-1 0:0 1:0 
-1 0:0 1:0 
-1 0:0 1:0 
-1 0:0 1:0 
-1 0:0 1:0 
-1 0:0 1:0 
-1 0:0 1:0 
-1 0:0 1:0 
-1 0:0 1:0 
-1 0:0 1:0 
-1 0:0 1:0 
-1 0:0 1:0 
-1 0:0 1:0 
-1 0:0 1:0 
-1 0:0 1:0 
-1 0:0 1:0 
-1 0:0 1:0 
-1 0:0 1:0 
-1 0:0 1:0 
-1 0:0 1:0 
-1 0:0 1:0 
-1 0:0 1:0 
-1 0:0 1:0 
-1 0:0 1:0 
-1 0:0 1:0 
-1 0:0 1:0 
-1 0:0 1:0 
-1 0:0 1:0 
-1 0:0 1:0 
-1 0:0 1:0 
-1 0:0 1:0 
-1 0:0 1:0 
-1 0:0 1:0 
-1 0:0 1:0 
-1 0:0 1:0 
-1 0:0 1:0 
-1 0:0 1:0 
-1 0:0 1:0 
-1 0:0 1:0 
-1 0:0 1:0 
-1 0:0 1:0 
-1 0:0 1:0 
-1 0:0 1:0 
-1 0:0 1:0 
-1 0:0 1:0 
-1 0:0 1:0 
-1 0:0 1:0 
-1 0:0 1:0 
-1 0:0 1:0 
-1 0:0 1:0 
-1 0:0 1:0 
-1 0:0 1:0 
-1 0:0 1:0 
-1 0:0 1:0 
-1 0:0 1:0 
-1 0:0 1:0 
-1 0:0 1:0 
-1 0:0 1:0 
-1 0:0 1:0 
-1 0:0 1:0 
-1 0:0 1:0 
-1 0:0 1:0 
-1 0:0 1:0 
-1 0:0 1:0 
-1 0:0 1:0 
-1 0:0 1:0 
-1 0:0 1:0 
-1 0:0 1:0 
-1 0:0 1:0 
-1 0:0 1:0 
-1 0:0 1:0 
-1 0:0 1:0 
-1 0:0 1:0 
-1 0:0 1:0 
-1 0:0 1:0 
-1 0:0 1:0 
-1 0:0 1:0 
-1 0:0 1:0 
-1 0:0 1:0 
-1 0:0 1:0 
-1 0:0 1:0 
-1 0:0 1:0 
-1 0:0 1:0 
-1 0:0 1:0 
-1 0:0 1:0 
-1 0:0 1:0 
-1 0:0 1:0 
-1 0:0 1:0 
-1 0:0 1:0 
-1 0:0 1:0 
-1 0:0 1:0 
-1 0:0 1:0 
-1 0:0 1:0 
-1 0:0 1:0 
-1 0:0 1:0 
-1 0:0 1:0 
-1 0:0 1:0 
-1 0:0 1:0 
-1 0:0 1:0 
-1 0:0 1:0 
-1 0:0 1:0 
-1 0:0 1:0 
-1 0:0 1:0 
-1 0:0 1:0 
-1 0:0 1:0 
-1 0:0 1:0 
-1 0:0 1:0 
-1 0:0 1:0 
-1 0:0 1:0 
-1 0:0 1:0 
-1 0:0 1:0 
-1 0:0 1:0 
-1 0:0 1:0 
-1 0:0 1:0 
-1 0:0 1:0 
-1 0:0 1:0 
-1 0:0 1:0 
-1 0:0 1:0 
-1 0:0 1:0 
-1 0:0 1:0 
-1 0:0 1:0 
-1 0:0 1:0 
-1 0:0 1:0 
-1 0:0 1:0 
-1 0:0 1:0 
-1 0:0 1:0 
-1 0:0 1:0 
-1 0:0 1:0 
-1 0:0 1:0 
-1 0:0 1:0 
-1 0:0 1:0 
-1 0:0 1:0 
-1 0:0 1:0 
-1 0:0 1:0 
-1 0:0 1:0 
-1 0:0 1:0 
-1 0:0 1:0 
-1 0:0 1:0 
-1 0:0 1:0 
-1 0:0.36610088 1:0.47968954 
-1 0:0.37164184 1:0.47493324 
-1 0:0.38002527 1:0.46780381 
-1 0:0.36262718 1:0.47017744 
-1 0:0.33775267 1:0.47157547 
-0.02952066673331572 0:2.2634192 1:1.6051408 
